1
[]
===
svm_type c_svc
kernel_type linear
nr_class 2
total_sv 109
rho 0.389628
label 1 2
nr_sv 54 55
SV
7.955416568788191e-06 1:0 2:0.05152322 3:0.14025351 4:0.11758499 5:0.12498007 6:0.47403285 7:0.72860897 8:1.13447 9:0.33521342 10:0 11:0.41452444 12:0.074263506 13:0.15754002 14:0.29150724 15:2.0825856 16:24.417095 17:15.196227 18:1.6686609 19:0 20:1.686289 21:0.86899161 22:0.75624156 23:1.0879598 24:2.8078902 25:3.3125308 26:1.7020358 27:3.0712304 28:0 29:6.7042384 30:70.978149 31:94.947762 32:6.7330012 33:19.036003 34:158.96962 35:72.717194 36:8.2534018 37:0 38:0.40787888 39:0.073072933 40:0.15501438 41:0.28683385 42:2.0491982 43:24.025646 44:14.952605 45:1.6419094 46:0 47:0.097614333 48:0.006901341 49:0.0076635433 50:0.20477542 51:1.48299 52:2.232389 53:1.9622545 54:0.59285825 55:0 56:6.5967574 57:69.84024 58:93.425583 59:6.6250591 60:18.730822 61:156.42105 62:71.551414 63:8.1210861 64:0 65:2.8649392 66:2.4558344 67:1.5813277 68:4.8160901 69:6.5548592 70:3.7959049 71:3.6129398 72:2.0315502 73:0 74:0.24895628 75:0.017601227 76:0.019545155 77:0.52226067 78:3.7822282 79:5.6935005 80:5.0045481 81:1.5120299 82:0 83:0.47800565 84:0.12897158 85:0.0799831 86:0.24038523 87:0.76055825 88:8.288022 89:6.2196274 90:1.0965861 91:0 92:7.3067613 93:6.2633777 94:4.0330291 95:12.28299 96:16.717558 97:9.6811028 98:9.214467 99:5.1812797 100:0 101:12.32085 102:13.701669 103:11.613473 104:5.0198073 105:10.861619 106:20.391899 107:12.796584 108:8.1771126 109:0 110:0.44515961 111:0.12010933 112:0.074487075 113:0.22386721 114:0.70829666 115:7.7185125 116:5.7922473 117:1.0212345 118:0 119:0.57759446 120:0.20318963 121:0.11705513 122:0.41219828 123:0.94807625 124:9.7574673 125:10.147655 126:0.73926121 127:0 128:11.474226 129:12.760162 130:10.815456 131:4.6748724 132:10.115265 133:18.990673 134:11.91727 135:7.6152244 136:0 137:13.017089 138:7.7660313 139:7.9904652 140:8.6216412 141:13.782553 142:13.913321 143:9.451086 144:12.476278 145:0 146:0.54901922 147:0.19313726 148:0.11126408 149:0.39180565 150:0.90117222 151:9.2747374 152:9.6456203 153:0.70268786 154:0 155:1.9754828 156:1.1150109 157:2.0958619 158:1.5635155 159:2.3599346 160:8.5068674 161:5.4552584 162:1.7826445 163:0 164:12.373096 165:7.3818235 166:7.5951538 167:8.1951046 168:13.10069 169:13.224989 170:8.9835138 171:11.859041 172:0 173:12.263985 174:5.4758115 175:7.7361112 176:16.151272 177:15.526407 178:9.3792286 179:8.3739204 180:21.302263 181:0 182:1.992987 183:1.1248907 184:2.1144328 185:1.5773695 186:2.3808453 187:8.5822449 188:5.5035958 189:1.7984401 190:0 191:1.5765357 192:0.68407953 193:1.741258 194:1.5116929 195:2.3232465 196:3.7424967 197:4.0453959 198:2.7503805 199:0 200:12.372653 201:5.5243316 202:7.8046589 203:16.294384 204:15.663982 205:9.4623356 206:8.4481201 207:21.491016 208:0 209:14.601939 210:2.6153128 211:2.4403911 212:14.565506 213:19.632578 214:5.2206678 215:6.2211928 216:17.756506 217:0 218:1.7812854 219:0.77292311 220:1.9674007 221:1.7080212 222:2.6249738 223:4.2285466 224:4.5707841 225:3.1075811 226:0 227:0.71557564 228:1.703334 229:1.8841543 230:1.2330314 231:1.5376735 232:4.0622468 233:5.3038383 234:0.7943694 235:0 236:16.498339 237:2.9549718 238:2.7573326 239:16.457174 240:22.182322 241:5.8986926 242:7.0291591 243:20.062599 244:0 245:9.2251654 246:4.8115778 247:5.9025459 248:10.047033 249:9.8390255 250:6.7717414 251:8.1939764 252:11.240372 253:0 254:0.69567484 255:1.6559626 256:1.8317543 257:1.1987396 258:1.4949093 259:3.9492717 260:5.1563334 261:0.77227724 262:0 263:2.6226704 264:2.0006061 265:2.062686 266:2.1806462 267:4.6363988 268:4.5690045 269:6.0248475 270:5.2112055 271:0 272:8.968605 273:4.6777635 274:5.7383904 275:9.7676153 276:9.5653934 277:6.5834126 278:7.966094 279:10.927766 280:0 281:9.0128908 282:13.927989 283:8.994771 284:9.1986904 285:11.30891 286:15.806749 287:16.131823 288:8.8882084 289:0 290:2.3471127 291:1.7904069 292:1.8459644 293:1.9515307 294:4.1492634 295:4.0889497 296:5.3918309 297:4.6636763 298:0 299:2.8607523 300:2.2971635 301:1.7448775 302:2.5429211 303:3.5505643 304:2.3658762 305:2.289134 306:2.9251637 307:0 308:8.0659275 309:12.464608 310:8.0497122 311:8.2322054 312:10.120709 313:14.145971 314:14.436889 315:7.9543452 316:0 317:14.589052 318:7.6091743 319:5.553791 320:14.535441 321:17.489008 322:11.804558 323:9.6490831 324:15.917211 325:0 326:2.8878429 327:2.318917 328:1.7614011 329:2.5670018 330:3.5841875 331:2.3882806 332:2.3108115 333:2.9528644 334:0 335:1.3976008 336:1.4230598 337:1.5219052 338:1.4089297 339:3.3811879 340:2.9053981 341:4.9367552 342:2.6002924 343:0 344:14.727208 345:7.6812315 346:5.6063843 347:14.673089 348:17.654625 349:11.916345 350:9.7404585 351:16.067944 352:0 353:8.1856651 354:9.7722416 355:10.905277 356:8.628231 357:9.4679632 358:14.083937 359:15.510784 360:10.321621 361:0 362:1.4573579 363:1.4839056 364:1.5869772 365:1.4691713 366:3.5257573 367:3.029624 368:5.1478362 369:2.711473 370:0 371:0.56322896 372:0.44741878 373:0.73480999 374:0.77001107 375:1.0181234 376:4.7374201 377:7.247787 378:1.182193 379:0 380:8.5356598 381:10.190073 382:11.371553 383:8.9971485 384:9.8727846 385:14.686124 386:16.173979 387:10.762942 388:0 389:10.600189 390:8.7695284 391:9.3799553 392:6.9514718 393:12.033069 394:17.517427 395:14.456489 396:8.6402264 397:0 398:0.61311769 399:0.48704949 400:0.79989672 401:0.83821583 402:1.108305 403:5.1570435 404:7.8897696 405:1.2869073 406:0 407:0.15563442 408:0.30697212 409:0.71754366 410:0.29302603 411:0.4123607 412:5.0383863 413:5.3736367 414:0.21558712 415:0 416:11.539115 417:9.5463009 418:10.210797 419:7.5672078 420:13.098913 421:19.069056 422:15.736991 423:9.4055462 424:0 425:6.6620646 426:7.3979878 427:10.168316 428:5.5433445 429:5.3661408 430:12.455023 431:12.241398 432:11.770147 433:0 434:0.17505626 435:0.3452796 436:0.80708694 437:0.32959318 438:0.46381977 439:5.6671338 440:6.0442204 441:0.24249054 442:0 443:0.25195348 444:0.8347131 445:0.63095409 446:0.42932382 447:2.0538144 448:4.4319692 449:6.2332878 450:1.2562383 451:0 452:7.493433 453:8.3211937 454:11.437235 455:6.235106 456:6.035789 457:14.009302 458:13.769019 459:13.23896 460:0 461:7.598906 462:4.4330673 463:3.1336346 464:5.204556 465:14.499192 466:12.64753 467:6.4955916 468:11.702634 469:0 470:0.27452806 471:0.90950191 472:0.68748647 473:0.46779048 474:2.2378325 475:4.8290658 476:6.7917795 477:1.368795 478:0 479:1.311817 480:0.10301448 481:0.22819525 482:0.720016 483:3.9370692 484:4.8063326 485:7.4913983 486:6.0520039 487:0 488:8.2797546 489:4.8302627 490:3.4144027 491:5.6708751 492:15.798294 493:13.780725 494:7.0775852 495:12.751169 496:0 497:10.769049 498:0.38179645 499:1.014794 500:7.4051948 501:6.7879853 502:2.2700045 503:3.9786325 504:15.515207 505:0 506:1.5728583 507:0.12351356 508:0.27360433 509:0.86329353 510:4.7205153 511:5.7627549 512:8.9821281 513:7.2563052 514:0 515:0.36073747 516:0.043408331 517:0.035648029 518:0.94179457 519:4.833499 520:3.6862299 521:2.1411874 522:1.4134774 523:0 524:12.912005 525:0.45777094 526:1.21673 527:8.8787699 528:8.1387415 529:2.7217176 530:4.770349 531:18.602612 532:0 533:2.5546598 534:0.2533752 535:0.13710779 536:12.370598 537:14.239372 538:1.2974968 539:0.79014081 540:2.7129838 541:0 542:1.1936389 543:0.61511534 544:0.53530526 545:0.77011186 546:1.9875638 547:2.3447735 548:1.2047852 549:2.173969 550:0 551:4.7455921 552:50.241852 553:67.208733 554:4.7659521 555:13.474627 556:112.52657 557:51.472836 558:5.8421674 559:0 560:2.9188855 561:1.1090791 562:1.1348859 563:4.0950723 564:2.9787059 565:0.93552953 566:0.56322247 567:4.542377 568:0 569:46.37508 570:46.162441 571:71.040833 572:10.374741 573:11.60329 574:82.191696 575:47.531319 576:53.175549 577:0 578:4.6986728 579:49.745113 580:66.544243 581:4.7188311 582:13.341403 583:111.41403 584:50.963924 585:5.7844062 586:0 587:2.0406103 588:1.7492173 589:1.1263323 590:3.4303567 591:4.6688299 592:2.7037094 593:2.5733888 594:1.4470123 595:0 596:45.916573 597:45.706036 598:70.338455 599:10.272166 600:11.488569 601:81.379066 602:47.061378 603:52.649803 604:0 605:2.7168605 606:1.8651098 607:2.0176532 608:4.8633122 609:5.0885186 610:1.9108937 611:2.0819683 612:2.5981398 613:0 614:5.4582543 615:4.6788321 616:3.0127301 617:9.1755686 618:12.488254 619:7.2319212 620:6.883338 621:3.8704896 622:0 623:9.2038507 624:10.235342 625:8.6754293 626:3.7498674 627:8.1137838 628:15.233038 629:9.5592299 630:6.1084194 631:0 632:7.2670979 633:4.9888229 634:5.3968482 635:13.008459 636:13.610844 637:5.1112862 638:5.5688791 639:6.949542 640:0 641:10.230209 642:9.9115515 643:11.483995 644:9.1246948 645:8.5178928 646:11.297257 647:10.281828 648:10.844984 649:0 650:8.4834499 651:9.4342041 652:7.9963889 653:3.4563589 654:7.478704 655:14.040723 656:8.8110132 657:5.6303029 658:0 659:9.6241627 660:5.7418017 661:5.9077368 662:6.3743958 663:10.190106 664:10.28679 665:6.9876447 666:9.2243147 667:0 668:9.4294729 669:9.1357574 670:10.585124 671:8.4104891 672:7.8511829 673:10.413002 674:9.4770517 675:9.996129 676:0 677:14.403353 678:3.1215076 679:6.516274 680:16.35947 681:14.387237 682:5.2438755 683:5.5440412 684:19.426844 685:0 686:9.280468 687:5.5367532 688:5.6967621 689:6.1467562 690:9.8262014 691:9.9194326 692:6.7381048 693:8.8949003 694:0 695:9.1986294 696:4.1071448 697:5.8024874 698:12.114298 699:11.645617 700:7.0349116 701:6.2808781 702:15.97781 703:0 704:13.888987 705:3.0100336 706:6.2835679 707:15.775249 708:13.873446 709:5.0566082 710:5.3460546 711:18.733082 712:0 713:15.002199 714:3.1293793 715:4.3324189 716:20.153246 717:14.662923 718:4.2948861 719:5.0128736 720:17.951572 721:0 722:9.5252876 723:4.252996 724:6.008543 725:12.544496 726:12.059171 727:7.2847328 728:6.503922 729:16.545208 730:0 731:11.24154 732:2.0134411 733:1.8787748 734:11.21349 735:15.114458 736:4.0192161 737:4.7894864 738:13.670134 739:0 740:15.534951 741:3.2405086 742:4.4862704 743:20.868921 744:15.183627 745:4.4474049 746:5.1908889 747:18.589064 748:0 749:14.283113 750:1.6808101 751:2.0545015 752:14.020011 753:14.461991 754:1.7104589 755:2.9742658 756:13.003493 757:0 758:12.774652 759:2.2880323 760:2.1350005 761:12.742777 762:17.175755 763:4.5673532 764:5.4426727 765:15.534455 766:0 767:7.1430387 768:3.725601 769:4.5703368 770:7.7794104 771:7.61835 772:5.2433538 773:6.3445892 774:8.7034111 775:0 776:16.231033 777:1.9100376 778:2.3346927 779:15.932048 780:16.434305 781:1.9437299 782:3.3798938 783:14.776899 784:0 785:15.686494 786:1.5051138 787:3.2181778 788:10.413464 789:11.490218 790:2.9542122 791:2.2639196 792:11.28126 793:0 794:7.0223737 795:3.6626656 796:4.4931316 797:7.647995 798:7.489656 799:5.1547799 800:6.2374125 801:8.5563869 802:0 803:7.0570488 804:10.905547 805:7.0428619 806:7.2025294 807:8.8548212 808:12.376607 809:12.631137 810:6.9594231 811:0 812:15.421507 813:1.4796885 814:3.1638141 815:10.237552 816:11.296117 817:2.9043076 818:2.2256761 819:11.090691 820:0 821:9.8870935 822:8.0441122 823:9.4610786 824:11.936108 825:10.35588 826:10.994216 827:8.0443468 828:10.098699 829:0 830:6.0723238 831:9.383811 832:6.0601163 833:6.197504 834:7.6192384 835:10.649602 836:10.868615 837:5.9883204 838:0 839:10.98317 840:5.7284632 841:4.1810961 842:10.942809 843:13.166362 844:8.8869009 845:7.2641811 846:11.983055 847:0 848:8.5074701 849:6.9216537 850:8.1409006 851:10.27057 852:8.9108429 853:9.4601068 854:6.9218559 855:8.6895475 856:0 857:16.667364 858:6.4861665 859:4.8167996 860:21.28067 861:18.14599 862:4.6464391 863:5.2499108 864:20.996193 865:0 866:10.563173 867:5.5094066 868:4.0212111 869:10.524356 870:12.66288 871:8.5470648 872:6.9863987 873:11.524823 874:0 875:5.8712149 876:7.0091953 877:7.8218718 878:6.1886473 879:6.7909503 880:10.101784 881:11.125197 882:7.4032412 883:0 884:16.030005 885:6.2381353 886:4.6326051 887:20.466896 888:17.452085 889:4.4687591 890:5.0491543 891:20.193298 892:0 893:9.7422523 894:8.3311777 895:9.7257938 896:15.680252 897:9.5538988 898:9.1920528 899:10.491613 900:14.199795 901:0 902:6.0259442 903:7.1939144 904:8.0280085 905:6.3517423 906:6.9699183 907:10.368005 908:11.418389 909:7.5983453 910:0 911:7.4834461 912:6.1910491 913:6.621994 914:4.9075503 915:8.4950199 916:12.366828 917:10.205888 918:6.0997653 919:0 920:9.9989977 921:8.5507364 922:9.9821062 923:16.093487 924:9.8056812 925:9.4342985 926:10.768108 927:14.574015 928:0 929:13.91606 930:8.9959965 931:8.4453363 932:15.733115 933:11.422699 934:8.4283619 935:10.122082 936:13.43714 937:0 938:7.8012171 939:6.4539409 940:6.9031849 941:5.1159406 942:8.8557453 943:12.891963 944:10.639263 945:6.3587809 946:0 947:4.504003 948:5.0015368 949:6.874465 950:3.747673 951:3.6278715 952:8.4204321 953:8.2760077 954:7.9574099 955:0 956:14.506981 957:9.3779955 958:8.8039522 959:16.401194 960:11.907743 961:8.7862568 962:10.551898 963:14.007724 964:0 965:13.184222 966:7.0215774 967:8.187396 968:11.696373 969:14.023192 970:7.7222204 971:7.7093391 972:16.250633 973:0 974:4.9565797 975:5.504107 976:7.5652328 977:4.1242514 978:3.9924116 979:9.2665434 980:9.1076069 981:8.7569962 982:0 983:5.0263457 984:2.9322813 985:2.072763 986:3.4425871 987:9.5905848 988:8.3657904 989:4.2965512 990:7.7407832 991:0 992:14.509014 993:7.7271276 994:9.0100918 995:12.871661 996:15.432286 997:8.4981737 998:8.4839983 999:17.883549 1000:0 1001:12.030469 1002:6.192503 1003:3.982235 1004:14.924384 1005:15.241657 1006:4.0230751 1007:2.8538339 1008:16.357479 1009:0 1010:5.9767213 1011:3.4867136 1012:2.4646785 1013:4.0935078 1014:11.403961 1015:9.9475842 1016:5.1089382 1017:9.204402 1018:0 1019:7.7736125 1020:0.27559885 1021:0.7325266 1022:5.3454223 1023:4.8998914 1024:1.6385974 1025:2.8719664 1026:11.199615 1027:0 1028:14.305176 1029:7.3633742 1030:4.7351913 1031:17.746269 1032:18.123533 1033:4.7837539 1034:3.3934336 1035:19.450333 1036:0 1037:11.656595 1038:0.80574822 1039:0.7053507 1040:8.8923388 1041:7.3992858 1042:0.46565208 1043:1.116351 1044:16.978109 1045:0 1046:10.271548 1047:0.36415851 1048:0.96791327 1049:7.0630951 1050:6.4743996 1051:2.1651366 1052:3.7948306 1053:14.798448 1054:0 1055:2.0322416 1056:0.20156093 1057:0.10906976 1058:9.8408566 1059:11.327475 1060:1.0321636 1061:0.62856001 1062:2.1581888 1063:0 1064:15.40227 1065:1.0646636 1066:0.93200481 1067:11.749762 1068:9.7769375 1069:0.61528254 1070:1.4750741 1071:22.433775 1072:0 1073:1.9952651 1074:0.31025985 1075:0.46742848 1076:13.145711 1077:14.165315 1078:0.66223073 1079:0.38830382 1080:1.9720732 1081:0 1082:2.8247817 1083:1.0733229 1084:1.0982976 1085:3.9630487 1086:2.8826735 1087:0.90536839 1088:0.54506439 1089:4.3959322 1090:0 1091:44.879967 1092:44.674179 1093:68.750504 1094:10.040263 1095:11.229204 1096:79.541862 1097:45.998928 1098:51.461189 1099:0 1100:2.5713437 1101:2.1966481 1102:1.274709 1103:3.4677737 1104:2.5846879 1105:1.8002058 1106:1.6614376 1107:1.7134315 1108:0 1109:-0.45197645 1110:70.122169 1111:85.328484 1112:9.5631895 1113:8.1949635 1114:81.562813 1115:89.655869 1116:-4.0933886 1117:0 1118:44.450966 1119:44.247147 1120:68.09333 1121:9.9442902 1122:11.121866 1123:78.78154 1124:45.559231 1125:50.96928 1126:0 1127:2.6301413 1128:1.8055775 1129:1.9532518 1130:4.7080808 1131:4.9260983 1132:1.8499 1133:2.0155141 1134:2.5152099 1135:0 1136:-0.44765607 1137:69.451881 1138:84.51284 1139:9.471776 1140:8.1166296 1141:80.783165 1142:88.798859 1143:-4.0542603 1144:0 1145:1.0056558 1146:3.7988648 1147:4.9364448 1148:2.9296567 1149:2.0124941 1150:4.9828024 1151:5.2086282 1152:1.3967189 1153:0 1154:6.8621287 1155:4.7108135 1156:5.0961013 1157:12.283545 1158:12.85236 1159:4.8264527 1160:5.2585454 1161:6.5622692 1162:0 1163:9.6601162 1164:9.3592157 1165:10.844034 1166:8.6162081 1167:8.0432215 1168:10.667702 1169:9.7088585 1170:10.240632 1171:0 1172:2.6237903 1173:9.9113684 1174:12.879354 1175:7.6435752 1176:5.2506661 1177:13.000302 1178:13.58949 1179:3.6440873 1180:0 1181:3.7775781 1182:14.299068 1183:15.376627 1184:4.815773 1185:2.8263931 1186:16.037485 1187:16.578312 1188:5.199543 1189:0 1190:9.0767097 1191:8.7939816 1192:10.189127 1193:8.0958462 1194:7.5574646 1195:10.023444 1196:9.122508 1197:9.6221666 1198:0 1199:13.864513 1200:3.0047297 1201:6.2724957 1202:15.747452 1203:13.848999 1204:5.0476985 1205:5.3366346 1206:18.700071 1207:0 1208:3.5494375 1209:13.4355 1210:14.447982 1211:4.5249324 1212:2.6556978 1213:15.068928 1214:15.577093 1215:4.8855257 1216:0 1217:4.0318532 1218:13.031619 1219:11.525067 1220:7.4424615 1221:4.6291909 1222:11.720067 1223:13.89126 1224:6.5179944 1225:0 1226:13.302824 1227:2.8829999 1228:6.0183797 1229:15.109479 1230:13.287938 1231:4.8432021 1232:5.1204329 1233:17.94248 1234:0 1235:14.369055 1236:2.9973087 1237:4.1495762 1238:19.302711 1239:14.044097 1240:4.1136274 1241:4.8013134 1242:17.193954 1243:0 1244:3.8685117 1245:12.503673 1246:11.058155 1247:7.1409469 1248:4.4416494 1249:11.245255 1250:13.328486 1251:6.253933 1252:0 1253:11.076474 1254:12.781681 1255:8.3181438 1256:10.118524 1257:7.5090652 1258:13.456302 1259:15.566531 1260:5.8110209 1261:0 1262:15.218101 1263:3.1744153 1264:4.3947682 1265:20.443279 1266:14.873942 1267:4.3566957 1268:5.0850158 1269:18.209921 1270:0 1271:13.991796 1272:1.6465284 1273:2.0125978 1274:13.734058 1275:14.167025 1276:1.6755724 1277:2.9136028 1278:12.738275 1279:0 1280:11.730967 1281:13.536932 1282:8.8096504 1283:10.716413 1284:7.9527645 1285:14.251414 1286:16.486334 1287:6.1543856 1288:0 1289:8.1332893 1290:6.8729539 1291:5.8391542 1292:9.293088 1293:4.9651375 1294:9.5093441 1295:8.8331308 1296:4.72086 1297:0 1298:16.350489 1299:1.924095 1300:2.3518755 1301:16.049305 1302:16.555258 1303:1.9580352 1304:3.4047689 1305:14.885653 1306:0 1307:15.801943 1308:1.5161911 1309:3.2418628 1310:10.490104 1311:11.574783 1312:2.9759545 1313:2.2805817 1314:11.364288 1315:0 1316:9.5043745 1317:8.0315752 1318:6.8235011 1319:10.859688 1320:5.802145 1321:11.1124 1322:10.322193 1323:5.5166883 1324:0 1325:5.3284874 1326:4.5373621 1327:6.3038139 1328:6.3965397 1329:4.3520126 1330:9.8681698 1331:10.499799 1332:5.6933599 1333:0 1334:15.25771 1335:1.4639723 1336:3.1302104 1337:10.128817 1338:11.176138 1339:2.8734603 1340:2.2020366 1341:10.972893 1342:0 1343:9.7820807 1344:7.958673 1345:9.36059 1346:11.809331 1347:10.245887 1348:10.877443 1349:7.9589052 1350:9.991437 1351:0 1352:5.1449699 1353:4.3810916 1354:6.0867052 1355:6.1762376 1356:4.2021255 1357:9.5283022 1358:10.138178 1359:5.4972763 1360:0 1361:4.187777 1362:12.985346 1363:13.527175 1364:6.737287 1365:4.0827279 1366:13.979418 1367:15.735293 1368:5.146287 1369:0 1370:8.5277138 1371:6.9381242 1372:8.1602716 1373:10.295009 1374:8.9320459 1375:9.4826174 1376:6.9383264 1377:8.7102251 1378:0 1379:16.707026 1380:6.5016003 1381:4.8282614 1382:21.331306 1383:18.189169 1384:4.657495 1385:5.262403 1386:21.046154 1387:0 1388:3.650774 1389:11.320222 1390:11.792571 1391:5.8733578 1392:3.5591955 1393:12.186822 1394:13.71754 1395:4.4863734 1396:0 1397:8.0797882 1398:7.8884511 1399:9.22472 1400:8.3744326 1401:6.4566259 1402:10.573174 1403:10.777895 1404:6.9012232 1405:0 1406:15.779064 1407:6.140481 1408:4.5600848 1409:20.1465 1410:17.178885 1411:4.3988032 1412:4.9701128 1413:19.877184 1414:0 1415:9.5897436 1416:8.200758 1417:9.5735426 1418:15.434787 1419:9.4043388 1420:9.0481567 1421:10.327374 1422:13.977506 1423:0 1424:7.6310115 1425:7.4503016 1426:8.7123499 1427:7.9092903 1428:6.0980048 1429:9.9859056 1430:10.179257 1431:6.5179076 1432:0 1433:7.2031703 1434:10.267965 1435:12.817645 1436:8.3877964 1437:4.7560792 1438:12.430203 1439:14.379978 1440:5.7602682 1441:0 1442:9.3986492 1443:8.037343 1444:9.3827715 1445:15.127219 1446:9.216939 1447:8.8678551 1448:10.121581 1449:13.698977 1450:0 1451:13.080527 1452:8.4558687 1453:7.9382706 1454:14.788485 1455:10.73687 1456:7.9223151 1457:9.5143423 1458:12.630362 1459:0 1460:7.0596337 1461:10.063357 1462:12.562229 1463:8.2206535 1464:4.6613054 1465:12.182508 1466:14.093431 1467:5.645484 1468:0 1469:7.3648486 1470:11.165028 1471:13.26744 1472:10.668616 1473:4.2996044 1474:13.70448 1475:14.318192 1476:7.3870473 1477:0 1478:13.42771 1479:8.6803036 1480:8.1489677 1481:15.181 1482:11.021848 1483:8.1325884 1484:9.7668715 1485:12.965596 1486:0 1487:12.20336 1488:6.4991956 1489:7.5782814 1490:10.826201 1491:12.979914 1492:7.1477132 1493:7.1357903 1494:15.04164 1495:0 1496:7.5603261 1497:11.46137 1498:13.619583 1499:10.951782 1500:4.4137239 1501:14.068224 1502:14.698224 1503:7.5831137 1504:0 1505:10.529803 1506:9.0354729 1507:8.7341528 1508:5.8463182 1509:4.9610758 1510:11.34768 1511:10.375011 1512:5.2412796 1513:0 1514:13.264627 1515:7.0643988 1516:8.2373276 1517:11.767704 1518:14.108713 1519:7.7693148 1520:7.7563553 1521:16.349739 1522:0 1523:10.998658 1524:5.6613936 1525:3.6406927 1526:13.644372 1527:13.934434 1528:3.6780303 1529:2.6090705 1530:14.954556 1531:0 1532:11.445529 1533:9.8212433 1534:9.4937201 1535:6.354744 1536:5.3925161 1537:12.334533 1538:11.277276 1539:5.6970882 1540:0 1541:7.9822016 1542:9.3515291 1543:6.2823906 1544:10.214447 1545:7.4076867 1546:8.4245605 1547:9.4170246 1548:5.4527869 1549:0 1550:12.594773 1551:6.4829702 1552:4.1690269 1553:15.624432 1554:15.956586 1555:4.2117825 1556:2.9876966 1557:17.124746 1558:0 1559:10.262871 1560:0.7094087 1561:0.62101525 1562:7.8291235 1563:6.5145879 1564:0.40997621 1565:0.98287416 1566:14.948115 1567:0 1568:9.1405716 1569:10.708614 1570:7.1940856 1571:11.696758 1572:8.4826832 1573:9.6471243 1574:10.783614 1575:6.2440901 1576:0 1577:10.788398 1578:5.3966246 1579:4.9882512 1580:4.945416 1581:7.5282702 1582:9.6471004 1583:7.7726326 1584:8.4165306 1585:0 1586:13.159589 1587:0.90964091 1588:0.79629815 1589:10.038911 1590:8.3533449 1591:0.52569294 1592:1.2602926 1593:19.167255 1594:0 1595:1.70474 1596:0.26508376 1597:0.39936751 1598:11.2316 1599:12.102742 1600:0.56580514 1601:0.33176398 1602:1.6849251 1603:0 1604:13.833447 1605:6.9198341 1606:6.3961964 1607:6.3412709 1608:9.653142 1609:12.370016 1610:9.9664755 1611:10.792115 1612:0 1613:1.7178944 1614:2.7947385 1615:6.4080248 1616:6.8039398 1617:4.6513686 1618:7.4009256 1619:8.5947428 1620:1.5800579 1621:0 1622:3.1035857 1623:2.6513319 1624:1.538561 1625:4.1855679 1626:3.1196923 1627:2.1728303 1628:2.0053384 1629:2.0680945 1630:0 1631:-0.54553097 1632:84.636749 1633:102.99062 1634:11.542672 1635:9.8912382 1636:98.445488 1637:108.21372 1638:-4.9406786 1639:0 1640:0.58496511 1641:0.5341807 1642:0.4243097 1643:0.22071022 1644:0.30746964 1645:3.6252925 1646:3.7866149 1647:0.13829252 1648:0 1649:-0.29733106 1650:51.40567 1651:49.021408 1652:-0.16047356 1653:1.361477 1654:29.986717 1655:34.936714 1656:-0.9709844 1657:0 1658:-0.53843117 1659:83.53524 1660:101.65024 1661:11.392449 1662:9.7625084 1663:97.164261 1664:106.80537 1665:-4.8763781 1666:0 1667:1.2095813 1668:4.5691934 1669:5.9374499 1670:3.5237286 1671:2.4205849 1672:5.9932084 1673:6.2648268 1674:1.6799436 1675:0 1676:-0.29346141 1677:50.736649 1678:48.383415 1679:-0.15838507 1680:1.343758 1681:29.596455 1682:34.482025 1683:-0.95834744 1684:0 1685:0.072383277 1686:2.3368385 1687:4.5614181 1688:0.13397269 1689:0.39786911 1690:3.2923996 1691:3.4906795 1692:0.063515991 1693:0 1694:3.0627501 1695:11.569539 1696:15.034067 1697:8.9223433 1698:6.1291013 1699:15.175251 1700:15.863008 1701:4.2537427 1702:0 1703:4.4095659 1704:16.691299 1705:17.949135 1706:5.6214509 1707:3.2992482 1708:18.720552 1709:19.351862 1710:6.0694261 1711:0 1712:0.18327987 1713:5.9170494 1714:11.54985 1715:0.33922887 1716:1.0074342 1717:8.3366013 1718:8.8386612 1719:0.16082723 1720:0 1721:0.0085733542 1722:7.9334321 1723:8.267333 1724:0.070397481 1725:0.094332986 1726:8.1241026 1727:9.5095367 1728:0.015946399 1729:0 1730:4.3599586 1731:16.503525 1732:17.747208 1733:5.5582099 1734:3.2621319 1735:18.509947 1736:19.134153 1737:6.0011454 1738:0 1739:4.9525352 1740:16.007416 1741:14.15684 1742:9.141963 1743:5.686276 1744:14.396369 1745:17.063356 1746:8.0063915 1747:0 1748:0.0084769046 1749:7.8441815 1750:8.1743259 1751:0.069605514 1752:0.093271747 1753:8.0327072 1754:9.4025555 1755:0.015767004 1756:0 1757:0.15720375 1758:4.9130378 1759:6.5338807 1760:0.29864553 1761:0.18787441 1762:8.4458609 1763:10.406007 1764:0.16702352 1765:0 1766:4.7712235 1767:15.421387 1768:13.63856 1769:8.8072767 1770:5.4781022 1771:13.86932 1772:16.438671 1773:7.7132792 1774:0 1775:13.661154 1776:15.764269 1777:10.259171 1778:12.479667 1779:9.2612944 1780:16.59631 1781:19.198959 1782:7.1670141 1783:0 1784:0.15144855 1785:4.7331719 1786:6.2946768 1787:0.28771216 1788:0.18099636 1789:8.1366596 1790:10.025044 1791:0.16090882 1792:0 1793:0.55756837 1794:4.6396537 1795:5.058167 1796:0.59273654 1797:0.6705569 1798:10.169188 1799:12.007062 1800:0.36596048 1801:0 1802:14.333012 1803:16.539558 1804:10.763719 1805:13.093419 1806:9.7167664 1807:17.412519 1808:20.143167 1809:7.5194893 1810:0 1811:9.9373341 1812:8.3974428 1813:7.1343369 1814:11.354387 1815:6.0664544 1816:11.61861 1817:10.792407 1818:5.7679939 1819:0 1820:0.58498967 1821:4.8678327 1822:5.3069282 1823:0.62188745 1824:0.70353496 1825:10.66931 1826:12.597571 1827:0.38395849 1828:0 1829:0.34864956 1830:3.4333127 1831:2.4292808 1832:0.36486942 1833:0.39323589 1834:10.044973 1835:9.0006294 1836:0.28325051 1837:0 1838:11.665405 1839:9.8577318 1840:8.3749752 1841:13.328879 1842:7.1213918 1843:13.63905 1844:12.669172 1845:6.7710299 1846:0 1847:6.5400372 1848:5.5690317 1849:7.7371259 1850:7.850935 1851:5.3415394 1852:12.111917 1853:12.887161 1854:6.9878716 1855:0 1856:0.40927863 1857:4.030355 1858:2.8517251 1859:0.42831907 1860:0.46161836 1861:11.791762 1862:10.56581 1863:0.33250687 1864:0 1865:0.089051984 1866:1.9506347 1867:3.0225108 1868:0.45255846 1869:0.26282537 1870:9.6855631 1871:11.677892 1872:0.21761841 1873:0 1874:6.3488302 1875:5.4062138 1876:7.5109205 1877:7.6214023 1878:5.1853724 1879:11.75781 1880:12.510388 1881:6.7835717 1882:0 1883:5.167666 1884:16.02376 1885:16.692369 1886:8.3137302 1887:5.0380368 1888:17.250431 1889:19.41716 1890:6.3504558 1891:0 1892:0.086448431 1893:1.8936052 1894:2.9341438 1895:0.4393273 1896:0.25514129 1897:9.4023924 1898:11.336473 1899:0.21125604 1900:0 1901:0.12044127 1902:2.0519984 1903:1.9689182 1904:0.21027753 1905:0.14016666 1906:11.755758 1907:12.485063 1908:0.23839784 1909:0 1910:4.7742958 1911:14.804008 1912:15.421721 1913:7.6808767 1914:4.6545339 1915:15.937304 1916:17.939098 1917:5.8670497 1918:0 1919:10.566335 1920:10.316113 1921:12.063618 1922:10.951655 1923:8.4436455 1924:13.827056 1925:14.094781 1926:9.0250673 1927:0 1928:0.1112731 1929:1.8957973 1930:1.8190413 1931:0.19427089 1932:0.12949696 1933:10.860892 1934:11.534681 1935:0.22025065 1936:0 1937:0.056397274 1938:1.7000866 1939:2.0072739 1940:0.081949793 1941:0.050869312 1942:11.010916 1943:12.296905 1944:0.11282267 1945:0 1946:9.9687681 1947:9.7326975 1948:11.381374 1949:10.332297 1950:7.9661255 1951:13.045083 1952:13.297668 1953:8.5146656 1954:0 1955:9.4098587 1956:13.413552 1957:16.744324 1958:10.957394 1959:6.2131019 1960:16.23819 1961:18.785278 1962:7.5249233 1963:0 1964:0.053207796 1965:1.6039402 1966:1.893755 1967:0.077315219 1968:0.04799246 1969:10.388207 1970:11.601468 1971:0.10644212 1972:0 1973:0.13719903 1974:2.3955045 1975:3.6402872 1976:0.88033539 1977:0.2017283 1978:11.352063 1979:15.976623 1980:0.38281131 1981:0 1982:8.7978315 1983:12.541121 1984:15.655256 1985:10.244715 1986:5.8089957 1987:15.182042 1988:17.563465 1989:7.0354948 1990:0 1991:9.178196 1992:13.914042 1993:16.534103 1994:13.295405 1995:5.3582377 1996:17.078749 1997:17.843567 1998:9.2058601 1999:0 2000:0.12827547 2001:2.2396986 2002:3.4035194 2003:0.8230775 2004:0.18860769 2005:10.613714 2006:14.937488 2007:0.35791287 2008:0 2009:0.52804744 2010:2.7458632 2011:2.6356015 2012:0.62375295 2013:0.34024721 2014:13.173915 2015:12.416056 2016:0.86372089 2017:0 2018:9.5148993 2019:14.42448 2020:17.140657 2021:13.78315 2022:5.5548053 2023:17.705286 2024:18.498159 2025:9.5435781 2026:0 2027:13.252076 2028:11.371416 2029:10.992196 2030:7.3577685 2031:6.2436638 2032:14.2814 2033:13.057266 2034:6.5963092 2035:0 2036:0.54741895 2037:2.8465955 2038:2.7322888 2039:0.64663541 2040:0.35272923 2041:13.657202 2042:12.87154 2043:0.8954066 2044:0 2045:0.30671182 2046:1.314707 2047:1.9801363 2048:0.34064314 2049:0.22152072 2050:10.340419 2051:13.435188 2052:0.20522285 2053:0 2054:14.290709 2055:12.262651 2056:11.85371 2057:7.9344344 2058:6.7330112 2059:15.400705 2060:14.08063 2061:7.1132956 2062:0 2063:9.9664526 2064:11.676173 2065:7.8440948 2066:12.753599 2067:9.2491217 2068:10.518774 2069:11.75795 2070:6.8082647 2071:0 2072:0.33075038 2073:1.4177473 2074:2.1353297 2075:0.36734107 2076:0.23888244 2077:11.15085 2078:14.488173 2079:0.2213072 2080:0 2081:1.2951307 2082:1.5809245 2083:1.7445145 2084:0.56825072 2085:0.75705552 2086:12.577288 2087:14.214871 2088:0.36358038 2089:0 2090:10.464299 2091:12.259424 2092:8.2359247 2093:13.39067 2094:9.7111359 2095:11.04421 2096:12.345285 2097:7.1483526 2098:0 2099:12.350761 2100:6.1781578 2101:5.7106442 2102:5.6616058 2103:8.6185064 2104:11.044183 2105:8.8982563 2106:9.6354027 2107:0 2108:1.3598254 2109:1.6598952 2110:1.8316568 2111:0.59663612 2112:0.79487211 2113:13.205551 2114:14.924936 2115:0.38174203 2116:0 2117:1.2629782 2118:1.8920263 2119:5.7306023 2120:0.45203456 2121:2.910753 2122:13.788411 2123:8.5507278 2124:0.53786331 2125:0 2126:14.798167 2127:7.402411 2128:6.8422556 2129:6.7835002 2130:10.326335 2131:13.232679 2132:10.66152 2133:11.544738 2134:0 2135:1.8376973 2136:2.9896386 2137:6.8549089 2138:7.2784348 2139:4.9757466 2140:7.9170532 2141:9.1941252 2142:1.6902483 2143:0 2144:1.5132478 2145:2.266947 2146:6.866169 2147:0.54160893 2148:3.4875431 2149:16.520699 2150:10.245126 2151:0.64444542 2152:0 2153:0.052580021 2154:2.2958672 2155:7.758709 2156:0.25647777 2157:0.80569535 2158:3.8307669 2159:4.2771492 2160:0.073725343 
1.022036602682026e-05 1:0 2:0.017804656 3:0.59594816 4:0.30981863 5:0.010008133 6:0.13603269 7:2.1298382 8:2.0592635 9:0.16417439 10:0 11:0.069330066 12:1.4482151 13:1.5529751 14:1.0671217 15:2.5891941 16:22.963453 17:42.910706 18:27.731373 19:0 20:0.57150543 21:3.9067733 22:2.5568871 23:0.25517637 24:0.43146327 25:4.4714999 26:3.6785626 27:0.49682394 28:0 29:22.512825 30:56.187466 31:78.471321 32:31.328091 33:22.201174 34:85.398331 35:127.98116 36:30.857237 37:0 38:0.068863206 39:1.438463 40:1.5425173 41:1.0599358 42:2.5717585 43:22.808819 44:42.621746 45:27.54463 46:0 47:0.07617373 48:0.30298534 49:0.17034379 50:0.039934814 51:0.26773748 52:2.033776 53:1.9569451 54:0.20897518 55:0 56:22.361223 57:55.809101 58:77.942894 59:31.117128 60:22.051672 61:84.823265 62:127.11934 63:30.649446 64:0 65:2.3958905 66:3.4548361 67:2.0239387 68:2.0511222 69:3.5448124 70:6.4398999 71:3.4663868 72:1.0093606 73:0 74:0.21483156 75:0.85450476 76:0.48041788 77:0.11262752 78:0.75509578 79:5.735826 80:5.5191412 81:0.58936936 82:0 83:0.11002877 84:1.5923508 85:1.3970778 86:0.25993484 87:0.39685237 88:6.2548122 89:5.7105675 90:0.56515205 91:0 92:6.757092 93:9.7436199 94:5.7080822 95:5.7847476 96:9.9973783 97:18.162348 98:9.7761955 99:2.8466835 100:0 101:10.398963 102:10.342632 103:9.8890619 104:12.607459 105:9.22614 106:19.675278 107:22.194599 108:12.339435 109:0 110:0.097502179 111:1.4110645 112:1.2380229 113:0.23034172 114:0.3516714 115:5.5427127 116:5.0604291 117:0.50081044 118:0 119:0.2509602 120:1.9563441 121:1.375504 122:0.17565249 123:0.71178699 124:6.0819707 125:5.2599306 126:1.1125182 127:0 128:9.2150593 129:9.1651411 130:8.7632093 131:11.172122 132:8.1757603 133:17.435282 134:19.667782 135:10.934611 136:0 137:13.466676 138:8.2067308 139:7.030539 140:13.884751 141:13.169013 142:20.217754 143:16.950142 144:13.652154 145:0 146:0.2325488 147:1.8128192 148:1.2745918 149:0.16276595 150:0.65956759 151:5.6357737 152:4.874042 153:1.0308995 154:0 155:0.99848014 156:2.5901604 157:4.4026566 158:1.4328543 159:2.8020372 160:4.4549723 161:4.1492004 162:2.3088796 163:0 164:12.478709 165:7.6046529 166:6.5147514 167:12.866113 168:12.202884 169:18.734503 170:15.706614 171:12.650579 172:0 173:14.421906 174:11.635464 175:11.89336 176:12.514131 177:12.162807 178:24.353388 179:17.260883 180:9.0456362 181:0 182:1.0251273 183:2.6592858 184:4.5201535 185:1.4710939 186:2.8768172 187:4.5738654 188:4.2599335 189:2.3704984 190:0 191:0.55073595 192:4.146976 193:4.2471914 194:1.4965805 195:2.7192733 196:2.7384174 197:3.6186869 198:2.3964777 199:0 200:14.806793 201:11.945988 202:12.210767 203:12.848104 204:12.487405 205:25.003325 206:17.721537 207:9.2870436 208:0 209:6.1683173 210:17.796486 211:12.165772 212:2.6599457 213:3.4505141 214:16.727097 215:18.211103 216:5.186224 217:0 218:0.64995521 219:4.8940854 220:5.0123558 221:1.7662009 222:3.2091713 223:3.2317643 224:4.2706208 225:2.8282216 226:0 227:0.39604324 228:6.6051788 229:4.263011 230:0.47259533 231:0.93367141 232:2.6800237 233:2.7105434 234:0.84470636 235:0 236:7.2795868 237:21.002659 238:14.35753 239:3.1391551 240:4.0721507 241:19.74061 242:21.491972 243:6.1205616 244:0 245:5.3942018 246:12.089861 247:6.3888187 248:2.8139107 249:17.905901 250:9.9388618 251:8.2335424 252:2.3090742 253:0 254:0.37698188 255:6.2872753 256:4.0578346 257:0.44984958 258:0.88873428 259:2.5510356 260:2.5800862 261:0.80405104 262:0 263:0.42541039 264:9.9898396 265:7.4949131 266:0.51261014 267:1.0799396 268:5.0250316 269:3.7230904 270:0.769934 271:0 272:5.1345816 273:11.507982 274:6.0813284 275:2.6784787 276:17.044098 277:9.4605093 278:7.8372669 279:2.1979396 280:0 281:16.945232 282:14.510592 283:10.868591 284:6.9344316 285:16.542269 286:17.778299 287:10.718871 288:14.25834 289:0 290:0.35845 291:8.4174194 292:6.3151994 293:0.43192431 294:0.90995508 295:4.2340817 296:3.1370687 297:0.64874488 298:0 299:0.25567216 300:9.1850071 301:5.4397097 302:0.24337065 303:0.54618227 304:7.5064631 305:4.9675159 306:0.82489538 307:0 308:14.27802 309:12.226598 310:9.1578541 311:5.8429384 312:13.938484 313:14.97996 314:9.0317001 315:12.01405 316:0 317:9.4430323 318:21.14929 319:16.356447 320:10.559139 321:8.9995785 322:25.374805 323:12.280268 324:9.0947037 325:0 326:0.23518167 327:8.4488878 328:5.0037518 329:0.22386605 330:0.50240922 331:6.9048681 332:4.5694017 333:0.75878531 334:0 335:1.2831445 336:5.2953753 337:3.2425094 338:0.62241769 339:1.6433111 340:9.0953312 341:4.9215508 342:1.2376335 343:0 344:8.6862335 345:19.454309 346:15.045583 347:9.7128916 348:8.2783194 349:23.341177 350:11.296082 351:8.3658209 352:0 353:15.266694 354:12.362064 355:11.402361 356:21.459776 357:14.792852 358:18.528555 359:11.26403 360:17.394842 361:0 362:1.2826111 363:5.2931743 364:3.2411616 365:0.62215894 366:1.6426281 367:9.0915508 368:4.9195051 369:1.237119 370:0 371:0.83003467 372:2.6781254 373:1.6015233 374:1.2534324 375:1.4964957 376:9.4175873 377:5.9956417 378:3.5394194 379:0 380:15.260348 381:12.356926 382:11.397621 383:21.450855 384:14.786703 385:18.520853 386:11.259348 387:17.387611 388:0 389:14.228933 390:10.22893 391:9.193573 392:13.938767 393:10.628251 394:15.593939 395:9.5198212 396:20.862112 397:0 398:0.85363698 399:2.7542787 400:1.6470631 401:1.2890742 402:1.5390491 403:9.68538 404:6.1661296 405:3.6400638 406:0 407:0.77655333 408:1.6944271 409:1.2577763 410:0.92654759 411:1.2741313 412:12.57574 413:10.276883 414:2.3223288 415:0 416:14.633537 417:10.519794 418:9.4549952 419:14.33512 420:10.930469 421:16.037357 422:9.7905197 423:21.455334 424:0 425:16.698521 426:15.630574 427:7.5465899 428:10.932454 429:18.523186 430:18.295118 431:8.9807177 432:10.550678 433:0 434:0.8576014 435:1.8712727 436:1.3890489 437:1.0232503 438:1.407111 439:13.888256 440:11.34947 441:2.5647078 442:0 443:1.6328359 444:0.039475068 445:0.13825202 446:2.9109938 447:5.3396206 448:2.1019094 449:3.2903881 450:5.808506 451:0 452:18.441326 453:17.261921 454:8.334219 455:12.073462 456:20.45643 457:20.204561 458:9.918025 459:11.651841 460:0 461:14.129583 462:2.9151602 463:0.93869972 464:14.419643 465:16.668993 466:3.5145123 467:6.5875621 468:14.065964 469:0 470:1.9439003 471:0.04699529 472:0.16458981 473:3.4655545 474:6.3568482 475:2.5023351 476:3.9172256 477:6.9150591 478:0 479:1.7642574 480:0.19341707 481:0.18315841 482:1.4466711 483:3.5538149 484:2.9669361 485:3.4012821 486:4.7792406 487:0 488:16.821348 489:3.4705145 490:1.1175274 491:17.166668 492:19.84453 493:4.1840467 494:7.8425303 495:16.745609 496:0 497:8.9395199 498:10.094314 499:4.5097632 500:5.9487262 501:11.118464 502:13.4818 503:14.416181 504:8.3354836 505:0 506:2.1886351 507:0.23994198 508:0.22721568 509:1.7946562 510:4.4086561 511:3.6806085 512:4.2194328 513:5.9288483 514:0 515:0.22519006 516:0.42969239 517:0.10479679 518:0.096637122 519:1.1520207 520:3.1746588 521:5.0889072 522:0.88026619 523:0 524:11.089849 525:12.522419 526:5.5945501 527:7.3796439 528:13.79292 529:16.724737 530:17.883875 531:10.340516 532:0 533:4.8526444 534:8.2272806 535:2.0942228 536:2.1883566 537:4.7588115 538:7.0446734 539:7.4506855 540:1.5917841 541:0 542:0.58811319 543:4.0203028 544:2.6311891 545:0.26259169 546:0.44400144 547:4.6014404 548:3.7854602 549:0.51126146 550:0 551:23.167038 552:57.820251 553:80.751663 554:32.238472 555:22.846331 556:87.879974 557:131.70024 558:31.753937 559:0 560:1.1166394 561:2.6276708 562:1.9733024 563:0.99642074 564:0.59708107 565:2.8502638 566:1.8192959 567:0.71655577 568:0 569:12.054903 570:11.304512 571:18.055634 572:13.093198 573:9.0138693 574:-6.5380239 575:-12.453101 576:18.535593 577:0 578:22.544529 579:56.266594 580:78.581833 581:31.37221 582:22.232439 583:85.5186 584:128.16141 585:30.900694 586:0 587:2.4155307 588:3.4831572 589:2.04053 590:2.0679364 591:3.5738709 592:6.492691 593:3.4948025 594:1.0176347 595:0 596:11.730982 597:11.000755 598:17.570471 599:12.741378 600:8.7716627 601:-6.3623443 602:-12.118481 603:18.037535 604:0 605:6.7175059 606:1.6902519 607:1.3634477 608:7.4830656 609:8.1152258 610:2.1381161 611:1.6826464 612:5.5235143 613:0 614:4.6391711 615:6.6896114 616:3.9189596 617:3.9715953 618:6.8638325 619:12.469601 620:6.711977 621:1.9544284 622:0 623:7.1395464 624:7.1008716 625:6.7894669 626:8.6558189 627:6.3343291 628:13.508324 629:15.237997 630:8.4718027 631:0 632:12.901372 633:3.2462299 634:2.6185827 635:14.371675 636:15.585776 637:4.10638 638:3.2316229 639:10.608239 640:0 641:23.691792 642:3.2047966 643:3.2636554 644:27.699085 645:23.746815 646:3.5260139 647:2.6201935 648:25.163164 649:0 650:6.4536443 651:6.4186854 652:6.137197 653:7.8242474 654:5.7257853 655:12.210568 656:13.774071 657:7.6579099 658:0 659:9.4312077 660:5.7474747 661:4.9237447 662:9.7240019 663:9.222744 664:14.159236 665:11.870807 666:9.5611048 667:0 668:21.415703 669:2.8969092 670:2.9501135 671:25.038012 672:21.465439 673:3.1872668 674:2.3684695 675:22.745718 676:0 677:18.30899 678:4.36762 679:4.2443533 680:18.739338 681:17.86709 682:3.0234404 683:2.2614665 684:20.209309 685:0 686:9.1207361 687:5.5582705 688:4.7616568 689:9.4038916 690:8.9191351 691:13.69312 692:11.480024 693:9.246357 694:0 695:10.541026 696:8.504405 697:8.6929026 698:9.1466265 699:8.889843 700:17.799984 701:12.616047 702:6.6114902 703:0 704:17.706264 705:4.2238393 706:4.1046309 707:18.122446 708:17.278912 709:2.9239099 710:2.1870198 711:19.544027 712:0 713:18.715677 714:8.4366884 715:4.378098 716:21.617069 717:18.121374 718:6.0297899 719:6.1140771 720:18.74139 721:0 722:11.318471 723:9.1316404 724:9.3340397 725:9.821228 726:9.5455055 727:19.112808 728:13.546533 729:7.0991149 730:0 731:4.7151275 732:13.603824 733:9.2996464 734:2.0332909 735:2.6376097 736:12.786371 737:13.920761 738:3.9644048 739:0 740:20.096037 741:9.0589294 742:4.7010012 743:23.211418 744:19.457901 745:6.4745116 746:6.5650153 747:20.123646 748:0 749:8.2524347 750:11.596217 751:6.0386362 752:3.3842134 753:4.7582555 754:9.1164904 755:8.8849306 756:6.0647583 757:0 758:5.5814242 759:16.103214 760:11.008244 761:2.4068615 762:3.1222103 763:15.135574 764:16.478382 765:4.6927733 766:0 767:4.1358571 768:9.2695704 769:4.8984523 770:2.1574893 771:13.72886 772:7.6203508 773:6.3128443 774:1.7704196 775:0 776:9.768631 777:13.726756 778:7.1480975 779:4.0059853 780:5.6324759 781:10.791437 782:10.517333 783:7.1790185 784:0 785:9.6306353 786:9.7223682 787:5.8993645 788:10.225653 789:23.971241 790:4.5933523 791:7.1783113 792:5.6278305 793:0 794:3.8660622 795:8.6648874 796:4.5789108 797:2.0167494 798:12.833283 799:7.1232514 800:5.9010377 801:1.6549295 802:0 803:12.758842 804:10.925691 805:8.1834612 806:5.2212515 807:12.455433 808:13.386097 809:8.0707293 810:10.735758 811:0 812:9.0023985 813:9.0881481 814:5.5145302 815:9.5586014 816:22.407522 817:4.2937136 818:6.7100477 819:5.2607098 820:0 821:17.871105 822:9.1532087 823:5.9927492 824:11.270489 825:13.094093 826:6.0398812 827:8.9390192 828:16.31333 829:0 830:11.320397 831:9.6939173 832:7.260849 833:4.6326022 834:11.051194 835:11.876935 836:7.1608272 837:9.5253983 838:0 839:7.4869542 840:16.768316 841:12.968288 842:8.3718653 843:7.1353593 844:20.118538 845:9.7364693 846:7.2107797 847:0 848:15.856298 849:8.1212664 850:5.3171206 851:9.9998417 852:11.617852 853:5.3589387 854:7.9312253 855:14.474148 856:0 857:11.11724 858:6.1414661 859:13.807592 860:10.182595 861:10.935116 862:14.93853 863:7.3462195 864:10.129508 865:0 866:6.9444838 867:15.553362 868:12.028666 869:7.7652783 870:6.6183639 871:18.660841 872:9.0310097 873:6.6883197 874:0 875:12.205441 876:9.8832426 877:9.1159773 878:17.156694 879:11.826612 880:14.813238 881:9.0053844 882:13.906857 883:0 884:10.311736 885:5.6964836 886:12.807158 887:9.4448109 888:10.142808 889:13.856153 890:6.8139462 891:9.3955708 892:0 893:12.403748 894:7.7402253 895:12.771497 896:13.393159 897:12.00027 898:11.021073 899:9.9954481 900:12.029641 901:0 902:12.075799 903:9.7782669 904:9.0191507 905:16.974463 906:11.700994 907:14.655897 908:8.9097328 909:13.759143 910:0 911:11.259621 912:8.0943441 913:7.2750463 914:11.030007 915:8.4103336 916:12.339775 917:7.5332122 918:16.508579 919:0 920:12.272 921:7.6580114 922:12.635842 923:13.250902 924:11.872808 925:10.904012 926:9.8892794 927:11.901867 928:0 929:17.165728 930:8.74753 931:7.6732893 932:8.4197226 933:17.323811 934:8.7218895 935:5.1814213 936:11.853529 937:0 938:11.750281 939:8.4470711 940:7.5920711 941:11.510661 942:8.7768307 943:12.877505 944:7.8614869 945:17.227974 946:0 947:13.408399 948:12.550871 949:6.0596795 950:8.7784243 951:14.873549 952:14.690418 953:7.2112403 954:8.4718704 955:0 956:17.913759 957:9.1287203 958:8.0076675 959:8.7866287 960:18.07873 961:9.101963 962:5.4072118 963:12.37007 964:0 965:12.998575 966:17.126242 967:5.1501417 968:2.3155804 969:14.478253 970:15.71664 971:5.513834 972:5.7983208 973:0 974:15.00232 975:14.042854 976:6.7800236 977:9.8219585 978:16.64164 979:16.436741 980:8.0684757 981:9.4789639 982:0 983:11.494647 984:2.3715303 985:0.76364756 986:11.730616 987:13.560498 988:2.8591132 989:5.3590894 990:11.442891 991:0 992:14.543779 993:19.162121 994:5.7623644 995:2.5908449 996:16.199354 997:17.584953 998:6.1692901 999:6.4875956 1000:0 1001:12.199924 1002:5.2928119 1003:1.7089185 1004:10.833232 1005:13.54531 1006:5.1796885 1007:2.2381613 1008:8.5060301 1009:0 1010:13.827104 1011:2.8527536 1012:0.91860449 1013:14.110954 1014:16.312151 1015:3.439275 1016:6.4465389 1017:13.764846 1018:0 1019:7.3482614 1020:8.2974987 1021:3.7070131 1022:4.8898368 1023:9.139348 1024:11.082004 1025:11.850062 1026:6.8517447 1027:0 1028:14.675493 1029:6.3668122 1030:2.0556867 1031:13.031477 1032:16.29388 1033:6.2307343 1034:2.6923218 1035:10.232046 1036:0 1037:10.659284 1038:5.5675302 1039:3.0329888 1040:6.3784552 1041:6.2810211 1042:3.6562948 1043:3.3859086 1044:7.2242503 1045:0 1046:9.5970592 1047:10.836793 1048:4.841475 1049:6.3862801 1050:11.936274 1051:14.473444 1052:15.476552 1053:8.9485931 1054:0 1055:4.1994367 1056:7.1198173 1057:1.8123223 1058:1.8937849 1059:4.1182342 1060:6.0963993 1061:6.4477587 1062:1.3775162 1063:0 1064:13.921358 1065:7.2713685 1066:3.9611781 1067:8.3304625 1068:8.2032099 1069:4.7752352 1070:4.4221025 1071:9.4350967 1072:0 1073:3.2502193 1074:2.4634333 1075:1.2700272 1076:2.4020917 1077:1.8561263 1078:2.7915645 1079:2.2000713 1080:1.2967916 1081:0 1082:1.430254 1083:3.3656673 1084:2.5275156 1085:1.2762712 1086:0.76477468 1087:3.6507769 1088:2.3302555 1089:0.91780466 1090:0 1091:15.440592 1092:14.479449 1093:23.126661 1094:16.770498 1095:11.545466 1096:-8.3742657 1097:-15.950626 1098:23.741423 1099:0 1100:0.78045684 1101:1.9403635 1102:1.8764147 1103:0.60448247 1104:0.71201468 1105:1.6954017 1106:2.3708937 1107:1.1145226 1108:0 1109:13.764132 1110:73.775208 1111:43.060104 1112:8.0707035 1113:11.867644 1114:90.364418 1115:83.428108 1116:5.3382878 1117:0 1118:14.441576 1119:13.542621 1120:21.630354 1121:15.685437 1122:10.798468 1123:-7.8324461 1124:-14.918612 1125:22.205338 1126:0 1127:8.2696724 1128:2.0808065 1129:1.6784897 1130:9.2121248 1131:9.9903536 1132:2.6321554 1133:2.0714436 1134:6.7997932 1135:0 1136:12.873585 1137:69.001915 1138:40.27409 1139:7.5485244 1140:11.0998 1141:84.517792 1142:78.030258 1143:4.9928975 1144:0 1145:4.0157728 1146:5.5867114 1147:4.0346818 1148:6.9131188 1149:6.9510369 1150:4.0821447 1151:4.0837841 1152:5.7978477 1153:0 1154:12.156494 1155:3.0588045 1156:2.4673955 1157:13.541908 1158:14.685911 1159:3.869293 1160:3.0450411 1161:9.995759 1162:0 1163:22.323915 1164:3.0197635 1165:3.0752242 1166:26.099842 1167:22.375761 1168:3.3224349 1169:2.4689133 1170:23.710337 1171:0 1172:5.903223 1173:8.2125168 1174:5.9310193 1175:10.162349 1176:10.218088 1177:6.0007906 1178:6.0032005 1179:8.5228901 1180:0 1181:13.426594 1182:14.404572 1183:6.5516772 1184:9.9437437 1185:13.592815 1186:12.466776 1187:6.6315269 1188:11.238939 1189:0 1190:20.553457 1191:2.780273 1192:2.8313351 1193:24.029924 1194:20.601191 1195:3.0589402 1196:2.2731094 1197:21.829924 1198:0 1199:17.571827 1200:4.1917691 1201:4.0734658 1202:17.984848 1203:17.147718 1204:2.9017098 1205:2.1704147 1206:19.395636 1207:0 1208:12.361761 1209:13.262177 1210:6.0320787 1211:9.1551285 1212:12.514801 1213:11.478065 1214:6.1055956 1215:10.347605 1216:0 1217:12.664863 1218:8.4910393 1219:8.4015999 1220:10.925537 1221:12.029269 1222:9.4635181 1223:7.0873451 1224:12.14073 1225:0 1226:17.203783 1227:4.103972 1228:3.9881465 1229:17.608152 1230:16.788557 1231:2.8409328 1232:2.1249549 1233:18.989391 1234:0 1235:18.184549 1236:8.1972656 1237:4.2538528 1238:21.003603 1239:17.607113 1240:5.8586717 1241:5.9405665 1242:18.209532 1243:0 1244:12.399594 1245:8.3131924 1246:8.2256269 1247:10.696699 1248:11.777314 1249:9.2653027 1250:6.9388995 1251:11.886439 1252:0 1253:9.0604324 1254:14.332119 1255:9.9003191 1256:11.920849 1257:10.593415 1258:14.362736 1259:11.50968 1260:9.1699791 1261:0 1262:19.669212 1263:8.8665247 1264:4.6011553 1265:22.718424 1266:19.04463 1267:6.336998 1268:6.4255791 1269:19.696234 1270:0 1271:8.0771599 1272:11.349922 1273:5.9103799 1274:3.3123353 1275:4.6571937 1276:8.922863 1277:8.6962214 1278:5.9359469 1279:0 1280:9.8001642 1281:15.502254 1282:10.708622 1283:12.894116 1284:11.458306 1285:15.53537 1286:12.449378 1287:9.9186544 1288:0 1289:5.0718327 1290:11.918102 1291:11.372277 1292:0.84827137 1293:1.3117428 1294:16.943903 1295:13.652644 1296:2.9849684 1297:0 1298:9.3630991 1299:13.156907 1300:6.8513532 1301:3.8396819 1302:5.3986506 1303:10.343444 1304:10.080719 1305:6.8809905 1306:0 1307:9.2308311 1308:9.3187561 1309:5.6544595 1310:9.8011475 1311:22.976105 1312:4.4026651 1313:6.8803124 1314:5.3941984 1315:0 1316:5.8793035 1317:13.815546 1318:13.182821 1319:0.98332196 1320:1.5205811 1321:19.641487 1322:15.826239 1323:3.460196 1324:0 1325:2.0180194 1326:13.669688 1327:9.5624933 1328:4.2254949 1329:3.4165628 1330:18.376369 1331:14.791711 1332:1.7937428 1333:0 1334:8.7485037 1335:8.8318348 1336:5.359004 1337:9.2890205 1338:21.775562 1339:4.1726179 1340:6.5208039 1341:5.1123419 1342:0 1343:17.367086 1344:8.8950605 1345:5.8237352 1346:10.952627 1347:12.7248 1348:5.8695383 1349:8.6869125 1350:15.853245 1351:0 1352:1.9125743 1353:12.955422 1354:9.0628357 1355:4.004705 1356:3.2380414 1357:17.41617 1358:14.018817 1359:1.7000165 1360:0 1361:7.7645974 1362:14.731222 1363:9.6188841 1364:5.7460799 1365:5.2496691 1366:17.821087 1367:12.568616 1368:3.4783628 1369:0 1370:16.140652 1371:8.2669058 1372:5.4124727 1373:10.17917 1374:11.826196 1375:5.4550409 1376:8.0734568 1377:14.733714 1378:0 1379:11.316607 1380:6.2516012 1381:14.055204 1382:10.3652 1383:11.131216 1384:15.206424 1385:7.4779601 1386:10.311162 1387:0 1388:7.2162743 1389:13.690927 1390:8.9396143 1391:5.340301 1392:4.8789458 1393:16.56259 1394:11.681041 1395:3.2327263 1396:0 1397:4.8413992 1398:17.339102 1399:16.028059 1400:2.9801579 1401:3.7077394 1402:20.500206 1403:14.462005 1404:2.2535343 1405:0 1406:10.690454 1407:5.9056978 1408:13.277525 1409:9.7916899 1410:10.515322 1411:14.365047 1412:7.0642014 1413:9.7406406 1414:0 1415:12.859299 1416:8.0244999 1417:13.240554 1418:13.885048 1419:12.441003 1420:11.425843 1421:10.36255 1422:12.471453 1423:0 1424:4.5735226 1425:16.379723 1426:15.141221 1427:2.8152647 1428:3.5025887 1429:19.365921 1430:13.661817 1431:2.1288455 1432:0 1433:5.6100678 1434:19.964325 1435:14.164462 1436:3.8150358 1437:4.1068258 1438:20.752863 1439:15.335312 1440:1.213434 1441:0 1442:12.771673 1443:7.9698195 1444:13.150331 1445:13.790433 1446:12.356228 1447:11.347986 1448:10.291937 1449:12.38647 1450:0 1451:17.864658 1452:9.1036987 1453:7.9857192 1454:8.7625446 1455:18.029177 1456:9.0770149 1457:5.3923912 1458:12.336164 1459:0 1460:5.5718403 1461:19.828283 1462:14.067944 1463:3.7890394 1464:4.0788412 1465:20.61145 1466:15.230815 1467:1.2051654 1468:0 1469:3.7996895 1470:18.508091 1471:12.851458 1472:1.4388189 1473:2.6764359 1474:20.162682 1475:13.102697 1476:1.3755624 1477:0 1478:18.57988 1479:9.4681702 1480:8.3054314 1481:9.1133575 1482:18.750984 1483:9.4404182 1484:5.6082783 1485:12.83005 1486:0 1487:13.481926 1488:17.763079 1489:5.3416491 1490:2.401685 1491:15.016625 1492:16.301062 1493:5.7188649 1494:6.0139308 1495:0 1496:3.951812 1497:19.249073 1498:13.365973 1499:1.4964229 1500:2.7835886 1501:20.969904 1502:13.627272 1503:1.4306338 1504:0 1505:1.6101156 1506:20.090122 1507:14.378444 1508:1.2345093 1509:1.227874 1510:21.614618 1511:15.570683 1512:1.0553522 1513:0 1514:14.534358 1515:19.149708 1516:5.7586312 1517:2.5891664 1518:16.18886 1519:17.573563 1520:6.1652937 1521:6.4833927 1522:0 1523:12.19202 1524:5.2893834 1525:1.7078114 1526:10.826214 1527:13.536535 1528:5.176333 1529:2.2367115 1530:8.5005198 1531:0 1532:1.7358053 1533:21.658405 1534:15.50086 1535:1.3308783 1536:1.3237249 1537:23.301908 1538:16.786167 1539:1.1377356 1540:0 1541:7.1778884 1542:17.929995 1543:7.7093859 1544:2.1923733 1545:9.5705605 1546:18.456047 1547:6.89888 1548:3.4372902 1549:0 1550:14.722124 1551:6.3870425 1552:2.0622187 1553:13.072884 1554:16.345654 1555:6.2505322 1556:2.7008765 1557:10.264558 1558:0 1559:10.693153 1560:5.5852208 1561:3.0426259 1562:6.3987226 1563:6.3009791 1564:3.6679125 1565:3.396667 1566:7.2472053 1567:0 1568:8.6674528 1569:21.65085 1570:9.309247 1571:2.6473372 1572:11.556655 1573:22.286068 1574:8.3305445 1575:4.1506009 1576:0 1577:3.858613 1578:12.178006 1579:8.5616407 1580:1.2659376 1581:1.8526992 1582:7.4152789 1583:6.6747212 1584:3.2580864 1585:0 1586:15.327107 1587:8.0056152 1588:4.3611693 1589:9.1716547 1590:9.0315533 1591:5.2574286 1592:4.8686371 1593:10.387833 1594:0 1595:3.5784197 1596:2.7121854 1597:1.3982718 1598:2.6446497 1599:2.0435541 1600:3.0734506 1601:2.42223 1602:1.4277388 1603:0 1604:5.5307703 1605:17.455431 1606:12.271889 1607:1.8145405 1608:2.6555796 1609:10.628742 1610:9.5672598 1611:4.6700015 1612:0 1613:0.63681734 1614:7.6227589 1615:5.8076091 1616:0.50776607 1617:0.67153305 1618:5.729949 1619:4.1219988 1620:0.26881719 1621:0 1622:0.80112606 1623:1.9917512 1624:1.9261087 1625:0.62049127 1626:0.73087132 1627:1.740302 1628:2.4336834 1629:1.144039 1630:0 1631:14.128655 1632:75.729042 1633:44.200485 1634:8.2844439 1635:12.181941 1636:92.757591 1637:85.637573 1638:5.4796643 1639:0 1640:0.1254359 1641:0.47538596 1642:0.48674175 1643:0.17461917 1644:0.26909393 1645:0.57925069 1646:1.9333738 1647:0.52707881 1648:0 1649:3.9098246 1650:50.088676 1651:51.621273 1652:2.1839461 1653:-1.3225265 1654:-20.763683 1655:-16.143654 1656:2.5776358 1657:0 1658:13.393603 1659:71.789185 1660:41.900928 1661:7.8534408 1662:11.548168 1663:87.931816 1664:81.182228 1665:5.1945815 1666:0 1667:4.1779866 1668:5.8123817 1669:4.1976595 1670:7.192369 1671:7.2318182 1672:4.2470398 1673:4.2487454 1674:6.0320473 1675:0 1676:3.7064135 1677:47.48278 1678:48.935642 1679:2.0703251 1680:-1.2537212 1681:-19.683439 1682:-15.30377 1683:2.4435325 1684:0 1685:0.47112831 1686:2.9538486 1687:1.7467568 1688:0.87797838 1689:0.6489411 1690:4.4374614 1691:5.0509124 1692:1.3987155 1693:0 1694:7.412632 1695:10.312395 1696:7.4475355 1697:12.760783 1698:12.830775 1699:7.5351472 1700:7.5381727 1701:10.702128 1702:0 1703:16.859671 1704:18.087709 1705:8.2268915 1706:12.486283 1707:17.068396 1708:15.654434 1709:8.327157 1710:14.112651 1711:0 1712:0.83588129 1713:5.2407522 1714:3.0991161 1715:1.5577193 1716:1.1513588 1717:7.8729954 1718:8.9613867 1719:2.4816172 1720:0 1721:0.7510668 1722:5.1798344 1723:3.3463895 1724:0.77238679 1725:0.1995904 1726:14.482836 1727:10.221114 1728:0.070424058 1729:0 1730:15.666189 1731:16.807297 1732:7.6445165 1733:11.602389 1734:15.860137 1735:14.54627 1736:7.7376847 1737:13.113627 1738:0 1739:16.050312 1740:10.760782 1741:10.647435 1742:13.846046 1743:15.244818 1744:11.993215 1745:8.9818668 1746:15.386073 1747:0 1748:0.6978994 1749:4.813158 1750:3.1095014 1751:0.71771014 1752:0.18546157 1753:13.457607 1754:9.49757 1755:0.0654388 1756:0 1757:0.76878482 1758:2.9260144 1759:3.2512434 1760:0.53485602 1761:0.074912161 1762:15.539094 1763:11.296227 1764:0.081865221 1765:0 1766:15.568147 1767:10.437519 1768:10.327577 1769:13.430099 1770:14.78685 1771:11.632928 1772:8.7120438 1773:14.923862 1774:0 1775:11.375706 1776:17.994503 1777:12.430214 1778:14.967064 1779:13.300423 1780:18.032942 1781:14.450826 1782:11.513246 1783:0 1784:0.74568987 1785:2.8381143 1786:3.153573 1787:0.51878846 1788:0.072661735 1789:15.072286 1790:10.956879 1791:0.079405919 1792:0 1793:0.79527628 1794:3.5177331 1795:2.597944 1796:0.30331257 1797:0.30197263 1798:15.50386 1799:10.939898 1800:0.076923467 1801:0 1802:12.115264 1803:19.164362 1804:13.238327 1805:15.940103 1806:14.16511 1807:19.205299 1808:15.390304 1809:12.261745 1810:0 1811:6.2699552 1812:14.733523 1813:14.058758 1814:1.0486591 1815:1.6216166 1816:20.946571 1817:16.877817 1818:3.6901097 1819:0 1820:0.84697878 1821:3.746428 1822:2.7668414 1823:0.32303154 1824:0.32160449 1825:16.511797 1826:11.651122 1827:0.081924416 1828:0 1829:0.12592915 1830:1.5723066 1831:1.6932927 1832:0.0567449 1833:0.12157786 1834:13.744894 1835:9.8007088 1836:0.090518929 1837:0 1838:7.1270308 1839:16.747532 1840:15.980529 1841:1.1920062 1842:1.8432846 1843:23.809877 1844:19.184942 1845:4.1945319 1846:0 1847:2.446291 1848:16.570721 1849:11.591881 1850:5.1222448 1851:4.1416383 1852:22.27627 1853:17.930862 1854:2.1744175 1855:0 1856:0.14314312 1857:1.7872342 1858:1.9247586 1859:0.06450168 1860:0.13819702 1861:15.623762 1862:11.140423 1863:0.10289247 1864:0 1865:0.19755608 1866:2.9399657 1867:1.9708894 1868:0.0937526 1869:0.15634729 1870:13.954782 1871:9.72192 1872:0.11908529 1873:0 1874:2.4046409 1875:16.288589 1876:11.39452 1877:5.0350347 1878:4.0711236 1879:21.896997 1880:17.625574 1881:2.1373963 1882:0 1883:9.7622709 1884:18.521267 1885:12.093628 1886:7.2244291 1887:6.6003022 1888:22.40609 1889:15.802266 1890:4.3732748 1891:0 1892:0.19419251 1893:2.8899105 1894:1.9373335 1895:0.092156388 1896:0.15368535 1897:13.71719 1898:9.5563965 1899:0.11705776 1900:0 1901:0.29766652 1902:7.376173 1903:3.9004292 1904:0.055440031 1905:0.11351693 1906:10.847838 1907:7.470428 1908:0.082044929 1909:0 1910:9.018219 1911:17.109629 1912:11.171885 1913:6.6738038 1914:6.0972462 1915:20.698362 1916:14.597862 1917:4.0399561 1918:0 1919:6.0503235 1920:21.668772 1921:20.030355 1922:3.7243202 1923:4.6335826 1924:25.619223 1925:18.07325 1926:2.8162546 1927:0 1928:0.2749792 1929:6.813982 1930:3.6031497 1931:0.05121455 1932:0.10486499 1933:10.021048 1934:6.9010534 1935:0.075791702 1936:0 1937:0.23245971 1938:12.593974 1939:9.5888929 1940:0.099847302 1941:0.052494597 1942:7.7597842 1943:5.6950889 1944:0.054702573 1945:0 1946:5.712677 1947:20.459517 1948:18.912535 1949:3.5164793 1950:4.3749995 1951:24.189508 1952:17.064648 1953:2.6590898 1954:0 1955:7.007401 1956:24.936958 1957:17.69249 1958:4.7652698 1959:5.1297374 1960:25.921904 1961:19.15497 1962:1.5156711 1963:0 1964:0.21948698 1965:11.89115 1966:9.053772 1967:0.094275184 1968:0.049565066 1969:7.3267393 1970:5.3772669 1971:0.051649824 1972:0 1973:0.29251838 1974:12.801264 1975:9.6789169 1976:0.24593641 1977:0.061391022 1978:6.023499 1979:4.8733554 1980:0.019391313 1981:0 1982:7.0841742 1983:25.210167 1984:17.886328 1985:4.8174777 1986:5.1859388 1987:26.205904 1988:19.364832 1989:1.5322769 1990:0 1991:4.8310184 1992:23.531641 1993:16.339659 1994:1.8293498 1995:3.4028864 1996:25.635326 1997:16.659092 1998:1.7489238 1999:0 2000:0.2957232 2001:12.941515 2002:9.7849588 2003:0.2486309 2004:0.062063619 2005:6.0894923 2006:4.9267478 2007:0.019603765 2008:0 2009:0.19975789 2010:14.112662 2011:10.211822 2012:0.32570496 2013:0.010431514 2014:4.6309323 2015:3.0104582 2016:0.00084603176 2017:0 2018:5.0111952 2019:24.409273 2020:16.94906 2021:1.8975769 2022:3.5297999 2023:26.591417 2024:17.280407 2025:1.8141514 2026:0 2027:2.041748 2028:25.475786 2029:18.232948 2030:1.5654509 2031:1.5570368 2032:27.408964 2033:19.744797 2034:1.338266 2035:0 2036:0.20720802 2037:14.639007 2038:10.59268 2039:0.33785242 2040:0.010820566 2041:4.8036466 2042:3.122736 2043:0.0008775852 2044:0 2045:0.54823047 2046:12.973698 2047:9.8281946 2048:0.6340977 2049:0.10356102 2050:3.2031646 2051:2.5057003 2052:0.13617258 2053:0 2054:2.1388202 2055:26.687 2056:19.099812 2057:1.6398782 2058:1.6310641 2059:28.712088 2060:20.683538 2061:1.4018922 2062:0 2063:8.8444319 2064:22.092937 2065:9.4993315 2066:2.7013929 2067:11.792629 2068:22.741125 2069:8.5006447 2070:4.2353516 2071:0 2072:0.57429534 2073:13.590515 2074:10.295464 2075:0.66424507 2076:0.1084847 2077:3.3554549 2078:2.6248307 2079:0.14264672 2080:0 2081:1.6302441 2082:12.275196 2083:6.7576413 2084:0.30434379 2085:0.083447605 2086:1.0627004 2087:0.77736759 2088:0.11466971 2089:0 2090:10.636823 2091:26.570236 2092:11.424442 2093:3.2488503 2094:14.182494 2095:27.349785 2096:10.223365 2097:5.0936775 2098:0 2099:4.7353458 2100:14.945025 2101:10.506969 2102:1.5535768 2103:2.2736592 2104:9.1001368 2105:8.1913147 2106:3.9983709 2107:0 2108:1.9606254 2109:14.762856 2110:8.1271276 2111:0.36602134 2112:0.10035889 2113:1.2780646 2114:0.93490696 2115:0.13790838 2116:0 2117:0.54460949 2118:6.6217537 2119:6.1336913 2120:0.13235174 2121:0.010865851 2122:0.02462134 2123:0.0089532146 2124:0.0030325407 2125:0 2126:6.9288425 2127:21.867828 2128:15.373986 2129:2.2732213 2130:3.3268588 2131:13.315483 2132:11.985678 2133:5.8504877 2134:0 2135:0.79779249 2136:9.5496454 2137:7.2756605 2138:0.63611948 2139:0.84128368 2140:7.1783695 2141:5.1639605 2142:0.33676898 2143:0 2144:0.79688239 2145:9.6890678 2146:8.9749269 2147:0.19365944 2148:0.015899107 2149:0.036026385 2150:0.013100504 2151:0.0044372673 2152:0 2153:0 2154:4.1489911 2155:3.6514373 2156:0 2157:0 2158:0 2159:0 2160:0 
1.385103523811455e-05 1:0 2:0.23225591 3:0.16854665 4:0.099304512 5:0.067503653 6:0.084107049 7:0.04412014 8:0.010025572 9:0.089508906 10:0 11:0.42120636 12:0.060959768 13:0.015464758 14:0.16957879 15:0.63793278 16:0.042989854 17:0.012940549 18:0.22613619 19:0 20:1.7434464 21:0.97287536 22:1.2027948 23:1.0950834 24:1.4668962 25:1.500458 26:1.7416209 27:3.1808026 28:0 29:37.061886 30:57.769314 31:42.326931 32:31.817627 33:40.219498 34:171.44504 35:159.53333 36:35.728676 37:0 38:0.41556922 39:0.060143925 40:0.015257789 41:0.16730927 42:0.62939513 43:0.042414509 44:0.012767362 45:0.22310974 46:0 47:0.35631871 48:0.018249905 49:0.0072111622 50:0.059677001 51:0.3565093 52:0.37263706 53:0.091360793 54:0.4873468 55:0 56:36.565876 57:56.99617 58:41.760456 59:31.391804 60:39.681229 61:169.15054 62:157.39824 63:35.250507 64:0 65:6.1978784 66:0.21479425 67:0.17701729 68:3.2842107 69:5.5627079 70:2.8770347 71:1.4587004 72:7.9257464 73:0 74:1.0303317 75:0.052771449 76:0.020851806 77:0.17256209 78:1.0308827 79:1.0775177 80:0.26417899 81:1.4092127 82:0 83:0.36414549 84:0.28596464 85:0.21669792 86:0.072474919 87:0.64434242 88:2.5145087 89:1.6297696 90:0.48361441 91:0 92:17.921793 93:0.62109935 94:0.51186341 95:9.4966278 96:16.085135 97:8.3192377 98:4.2179799 99:22.918098 100:0 101:15.850402 102:2.0629816 103:3.6954286 104:19.763716 105:21.024813 106:19.338245 107:14.284602 108:19.841806 109:0 110:0.31738555 111:0.2492439 112:0.18887173 113:0.063168414 114:0.56160235 115:2.1916206 116:1.4204909 117:0.42151347 118:0 119:0.058396377 120:0.19653606 121:0.089027733 122:0 123:0.10239033 124:7.668591 125:6.2201638 126:0.10368589 127:0 128:13.815051 129:1.7980739 130:3.2208984 131:17.225855 132:18.325016 133:16.855021 134:12.450315 135:17.293919 136:0 137:13.085837 138:11.027261 139:7.8071184 140:11.239022 141:8.0414915 142:33.005352 143:24.178041 144:8.5326595 145:0 146:0.057348669 147:0.19300996 148:0.087430462 149:0 150:0.10055332 151:7.5310068 152:6.1085658 153:0.10182563 154:0 155:0.045436304 156:0 157:0 158:0.029760525 159:0.44417173 160:6.4238257 161:5.0919476 162:1.0296021 163:0 164:12.851061 165:10.829417 166:7.6670485 167:11.037379 168:7.8972163 169:32.413193 170:23.744257 171:8.3795729 172:0 173:9.5779171 174:8.7321959 175:5.8626685 176:11.453445 177:10.556669 178:21.940371 179:19.757629 180:12.15263 181:0 182:0.048073538 183:0 184:0 185:0.031487897 186:0.46995252 187:6.79668 188:5.3874965 189:1.0893626 190:0 191:0.14531183 192:0 193:0 194:0.17669925 195:2.5517685 196:2.2964892 197:1.5096871 198:2.4218757 199:0 200:10.133842 201:9.2390337 202:6.2029524 203:12.118232 204:11.169404 205:23.213844 206:20.904411 207:12.857998 208:0 209:14.312954 210:2.5827506 211:1.8292662 212:14.027355 213:24.229284 214:11.099447 215:7.7721419 216:24.19833 217:0 218:0.15956564 219:0 220:0 221:0.19403188 222:2.8020744 223:2.5217545 224:1.657774 225:2.65944 226:0 227:0.089621529 228:0.63486028 229:0.36384061 230:0.19229667 231:2.0266106 232:2.8589888 233:1.2644928 234:0.76576668 235:0 236:15.716928 237:2.8360956 238:2.0087008 239:15.403315 240:26.605963 241:12.188205 242:8.5345201 243:26.57197 244:0 245:7.7993717 246:15.053806 247:7.6674409 248:6.3444557 249:15.727379 250:12.542305 251:6.0285358 252:9.1561565 253:0 254:0.092760742 255:0.65709782 256:0.37658501 257:0.19903232 258:2.0975974 259:2.9591317 260:1.3087846 261:0.79258949 262:0 263:0.26452917 264:0.66148537 265:0.46775901 266:0.153929 267:0.57591778 268:0.90758115 269:2.0973086 270:2.2783794 271:0 272:8.0725632 273:15.581101 274:7.9360113 275:6.5666857 276:16.278269 277:12.981629 278:6.2396998 279:9.4768734 280:0 281:18.876574 282:13.417303 283:6.2036452 284:7.1010127 285:25.919132 286:7.693357 287:7.4645414 288:15.625511 289:0 290:0.25486785 291:0.63732618 292:0.45067519 293:0.14830709 294:0.55488372 295:0.87443382 296:2.020709 297:2.1951668 298:0 299:1.0048351 300:0.0037665197 301:0.064163774 302:0.26562682 303:2.9149783 304:1.7544724 305:0.76166421 306:1.7995472 307:0 308:18.187151 309:12.927266 310:5.9770713 311:6.8416648 312:24.972494 313:7.4123745 314:7.191916 315:15.054825 316:0 317:14.520013 318:7.6427541 319:3.560704 320:5.374568 321:30.24544 322:9.7659225 323:5.1237421 324:18.452681 325:0 326:0.99344695 327:0.0037238323 328:0.063436583 329:0.26261637 330:2.8819418 331:1.7345883 332:0.75303197 333:1.7791523 334:0 335:1.400997 336:1.4577299 337:0.56923306 338:0.7713123 339:2.5456643 340:0.5416643 341:0.47444037 342:1.0478157 343:0 344:14.355452 345:7.5561357 346:3.5203493 347:5.3136559 348:29.902657 349:9.655242 350:5.0656729 351:18.243549 352:0 353:12.202433 354:11.153493 355:8.06569 356:12.59777 357:22.302509 358:8.6014996 359:7.5511451 360:17.983313 361:0 362:1.4505286 363:1.5092673 364:0.58935803 365:0.79858166 366:2.6356652 367:0.56081456 368:0.49121398 369:1.0848607 370:0 371:1.5310131 372:2.4284563 373:1.4456859 374:0.38975874 375:0.50736314 376:0.27615038 377:0.07231155 378:0.44892457 379:0 380:12.633844 381:11.54782 382:8.3508482 383:13.043158 384:23.091003 385:8.9056015 386:7.8181119 387:18.619104 388:0 389:9.5085802 390:11.922904 391:10.141567 392:6.5002813 393:6.7411408 394:12.100325 395:11.90805 396:15.081994 397:0 398:1.6173825 399:2.5654535 400:1.5272417 401:0.41174629 402:0.53598517 403:0.29172891 404:0.076390877 405:0.47424987 406:0 407:2.04124 408:0.26711932 409:0.066528656 410:0.76474011 411:3.4020379 412:0.30995914 413:0.14524034 414:1.2497842 415:0 416:10.04499 417:12.595514 418:10.713686 419:6.8669839 420:7.1214304 421:12.782944 422:12.579822 423:15.932818 424:0 425:23.250469 426:1.3201319 427:0.81387317 428:8.8211412 429:36.392231 430:3.2848716 431:2.3022721 432:12.663363 433:0 434:2.0227008 435:0.26469323 436:0.065924421 437:0.7577945 438:3.3711395 439:0.30714399 440:0.14392121 441:1.2384332 442:0 443:1.7009978 444:0.070682153 445:0.027698006 446:0.25661966 447:1.9266733 448:1.8754786 449:0.58928066 450:2.6789637 451:0 452:23.039301 453:1.3081421 454:0.8064813 455:8.741025 456:36.061707 457:3.2550373 458:2.2813621 459:12.54835 460:0 461:20.414585 462:0.82149601 463:0.61889058 464:12.116014 465:17.927967 466:8.318491 467:4.5098109 468:24.937653 469:0 470:1.5253338 471:0.063382722 472:0.0248376 473:0.23011824 474:1.7277035 475:1.6817957 476:0.52842492 477:2.4023039 478:0 479:0.45362186 480:0.34188318 481:0.25811943 482:0.09265703 483:1.214514 484:3.9624255 485:2.6046908 486:0.927194 487:0 488:18.306345 489:0.73665911 490:0.554977 491:10.864779 492:16.076525 493:7.4594302 494:4.0440774 495:22.36231 496:0 497:17.025076 498:2.3311131 499:4.0713716 500:21.900948 501:21.876318 502:17.517239 503:13.387501 504:20.908348 505:0 506:0.47822508 507:0.36042598 508:0.27211913 509:0.097682491 510:1.2803859 511:4.1773367 512:2.7459621 513:0.97748244 514:0 515:0.072284803 516:0.28316161 517:0.12826775 518:0 519:0.37982512 520:4.2088299 521:2.0547392 522:0.12271209 523:0 524:17.948469 525:2.4575465 526:4.2921915 527:23.088795 528:23.06283 529:18.467325 530:14.113603 531:22.04236 532:0 533:7.0544744 534:1.5044179 535:2.9958854 536:14.895823 537:10.091631 538:13.829123 539:6.2121515 540:6.5781889 541:0 542:1.4725319 543:0.8217001 544:1.0158923 545:0.92491812 546:1.2389549 547:1.2673014 548:1.4709901 549:2.686537 550:0 551:31.302834 552:48.79253 553:35.749741 554:26.87348 555:33.96978 556:144.80417 557:134.74341 558:30.17679 559:0 560:3.7391369 561:1.7988055 562:1.8112936 563:1.5302075 564:2.5518973 565:1.780633 566:1.3171529 567:5.3964996 568:0 569:44.369625 570:31.917797 571:13.562262 572:26.677505 573:38.75206 574:-8.3342867 575:-1.5720201 576:37.344841 577:0 578:30.751192 579:47.932674 580:35.119732 581:26.399897 582:33.371143 583:142.25232 584:132.36887 585:29.644993 586:0 587:5.2122955 588:0.18063779 589:0.1488681 590:2.7619574 591:4.6781297 592:2.4195304 593:1.2267388 594:6.6653986 595:0 596:43.587715 597:31.35532 598:13.323258 599:26.207375 600:38.069145 601:-8.1874142 602:-1.5443168 603:36.686726 604:0 605:4.4769235 606:3.628516 607:1.0208243 608:6.7683029 609:6.7300625 610:2.6353238 611:2.9410744 612:3.6780932 613:0 614:11.91671 615:0.41298661 616:0.34035254 617:6.3145776 618:10.695463 619:5.5316973 620:2.8046548 621:15.238895 622:0 623:10.539383 624:1.3717351 625:2.4571955 626:13.141456 627:13.979996 628:12.858549 629:9.4982386 630:13.193381 631:0 632:10.235452 633:8.295764 634:2.333879 635:15.474161 636:15.386734 637:6.0250592 638:6.7240872 639:8.4091101 640:0 641:16.38789 642:7.6933622 643:6.2562599 644:23.724596 645:23.464338 646:5.4963393 647:6.0723033 648:19.373436 649:0 650:9.813818 651:1.2773005 652:2.2880344 653:12.236756 654:13.017569 655:11.973326 656:8.8443489 657:12.285107 658:0 659:9.2958059 660:7.8334517 661:5.5459542 662:7.9838805 663:5.7124462 664:23.44606 665:17.175392 666:6.0613585 667:0 668:15.259696 669:7.1637268 670:5.8255591 671:22.09132 672:21.848978 673:5.1179538 674:5.6542668 675:18.039707 676:0 677:15.868194 678:6.5222368 679:2.2642465 680:15.599529 681:14.408539 682:3.4481926 683:4.7533565 684:16.033026 685:0 686:9.956646 687:8.3903322 688:5.9402165 689:8.5514555 690:6.1185446 691:25.112843 692:18.396391 693:6.4922605 694:0 695:7.4207048 696:6.7654634 697:4.542233 698:8.8738117 699:8.1790152 700:16.998791 701:15.307664 702:9.4155207 703:0 704:16.996265 705:6.9859033 706:2.4252119 707:16.708502 708:15.432842 709:3.693325 710:5.0912728 711:17.172815 712:0 713:9.2235146 714:7.5564728 715:1.9807584 716:12.297098 717:11.513084 718:5.1443152 719:5.2586198 720:8.5333652 721:0 722:7.547296 723:6.8808765 724:4.61972 725:9.0251923 726:8.3185425 727:17.288778 728:15.5688 729:9.5761423 730:0 731:10.659738 732:1.9235332 733:1.362367 734:10.447035 735:18.045038 736:8.2664413 737:5.7883921 738:18.021984 739:0 740:9.3808594 741:7.68538 742:2.0145485 743:12.506877 744:11.709489 745:5.2320733 746:5.3483276 747:8.678937 748:0 749:15.468666 750:8.8810177 751:4.4935865 752:17.205692 753:16.976463 754:6.7308993 755:3.8053725 756:17.775984 757:0 758:11.035005 759:1.9912496 760:1.410328 761:10.814814 762:18.680298 763:8.5574541 764:5.9921675 765:18.656433 766:0 767:5.4760127 768:10.56942 769:5.3833828 770:4.4545026 771:11.042342 772:8.8060713 773:4.2326922 774:6.4286246 775:0 776:16.013227 777:9.1936665 778:4.6517797 779:17.811405 780:17.574104 781:6.967855 782:3.9393375 783:18.401772 784:0 785:12.225539 786:7.504982 787:4.2312417 788:4.1246161 789:18.380262 790:10.396282 791:3.241874 792:8.5972996 793:0 794:5.6923523 795:10.986983 796:5.5960631 797:4.6304855 798:11.478589 799:9.1539707 800:4.3999119 801:6.6825986 802:0 803:13.31078 804:9.4611845 805:4.3744884 806:5.0072651 807:18.276825 808:5.4249554 809:5.2636065 810:11.018298 811:0 812:12.70853 813:7.8014793 814:4.3984041 815:4.2875662 816:19.106407 817:10.807006 818:3.3699498 819:8.9369507 820:0 821:17.541449 822:12.753864 823:5.624526 824:5.1836863 825:15.72817 826:11.597258 827:9.4750986 828:5.4278541 829:0 830:12.794584 831:9.0942774 832:4.2048445 833:4.8130822 834:17.568045 835:5.2145743 836:5.0594826 837:10.591006 838:0 839:10.214768 840:5.3766456 841:2.5049403 842:3.7809858 843:21.27754 844:6.8702855 845:3.6045313 846:12.981383 847:0 848:16.861187 849:12.259266 850:5.4064054 851:4.9826617 852:15.118228 853:11.147513 854:9.1076527 855:5.2173605 856:0 857:8.8911324 858:14.03091 859:10.391731 860:9.6047258 861:12.457385 862:7.256299 863:8.6084557 864:9.7333698 865:0 866:10.128548 867:5.3312626 868:2.4837968 869:3.7490716 870:21.09794 871:6.8122954 872:3.5741062 873:12.871811 874:0 875:8.609477 876:7.8693929 877:5.6907806 878:8.8884077 879:15.735627 880:6.0688233 881:5.3277411 882:12.6882 883:0 884:8.8160849 885:13.912478 886:10.304017 887:9.5236549 888:12.352236 889:7.1950507 890:8.5357943 891:9.6512127 892:0 893:6.9387383 894:14.2274 895:10.304286 896:7.8318329 897:11.479966 898:14.109352 899:9.573616 900:7.8707399 901:0 902:8.7457399 903:7.9939432 904:5.7808495 905:9.0290861 906:15.984677 907:6.1648755 908:5.4120646 909:12.889018 910:0 911:6.5822854 912:8.2535944 913:7.0204687 914:4.4998002 915:4.6665339 916:8.3764124 917:8.2433109 918:10.440464 919:0 920:7.0485592 921:14.452579 922:10.467374 923:7.9557886 924:11.661661 925:14.332663 926:9.7251396 927:7.9953117 928:0 929:9.4188004 930:12.232851 931:9.6712742 932:6.094625 933:9.6239929 934:12.332511 935:8.9442587 936:12.845989 937:0 938:6.8250003 939:8.5579367 940:7.2793412 941:4.6657257 942:4.8386078 943:8.6852846 944:8.5472746 945:10.825445 946:0 947:15.797374 948:0.89695472 949:0.5529806 950:5.9934645 951:24.726456 952:2.2318838 953:1.5642632 954:8.6040363 955:0 956:9.7661085 957:12.683925 958:10.027892 959:6.3193579 960:9.9788675 961:12.787259 962:9.2740688 963:13.319672 964:0 965:18.363556 966:9.6207571 967:5.6649122 968:6.1219554 969:18.32025 970:9.7340584 971:5.1499724 972:6.6749501 973:0 974:15.787299 975:0.89638269 976:0.55262798 977:5.9896426 978:24.710686 979:2.2304604 980:1.5632657 981:8.5985498 982:0 983:13.988756 984:0.56291652 985:0.42408454 986:8.3022976 987:12.284843 988:5.7001081 989:3.0902731 990:17.088114 991:0 992:18.351847 993:9.6146221 994:5.6612997 995:6.1180515 996:18.308567 997:9.7278509 998:5.1466885 999:6.6706934 1000:0 1001:10.441642 1002:10.473081 1003:3.003741 1004:16.386372 1005:17.109777 1006:8.6673965 1007:8.7119427 1008:8.4171648 1009:0 1010:12.544094 1011:0.50478238 1012:0.380288 1013:7.4448938 1014:11.01615 1015:5.1114402 1016:2.771131 1017:15.323371 1018:0 1019:11.666126 1020:1.5973533 1021:2.789834 1022:15.00723 1023:14.990353 1024:12.003372 1025:9.1735439 1026:14.327069 1027:0 1028:9.3633003 1029:9.3914928 1030:2.6935353 1031:14.694099 1032:15.342797 1033:7.7722874 1034:7.812233 1035:7.5478978 1036:0 1037:15.995802 1038:7.9534302 1039:6.2290654 1040:22.704758 1041:23.380215 1042:5.4595838 1043:5.6347399 1044:18.72905 1045:0 1046:12.476518 1047:1.7083139 1048:2.9836307 1049:16.049711 1050:16.031662 1051:12.837191 1052:9.8107872 1053:15.322303 1054:0 1055:4.9037762 1056:1.0457659 1057:2.0825295 1058:10.354531 1059:7.0149946 1060:9.6130371 1061:4.3182521 1062:4.5726957 1063:0 1064:17.106955 1065:8.5059175 1066:6.6617694 1067:24.28195 1068:25.00433 1069:5.8388352 1070:6.0261588 1071:20.030067 1072:0 1073:7.804461 1074:0.51586246 1075:1.0185755 1076:16.526026 1077:15.080099 1078:0.76877421 1079:0.83852136 1080:9.6079998 1081:0 1082:4.294241 1083:2.0658522 1084:2.0801942 1085:1.7573788 1086:2.9307463 1087:2.0449817 1088:1.5126944 1089:6.1976519 1090:0 1091:50.956646 1092:36.656242 1093:15.575685 1094:30.637989 1095:44.505108 1096:-9.5715761 1097:-1.8053986 1098:42.888977 1099:0 1100:0.63113636 1101:4.7326975 1102:3.5441146 1103:0.091354348 1104:0.21882263 1105:9.0087204 1106:6.5919747 1107:0.48139453 1108:0 1109:2.1495914 1110:73.446777 1111:107.60626 1112:8.0659933 1113:16.952322 1114:94.911011 1115:53.434658 1116:-5.1203465 1117:0 1118:49.631458 1119:35.702953 1120:15.170621 1121:29.841211 1122:43.347702 1123:-9.3226566 1124:-1.7584472 1125:41.773598 1126:0 1127:5.0976806 1128:4.1316352 1129:1.1623688 1130:7.7067757 1131:7.6632333 1132:3.0007298 1133:3.3488748 1134:4.1880865 1135:0 1136:2.0936887 1137:71.536713 1138:104.80784 1139:7.8562284 1140:16.511457 1141:92.442734 1142:52.045029 1143:-4.987186 1144:0 1145:1.8062438 1146:11.516301 1147:6.1994877 1148:2.016408 1149:3.6635127 1150:9.9336576 1151:6.5656919 1152:1.0534538 1153:0 1154:9.7485781 1155:7.9011564 1156:2.2228627 1157:14.738096 1158:14.654828 1159:5.7384629 1160:6.4042401 1161:8.0091114 1162:0 1163:15.608361 1164:7.3274093 1165:5.9586658 1166:22.596079 1167:22.348202 1168:5.2348928 1169:5.7834597 1170:18.451893 1171:0 1172:3.4541805 1173:22.023266 1174:11.855626 1175:3.8560894 1176:7.00594 1177:18.996687 1178:12.555939 1179:2.0145783 1180:0 1181:6.2341728 1182:16.558411 1183:16.045193 1184:7.4775562 1185:11.601637 1186:4.6077433 1187:1.8983809 1188:8.3010893 1189:0 1190:15.881618 1191:7.4556909 1192:6.0629849 1193:22.991671 1194:22.739452 1195:5.3265409 1196:5.8847113 1197:18.774931 1198:0 1199:16.514915 1200:6.7880564 1201:2.3565278 1202:16.235302 1203:14.995771 1204:3.5887268 1205:4.9470835 1206:16.686466 1207:0 1208:6.3433151 1209:16.848301 1210:16.326097 1211:7.6084661 1212:11.804748 1213:4.6884112 1214:1.9316161 1215:8.4464178 1216:0 1217:4.9457135 1218:14.410449 1219:14.241676 1220:5.0590301 1221:7.4865718 1222:2.6872761 1223:2.4106424 1224:9.1136131 1225:0 1226:18.345409 1227:7.5404367 1228:2.6177225 1229:18.034805 1230:16.657885 1231:3.9864972 1232:5.4954123 1233:18.535975 1234:0 1235:9.9556665 1236:8.1562977 1237:2.137989 1238:13.273229 1239:12.426981 1240:5.5526657 1241:5.676043 1242:9.2107344 1243:0 1244:5.4938908 1245:16.007687 1246:15.820208 1247:5.6197667 1248:8.3163748 1249:2.9851308 1250:2.6778352 1251:10.123755 1252:0 1253:4.1944947 1254:17.831976 1255:13.015886 1256:3.5528569 1257:5.4149127 1258:11.314972 1259:5.7711301 1260:3.7507479 1261:0 1262:9.6166048 1263:7.8785172 1264:2.0651751 1265:12.82118 1266:12.003753 1267:5.3635573 1268:5.4827332 1269:8.8970423 1270:0 1271:15.857401 1272:9.1042013 1273:4.6065125 1274:17.638079 1275:17.40309 1276:6.9000497 1277:3.9010031 1278:18.222702 1279:0 1280:4.0516419 1281:17.22467 1282:12.572601 1283:3.4318566 1284:5.2304959 1285:10.929616 1286:5.5745816 1287:3.623008 1288:0 1289:4.8848896 1290:17.379992 1291:11.508704 1292:4.1619339 1293:5.6498938 1294:19.28019 1295:11.019773 1296:5.4169421 1297:0 1298:15.343089 1299:8.8089199 1300:4.4571071 1301:17.066015 1302:16.838646 1303:6.6762571 1304:3.7744801 1305:17.631676 1306:0 1307:11.713912 1308:7.190906 1309:4.0541682 1310:3.9520051 1311:17.611067 1312:9.9612083 1313:3.1062047 1314:8.2375116 1315:0 1316:4.7264557 1317:16.816298 1318:11.135437 1319:4.0269475 1320:5.4666476 1321:18.654865 1322:10.662363 1323:5.2412515 1324:0 1325:1.6114339 1326:16.719416 1327:12.38188 1328:1.3673352 1329:3.259753 1330:24.123533 1331:15.302197 1332:1.8296396 1333:0 1334:12.018167 1335:7.3776813 1336:4.1594706 1337:4.0546536 1338:18.068493 1339:10.219939 1340:3.1868846 1341:8.4514713 1342:0 1343:16.588549 1344:12.061038 1345:5.3189859 1346:4.9020939 1347:14.873772 1348:10.967262 1349:8.9603853 1350:5.1329975 1351:0 1352:1.653289 1353:17.153683 1354:12.703485 1355:1.40285 1356:3.3444214 1357:24.750113 1358:15.699653 1359:1.8771622 1360:0 1361:1.0383518 1362:16.44364 1363:11.656111 1364:0.36033604 1365:0.33639562 1366:26.069426 1367:19.905434 1368:1.1707866 1369:0 1370:16.269701 1371:11.829213 1372:5.2167497 1373:4.8078709 1374:14.587883 1375:10.75646 1376:8.7881575 1377:5.0343366 1378:0 1379:8.5792332 1380:13.538708 1381:10.027191 1382:9.2677937 1383:12.020383 1384:7.0017495 1385:8.3064728 1386:9.3919249 1387:0 1388:1.0183936 1389:16.127577 1390:11.432069 1391:0.35341001 1392:0.32992977 1393:25.568346 1394:19.522831 1395:1.1482829 1396:0 1397:1.1463604 1398:13.032334 1399:10.34852 1400:1.4285375 1401:1.4303238 1402:27.047245 1403:21.308706 1404:1.156975 1405:0 1406:8.4530954 1407:13.339653 1408:9.8797646 1409:9.1315327 1410:11.843652 1411:6.8988056 1412:8.1843462 1413:9.2538385 1414:0 1415:6.6530466 1416:13.641608 1417:9.880023 1418:7.5093689 1419:11.007296 1420:13.52842 1421:9.1794367 1422:7.5466743 1423:0 1424:1.1295059 1425:12.840725 1426:10.19637 1427:1.4075342 1428:1.4092942 1429:26.64958 1430:20.995413 1431:1.1399645 1432:0 1433:1.6031556 1434:15.017678 1435:11.161617 1436:1.2145694 1437:2.0378671 1438:29.341505 1439:19.553106 1440:0.78853482 1441:0 1442:6.7035375 1443:13.745136 1444:9.9550037 1445:7.566359 1446:11.090832 1447:13.63109 1448:9.2491007 1449:7.6039472 1450:0 1451:8.957757 1452:11.634063 1453:9.1978731 1454:5.7962976 1455:9.1529055 1456:11.728844 1457:8.506444 1458:12.217188 1459:0 1460:1.6153222 1461:15.13165 1462:11.246325 1463:1.223787 1464:2.0533328 1465:29.56418 1466:19.701498 1467:0.79451913 1468:0 1469:1.1832085 1470:14.417966 1471:9.5440226 1472:0.18623003 1473:0.31498337 1474:27.138323 1475:18.596424 1476:0.61571938 1477:0 1478:9.1599865 1479:11.896712 1480:9.4055233 1481:5.9271545 1482:9.3595409 1483:11.993633 1484:8.6984844 1485:12.493003 1486:0 1487:17.223845 1488:9.0236568 1489:5.3133259 1490:5.7420034 1491:17.183226 1492:9.1299257 1493:4.8303456 1494:6.2606773 1495:0 1496:1.2099204 1497:14.743465 1498:9.7594881 1499:0.19043435 1500:0.32209441 1501:27.750998 1502:19.016256 1503:0.62961978 1504:0 1505:0.93187869 1506:17.662199 1507:11.030951 1508:0.34637964 1509:0.67820811 1510:26.836044 1511:18.031824 1512:0.43761179 1513:0 1514:16.992661 1515:8.9025383 1516:5.2420092 1517:5.6649327 1518:16.952587 1519:9.0073805 1520:4.765511 1521:6.1766448 1522:0 1523:9.6683064 1524:9.6974173 1525:2.7812762 1526:15.172754 1527:15.842583 1528:8.0254669 1529:8.0667133 1530:7.7937675 1531:0 1532:0.91937071 1533:17.425131 1534:10.88289 1535:0.34173045 1536:0.66910499 1537:26.475842 1538:17.789795 1539:0.43173805 1540:0 1541:3.2262933 1542:23.784882 1543:13.190098 1544:3.2957838 1545:6.1629868 1546:18.262249 1547:11.97508 1548:1.7581781 1549:0 1550:9.1889172 1551:9.2165842 1552:2.6433706 1553:14.420434 1554:15.057051 1555:7.6275353 1556:7.6667371 1557:7.4073248 1558:0 1559:15.697893 1560:7.8053041 1561:6.1130543 1562:22.281902 1563:22.944778 1564:5.357904 1565:5.5297976 1566:18.380236 1567:0 1568:3.0663223 1569:22.605541 1570:12.536085 1571:3.1323669 1572:5.8574038 1573:17.356741 1574:11.381312 1575:1.6710013 1576:0 1577:5.0475245 1578:17.484972 1579:17.179672 1580:6.0747828 1581:9.7658653 1582:4.1612525 1583:1.6872138 1584:7.0310478 1585:0 1586:17.825167 1587:8.8630266 1588:6.9414544 1589:25.301395 1590:26.0541 1591:6.083971 1592:6.2791586 1593:20.871002 1594:0 1595:8.1321201 1596:0.53752023 1597:1.061339 1598:17.219849 1599:15.713216 1600:0.80105013 1601:0.87372553 1602:10.011378 1603:0 1604:5.7315307 1605:19.854418 1606:19.507746 1607:6.8979964 1608:11.08927 1609:4.7251573 1610:1.9158536 1611:7.9838481 1612:0 1613:1.817281 1614:8.4944248 1615:8.3277102 1616:4.0589442 1617:6.0499864 1618:1.2851292 1619:0.72224873 1620:3.7546537 1621:0 1622:0.82341939 1623:6.1745687 1624:4.6238704 1625:0.11918651 1626:0.28548947 1627:11.753332 1628:8.600296 1629:0.62805694 1630:0 1631:2.8044894 1632:95.823189 1633:140.38976 1634:10.523392 1635:22.117044 1636:123.82674 1637:69.714149 1638:-6.6803193 1639:0 1640:0.0050741001 1641:0.46652979 1642:0.2276051 1643:0.00021406359 1644:0.00014865528 1645:0.39865744 1646:0.28566223 1647:0 1648:0 1649:-1.2394037 1650:5.938098 1651:5.3346539 1652:-1.6684761 1653:-4.3262167 1654:-16.46101 1655:-11.470793 1656:-1.8665074 1657:0 1658:2.7188988 1659:92.89875 1660:136.10519 1661:10.202228 1662:21.442051 1663:120.04767 1664:67.586533 1665:-6.4764419 1666:0 1667:2.345618 1668:14.955259 1669:8.0507574 1670:2.6185408 1671:4.7574983 1672:12.900011 1673:8.5263157 1674:1.3680325 1675:0 1676:-1.2015783 1677:5.7568722 1678:5.171845 1679:-1.6175557 1680:-4.1941843 1681:-15.958634 1682:-11.120714 1683:-1.8095433 1684:0 1685:0.28462306 1686:4.2897549 1687:2.1063852 1688:0.0020090111 1689:0.0010248423 1690:0.054882545 1691:0.044490006 1692:8.1987382e-05 1693:0 1694:4.7705617 1695:30.416286 1696:16.373781 1697:5.3256373 1698:9.675889 1699:26.236286 1700:17.340982 1701:2.7823303 1702:0 1703:8.6100035 1704:22.868788 1705:22.159985 1706:10.327238 1707:16.022997 1708:6.3637447 1709:2.62185 1710:11.464619 1711:0 1712:0.57887173 1713:8.7245846 1714:4.2840061 1715:0.0040859645 1716:0.0020843435 1717:0.11162115 1718:0.090484612 1719:0.00016674749 1720:0 1721:0.044784725 1722:4.851306 1723:4.8423624 1724:0.024542494 1725:0.00041686869 1726:0.001066272 1727:0.00036345739 1728:0.00043771212 1729:0 1730:9.4215479 1731:25.024307 1732:24.248695 1733:11.300642 1734:17.53326 1735:6.9635658 1736:2.8689752 1737:12.545228 1738:0 1739:7.3457298 1740:21.403437 1741:21.152763 1742:7.5140352 1743:11.119596 1744:3.9913361 1745:3.5804596 1746:13.536195 1747:0 1748:0.049005952 1749:5.3085704 1750:5.2987843 1751:0.02685577 1752:0.00045616107 1753:0.0011667745 1754:0.00039771546 1755:0.0004789691 1756:0 1757:0.030987591 1758:2.5363553 1759:3.045439 1760:0.10515511 1761:0.037074491 1762:0.11226694 1763:0.31702837 1764:0.094529405 1765:0 1766:7.8195395 1767:22.783987 1768:22.517145 1769:7.9987011 1770:11.836824 1771:4.2487826 1772:3.8114042 1773:14.409297 1774:0 1775:5.970089 1776:25.380527 1777:18.525711 1778:5.0568361 1779:7.707129 1780:16.104774 1781:8.214139 1782:5.3384976 1783:0 1784:0.032986332 1785:2.6999538 1786:3.241874 1787:0.11193775 1788:0.039465848 1789:0.11950831 1790:0.33747715 1791:0.10062668 1792:0 1793:0.026690433 1794:2.4273119 1795:2.1295276 1796:0.060253397 1797:0.11722151 1798:2.8614857 1799:1.3048873 1800:0.060499225 1801:0 1802:5.5933695 1803:23.778986 1804:17.356718 1805:4.7377439 1806:7.2208004 1807:15.088545 1808:7.695817 1809:5.0016322 1810:0 1811:6.7436838 1812:23.993412 1813:15.887987 1814:5.7456293 1815:7.7997866 1816:26.616673 1817:15.213008 1818:7.4781923 1819:0 1820:0.025006237 1821:2.2741458 1822:1.9951519 1823:0.056451339 1824:0.1098247 1825:2.6809225 1826:1.2225474 1827:0.056681655 1828:0 1829:0.045222774 1830:0.48930061 1831:0.22259445 1832:0.030467685 1833:0.023829071 1834:7.3881621 1835:4.5210524 1836:0.00069094496 1837:0 1838:6.3456707 1839:22.577316 1840:14.950276 1841:5.4065213 1842:7.3394423 1843:25.045752 1844:14.315134 1845:7.0368285 1846:0 1847:2.1634877 1848:22.447247 1849:16.623732 1850:1.8357644 1851:4.3764973 1852:32.387905 1853:20.544508 1854:2.4564474 1855:0 1856:0.042553719 1857:0.46042201 1858:0.20945691 1859:0.028669478 1860:0.022422675 1861:6.9521117 1862:4.2542191 1863:0.00065016531 1864:0 1865:0.0093029821 1866:0.023626685 1867:0.031007264 1868:0.0019043421 1869:0 1870:7.5796747 1871:5.239347 1872:0.0027371154 1873:0 1874:2.1871016 1875:22.692249 1876:16.805174 1877:1.8558011 1878:4.4242654 1879:32.741409 1880:20.768744 1881:2.4832587 1882:0 1883:1.373614 1884:21.752947 1885:15.419625 1886:0.47668102 1887:0.44501075 1888:34.486702 1889:26.332481 1890:1.5488092 1891:0 1892:0.0094045205 1893:0.023884561 1894:0.031345699 1895:0.0019251273 1896:0 1897:7.6624041 1898:5.2965326 1899:0.0027669901 1900:0 1901:0 1902:0 1903:0 1904:0 1905:0.00077086239 1906:5.5862021 1907:3.810529 1908:0 1909:0 1910:1.3969225 1911:22.122068 1912:15.681277 1913:0.4847697 1914:0.45256203 1915:35.071896 1916:26.779312 1917:1.5750905 1918:0 1919:1.5724534 1920:17.876348 1921:14.194983 1922:1.9595134 1923:1.9619638 1924:37.100491 1925:29.228983 1926:1.5870134 1927:0 1928:0 1929:0 1930:0 1931:0 1932:0.00078394293 1933:5.6809931 1934:3.8751888 1935:0 1936:0 1937:0.0016724116 1938:0.038707525 1939:0.026227705 1940:0.0011002708 1941:0.0023518289 1942:3.2638097 1943:2.475148 1944:0 1945:0 1946:1.5638381 1947:17.778406 1948:14.11721 1949:1.9487776 1950:1.9512144 1951:36.897221 1952:29.068842 1953:1.5783184 1954:0 1955:2.2196219 1956:20.792471 1957:15.453627 1958:1.6816114 1959:2.8214943 1960:40.624279 1961:27.07192 1962:1.0917525 1963:0 1964:0.0016632486 1965:0.038495451 1966:0.026084006 1967:0.0010942426 1968:0.0023389435 1969:3.2459276 1970:2.461587 1971:0 1972:0 1973:0.013492011 1974:0.20320837 1975:0.10360836 1976:0.0021884851 1977:4.1034098e-05 1978:1.6684251 1979:1.2182517 1980:0.00092326716 1981:0 1982:2.2691302 1983:21.256245 1984:15.798318 1985:1.7191195 1986:2.8844273 1987:41.530399 1988:27.675756 1989:1.1161039 1990:0 1991:1.6621166 1992:20.253695 1993:13.407003 1994:0.26160738 1995:0.44247413 1996:38.122665 1997:26.1234 1998:0.86493415 1999:0 2000:0.013792949 2001:0.2077409 2002:0.10591933 2003:0.002237299 2004:4.1949355e-05 2005:1.7056391 2006:1.2454247 2007:0.0009438605 2008:0 2009:0.01346015 2010:0.90359896 2011:0.46061233 2012:0.00030203539 2013:0.00046144292 2014:0.42840639 2015:0.24844646 2016:0.00031462018 2017:0 2018:1.6919059 2019:20.61669 2020:13.64729 2021:0.26629603 2022:0.45040435 2023:38.80592 2024:26.591595 2025:0.88043594 2026:0 2027:1.303103 2028:24.698133 2029:15.425254 2030:0.48436388 2031:0.94837993 2032:37.526482 2033:25.215002 2034:0.61193937 2035:0 2036:0.013701389 2037:0.91979367 2038:0.46886763 2039:0.00030744859 2040:0.00046971309 2041:0.43608451 2042:0.25289923 2043:0.00032025896 2044:0 2045:0.009710962 2046:3.4395747 2047:2.0394082 2048:0 2049:0 2050:0.053600673 2051:0.040309213 2052:0.00018219175 2053:0 2054:1.2429733 2055:23.558475 2056:14.713479 2057:0.46201363 2058:0.90461838 2059:35.79488 2060:24.051495 2061:0.58370239 2062:0 2063:4.3618927 2064:32.15675 2065:17.832785 2066:4.4558425 2067:8.3322515 2068:24.690243 2069:16.1901 2070:2.3770263 2071:0 2072:0.0092628645 2073:3.2808607 2074:1.9453028 2075:0 2076:0 2077:0.051127352 2078:0.038449205 2079:0.00017378479 2080:0 2081:0.47893661 2082:6.7470226 2083:3.0671034 2084:0 2085:0 2086:0.00043106775 2087:0.00085670466 2088:8.6892396e-05 2089:0 2090:4.3927412 2091:32.384171 2092:17.958902 2093:4.4873552 2094:8.3911791 2095:24.864859 2096:16.3046 2097:2.3938372 2098:0 2099:7.2309647 2100:25.048561 2101:24.611197 2102:8.7025909 2103:13.990349 2104:5.9613123 2105:2.4170628 2106:10.072514 2107:0 2108:0.48232377 2109:6.7947392 2110:3.0887947 2111:0 2112:0 2113:0.00043411637 2114:0.0008627635 2115:8.7506924e-05 2116:0 2117:0.036504745 2118:3.0668721 2119:3.0303078 2120:0.018247243 2121:0 2122:0 2123:0 2124:0.0003445585 2125:0 2126:8.8911982 2127:30.799723 2128:30.261938 2129:10.70071 2130:17.202539 2131:7.3300323 2132:2.9720216 2133:12.385168 2134:0 2135:2.819108 2136:13.177215 2137:12.918593 2138:6.2965512 2139:9.385211 2140:1.9935926 2141:1.1204085 2142:5.824512 2143:0 2144:0.04488625 2145:3.7710273 2146:3.726068 2147:0.022436818 2148:0 2149:0 2150:0 2151:0.00042366932 2152:0 2153:0.027409889 2154:0.79679751 2155:1.0954508 2156:0.01747888 2157:0 2158:0 2159:0 2160:0.00084733864 
