2
[ 1.0 2.0 ]
===
svm_type c_svc
kernel_type linear
nr_class 2
total_sv 102
rho 0.471221
label 1 -1
nr_sv 50 52
SV
1.134038566906643e-05 1:0 2:0 3:0 4:0.0051096841 5:0.021558193 6:0.075706132 7:0.31251913 8:0.26865801 9:0.012147401 10:0 11:0.28627756 12:0.0052799108 13:0.012694867 14:0.27410132 15:0.66745073 16:0.12989518 17:0.10132885 18:0.099901393 19:0 20:1.668249 21:2.4641969 22:4.6465383 23:1.4899021 24:2.1254303 25:10.643265 26:10.208447 27:3.7900248 28:0 29:21.476591 30:10.169996 31:6.4403267 32:100.1442 33:173.80357 34:27.204857 35:21.500967 36:27.848028 37:0 38:0.28326067 39:0.0052242693 40:0.012561086 41:0.27121276 42:0.6604169 43:0.12852632 44:0.10026102 45:0.098848611 46:0 47:0.34681475 48:0.006845078 49:0 50:0.12868582 51:0.43028855 52:0.19119899 53:0.097765207 54:0.18928307 55:0 56:21.250265 57:10.062822 58:6.372457 59:99.08886 60:171.97198 61:26.918163 62:21.274384 63:27.554558 64:0 65:10.945333 66:0.60616547 67:0.38823923 68:7.6194887 69:13.625856 70:3.3867788 71:1.7351302 72:6.7029214 73:0 74:0.74394363 75:0.014683205 76:0 77:0.27604073 78:0.92300111 79:0.41013613 80:0.20971368 81:0.40602636 82:0 83:0.44788596 84:0.011245488 85:0.0069902521 86:0.057302926 87:0.99980974 88:0.77834761 89:0.22480489 90:0.31255352 91:0 92:23.478559 93:1.3002703 94:0.83280224 95:16.344374 96:29.228483 97:7.264894 98:3.7219841 99:14.378268 100:0 101:22.712669 102:9.3878298 103:6.7620673 104:9.822608 105:26.205065 106:8.6358557 107:1.8661655 108:13.839105 109:0 110:0.49425527 111:0.012409726 112:0.0077139479 113:0.063235454 114:1.1033193 115:0.85892934 116:0.24807878 117:0.34491199 118:0 119:0.067261368 120:0.029358109 121:0.026709925 122:0.12208177 123:0.19321024 124:0.19262485 125:0.81051868 126:0.94099361 127:0 128:25.064095 129:10.359745 130:7.4621396 131:10.839536 132:28.918056 133:9.5299196 134:2.0593684 135:15.271857 136:0 137:7.4892268 138:9.255353 139:12.296393 140:5.9406104 141:4.6917133 142:3.7546232 143:8.657341 144:15.584146 145:0 146:0.08623936 147:0.037641585 148:0.03424621 149:0.15652749 150:0.24772507 151:0.24697451 152:1.0392089 153:1.2064977 154:0 155:0.011267024 156:0 157:0.0018368618 158:0.18144426 159:0.47865951 160:0.57722515 161:0.63420469 162:0.3295553 163:0 164:9.602334 165:11.866777 166:15.765857 167:7.6167703 168:6.0154939 169:4.8140006 170:11.100035 171:19.981258 172:0 173:4.0640407 174:0.78220201 175:0.39912969 176:5.8737812 177:14.0036 178:7.903151 179:8.428462 180:9.0005827 181:0 182:0.010340548 183:0 184:0.0016858184 185:0.16652426 186:0.43929979 187:0.52976048 188:0.58205462 189:0.30245629 190:0 191:0.50491554 192:0 193:0.016349258 194:0.47335514 195:0.90278262 196:0.21772802 197:0.37261656 198:0.98914891 199:0 200:3.7298584 201:0.71788228 202:0.36630964 203:5.3907857 204:12.852098 205:7.2532825 206:7.7353978 207:8.2604733 208:0 209:23.013336 210:0.33846679 211:0.51562184 212:14.748892 213:29.487236 214:3.9519169 215:4.0374565 216:27.344986 217:0 218:0.48021424 219:0 220:0.015549425 221:0.45019782 222:0.85861701 223:0.2070764 224:0.35438755 225:0.94075811 226:0 227:0.029391514 228:0 229:0.0037209713 230:0.26633117 231:0.34365666 232:0.23436068 233:0.56745285 234:0.28423172 235:0 236:21.887486 237:0.32190844 238:0.49039677 239:14.027352 240:28.044672 241:3.7585828 242:3.8399374 243:26.007223 244:0 245:6.3910594 246:1.5157892 247:1.2718027 248:6.5516477 249:19.040138 250:6.7526484 251:9.9587269 252:8.3436203 253:0 254:0.02904065 255:0 256:0.0036765516 257:0.26315179 258:0.33955422 259:0.23156299 260:0.56067884 261:0.2808387 262:0 263:0.069847949 264:0 265:0 266:0.32953337 267:0.47202215 268:0.53950131 269:0.66359144 270:0.27905738 271:0 272:6.3147655 273:1.4976943 274:1.2566204 275:6.4734368 276:18.812845 277:6.6720381 278:9.8398438 279:8.2440166 280:0 281:16.168736 282:13.838157 283:10.453731 284:6.956181 285:20.230467 286:11.468151 287:15.432605 288:7.4898205 289:0 290:0.062649965 291:0 292:0 293:0.29557425 294:0.42337924 295:0.48390451 296:0.59520692 297:0.2502999 298:0 299:0.40066501 300:0 301:0 302:0.27622721 303:0.97144347 304:0.38318217 305:0.47049347 306:0.94814366 307:0 308:14.502512 309:12.412105 310:9.3764505 311:6.2393317 312:18.145672 313:10.286333 314:13.842242 315:6.7179785 316:0 317:8.5366764 318:10.029709 319:13.226458 320:8.1749392 321:15.636828 322:6.1667032 323:9.7732038 324:15.564288 325:0 326:0.41320798 327:0 328:0 329:0.28487459 330:1.0018548 331:0.39517781 332:0.48522243 333:0.97782558 334:0 335:0.045823287 336:0 337:0 338:0.097482383 339:0.32057381 340:0.64909339 341:0.7985692 342:0.24152942 343:0 344:8.8039198 345:10.343693 346:13.640516 347:8.4308586 348:16.126345 349:6.3597541 350:10.079157 351:16.051533 352:0 353:11.798037 354:15.004865 355:9.5715694 356:6.2920794 357:18.627722 358:7.6549115 359:8.7449427 360:5.3602958 361:0 362:0.044384848 363:0 364:0 365:0.094422318 366:0.31051067 367:0.62871772 368:0.77350134 369:0.23394758 370:0 371:0.11804296 372:0 373:0 374:0.064353138 375:0.37399673 376:1.168161 377:0.89801717 378:0.73343426 379:0 380:11.427685 381:14.533847 382:9.2711077 383:6.0945649 384:18.042978 385:7.4146166 386:8.4704304 387:5.1920309 388:0 389:21.442038 390:4.8690152 391:1.9074253 392:8.1548395 393:24.634979 394:16.831289 395:7.676312 396:12.984961 397:0 398:0.11204133 399:0 400:0 401:0.061081242 402:0.35498169 403:1.1087685 404:0.85235947 405:0.6961444 406:0 407:0.098134167 408:0 409:0.027796842 410:0.13609745 411:0.39625594 412:1.0838751 413:1.1762309 414:0.38906205 415:0 416:20.351864 417:4.6214609 418:1.8104465 419:7.7402244 420:23.382467 421:15.975539 422:7.2860265 423:12.324768 424:0 425:10.311213 426:12.000697 427:9.2652254 428:8.8532543 429:12.183348 430:14.833075 431:15.280836 432:11.553408 433:0 434:0.096294805 435:0 436:0.027275836 437:0.13354652 438:0.38882878 439:1.0635597 440:1.1541845 441:0.38176972 442:0 443:0.05933461 444:0 445:0.0090919454 446:0.25756615 447:0.19549866 448:1.2821311 449:1.7878863 450:0.43862247 451:0 452:10.117947 453:11.775764 454:9.0915642 455:8.687315 456:11.95499 457:14.555053 458:14.994422 459:11.336859 460:0 461:11.08587 462:3.3367887 463:2.2249973 464:10.250783 465:21.082243 466:14.332237 467:19.820547 468:16.054461 469:0 470:0.054753564 471:0 472:0.0083899833 473:0.23768023 474:0.1804048 475:1.1831416 476:1.6498488 477:0.40475774 478:0 479:0.0013400668 480:0 481:0.01669365 482:0.035094213 483:0.11406536 484:2.786334 485:2.9967756 486:0.16571008 487:0 488:10.229962 489:3.079165 490:2.0532119 491:9.4593496 492:19.454544 493:13.225688 494:18.290262 495:14.814943 496:0 497:6.8079939 498:10.940418 499:12.923443 500:2.752341 501:5.5147104 502:32.844967 503:33.40802 504:8.9075069 505:0 506:0.0014484701 507:0 508:0.018044066 509:0.037933122 510:0.12329256 511:3.0117316 512:3.2391965 513:0.17911503 514:0 515:0.00434541 516:0 517:0.073183887 518:0.30829087 519:1.256206 520:0.66850972 521:0.71954441 522:0.14542779 523:0 524:7.3587193 525:11.825432 526:13.968871 527:2.9749887 528:5.9608173 529:35.501926 530:36.110527 531:9.6280708 532:0 533:4.6915798 534:2.0356059 535:3.2751889 536:9.9771061 537:17.751249 538:6.4081731 539:8.8110046 540:12.419755 541:0 542:0.96232992 543:1.4214728 544:2.6803567 545:0.85945046 546:1.226055 547:6.1395702 548:5.8887453 549:2.1862767 550:0 551:12.388778 552:5.8665652 553:3.7151043 554:57.768215 555:100.25864 556:15.693129 557:12.402839 558:16.064144 559:0 560:2.0846951 561:1.3478853 562:3.2772934 563:2.6403849 564:1.8981354 565:2.2918878 566:3.7008495 567:4.2055664 568:0 569:17.983843 570:66.215172 571:62.473969 572:56.666275 573:92.281631 574:105.90032 575:66.842583 576:6.449883 577:0 578:12.215978 579:5.7847376 580:3.6632855 581:56.962452 582:98.860214 583:15.474238 584:12.229841 585:15.840078 586:0 587:6.2920599 588:0.34846172 589:0.22318411 590:4.380157 591:7.8329916 592:1.9469315 593:0.99746102 594:3.8532569 595:0 596:17.733002 597:65.291588 598:61.60257 599:55.875885 600:90.994469 601:104.42321 602:65.910248 603:6.3599191 604:0 605:7.8735127 606:2.755156 607:2.3412557 608:6.0787282 609:8.3501663 610:2.7206702 611:1.8400953 612:5.2191486 613:0 614:15.373775 615:0.85141784 616:0.54531944 617:10.702307 618:19.138828 619:4.7570572 620:2.4371576 621:9.4148989 622:0 623:14.87227 624:6.1471572 625:4.4278059 626:6.4318504 627:17.159092 628:5.6547642 629:1.2219664 630:9.0618544 631:0 632:19.237837 633:6.7318416 634:5.7205338 635:14.85253 636:20.402473 637:6.6475801 638:4.4960175 639:12.752266 640:0 641:24.332138 642:2.5049031 643:2.4613023 644:14.319875 645:19.81488 646:2.788717 647:2.4505825 648:20.174274 649:0 650:17.225885 651:7.1199775 652:5.12853 653:7.4497247 654:19.874611 655:6.5496607 656:1.415349 657:10.495941 658:0 659:5.1471462 660:6.3609581 661:8.450984 662:4.0828233 663:3.2244899 664:2.5804527 665:5.9499602 666:10.710569 667:0 668:28.182829 669:2.9013174 670:2.8508165 671:16.586071 672:22.950689 673:3.2300463 674:2.8384001 675:23.366961 676:0 677:3.7353771 678:5.6508908 679:6.7468963 680:3.2538612 681:4.3770742 682:6.5133595 683:6.6285868 684:4.2378926 685:0 686:6.740901 687:8.3305559 688:11.067735 689:5.3470225 690:4.2229161 691:3.3794601 692:7.7922969 693:14.026974 694:0 695:2.852983 696:0.54911095 697:0.28019166 698:4.1234331 699:9.8306189 700:5.5480638 701:5.9168353 702:6.3184676 703:0 704:4.8919935 705:7.4006243 706:8.8359947 707:4.2613816 708:5.7323847 709:8.5301456 710:8.6810522 711:5.5501075 712:0 713:4.6476383 714:4.4874306 715:4.6818471 716:7.9422131 717:11.943303 718:5.3103786 719:8.9583082 720:4.7882571 721:0 722:2.3956437 723:0.46108729 724:0.23527634 725:3.4624379 726:8.2547493 727:4.6586971 728:4.9683542 729:5.305604 730:0 731:14.781193 732:0.21739322 733:0.3311778 734:9.4730387 735:18.939302 736:2.5382695 737:2.5932105 738:17.56336 739:0 740:3.9026122 741:3.768086 742:3.9313371 743:6.6690593 744:10.028767 745:4.4591141 746:7.5222726 747:4.0206895 748:0 749:27.425301 750:2.7820575 751:1.0837955 752:18.255333 753:26.106438 754:2.3519392 755:1.6602597 756:21.572758 757:0 758:13.520315 759:0.19884895 760:0.30292737 761:8.6649618 762:17.323725 763:2.3217478 764:2.3720021 765:16.065155 766:0 767:3.9478786 768:0.93633169 769:0.78561658 770:4.0470772 771:11.761455 772:4.1712389 773:6.1516943 774:5.1540122 775:0 776:25.085844 777:2.54474 778:0.99134475 779:16.698101 780:23.879484 781:2.1513121 782:1.5186348 783:19.73254 784:0 785:11.800877 786:7.3635135 787:5.3502913 788:10.073303 789:18.386414 790:5.2666984 791:4.6465344 792:11.046237 793:0 794:3.9256766 795:0.93106592 796:0.78119844 797:4.0243168 798:11.695311 799:4.1477809 800:6.1170983 801:5.1250272 802:0 803:10.051557 804:8.6027145 805:6.4987311 806:4.3244228 807:12.576597 808:7.1293626 809:9.5939293 810:4.6561685 811:0 812:11.734511 813:7.3221025 814:5.3202024 815:10.016653 816:18.28301 817:5.2370796 818:4.6204028 819:10.984115 820:0 821:10.0836 822:14.090213 823:13.20823 824:11.250312 825:10.60382 826:10.307594 827:15.446049 828:7.0665555 829:0 830:9.6460495 831:8.2556581 832:6.2365546 833:4.1499639 834:12.069223 835:6.8417444 836:9.2068844 837:4.4683261 838:0 839:5.6779957 840:6.6710558 841:8.797308 842:5.4373937 843:10.400517 844:4.1016564 845:6.5004468 846:10.352268 847:0 848:9.6767998 849:13.521775 850:12.675374 851:10.796444 852:10.176032 853:9.891757 854:14.822913 855:6.7814713 856:0 857:12.556551 858:3.7040858 859:5.5235853 860:10.971385 861:9.2644434 862:4.854269 863:7.1845727 864:15.712948 865:0 866:5.8543329 867:6.8782339 868:9.0705194 869:5.6062589 870:10.723517 871:4.2290387 872:6.7023263 873:10.673771 874:0 875:7.8453274 876:9.9777689 877:6.3647957 878:4.1840372 879:12.386855 880:5.0902781 881:5.815115 882:3.56443 883:0 884:12.946511 885:3.8191209 886:5.695127 887:11.312115 888:9.5521622 889:5.0050249 890:7.4076986 891:16.200933 892:0 893:27.110718 894:5.0705047 895:2.1528888 896:4.4793711 897:34.036709 898:3.9148464 899:1.3015308 900:3.6142685 901:0 902:7.6066399 903:9.6742039 904:6.1711526 905:4.0567412 906:12.009996 907:4.935411 908:5.638195 909:3.4559853 910:0 911:14.272521 912:3.2409756 913:1.2696446 914:5.4281273 915:16.397846 916:11.203456 917:5.1096039 918:8.6432142 919:0 920:26.285896 921:4.9162388 922:2.087389 923:4.3430901 924:33.001171 925:3.7957406 926:1.2619328 927:3.5043075 928:0 929:20.975288 930:4.2754812 931:2.2516613 932:14.988802 933:21.495642 934:2.8103306 935:4.351984 936:7.5553994 937:0 938:13.57331 939:3.0822001 940:1.2074447 941:5.1622033 942:15.594516 943:10.654598 944:4.8592844 945:8.2197828 946:0 947:6.8768783 948:8.0036488 949:6.179275 950:5.9045191 951:8.1254644 952:9.8926516 953:10.191278 954:7.7053375 955:0 956:19.947708 957:4.0660253 958:2.1413522 959:14.2545 960:20.44257 961:2.6726525 962:4.1387801 963:7.1852603 964:0 965:14.885121 966:11.650068 967:9.5593271 968:10.348907 969:12.763352 970:10.603587 971:11.151798 972:10.240734 973:0 974:6.7186751 975:7.8195243 976:6.0371203 977:5.7686849 978:7.9385376 979:9.6650705 980:9.9568272 981:7.5280757 982:0 983:7.3614101 984:2.2157459 985:1.477477 986:6.8068829 987:13.999355 988:9.5171137 989:13.161546 990:10.66073 991:0 992:14.542688 993:11.382058 994:9.3394136 995:10.11083 996:12.46973 997:10.359652 998:10.89525 999:10.005146 1000:0 1001:16.284811 1002:7.3970079 1003:6.8019614 1004:10.497222 1005:20.638971 1006:5.0828753 1007:4.1673627 1008:11.535121 1009:0 1010:7.2245073 1011:2.1745389 1012:1.4499998 1013:6.6802926 1014:13.739004 1015:9.3401203 1016:12.916776 1017:10.462469 1018:0 1019:4.8078771 1020:7.7262387 1021:9.1266718 1022:1.9437323 1023:3.8945467 1024:23.195463 1025:23.593096 1026:6.2905755 1027:0 1028:15.981956 1029:7.2594433 1030:6.6754627 1031:10.302001 1032:20.25514 1033:4.9883475 1034:4.0898609 1035:11.320598 1036:0 1037:7.8389039 1038:10.14844 1039:12.536186 1040:7.3764319 1041:6.0821762 1042:9.8909779 1043:12.654023 1044:11.826751 1045:0 1046:5.418777 1047:8.7079525 1048:10.286327 1049:2.1907074 1050:4.3893967 1051:26.142731 1052:26.590887 1053:7.0898705 1054:0 1055:3.454762 1056:1.4989692 1057:2.4117672 1058:7.3468914 1059:13.071577 1060:4.7188182 1061:6.488203 1062:9.1455965 1063:0 1064:8.8349333 1065:11.437924 1066:14.129063 1067:8.3136978 1068:6.8549914 1069:11.147748 1070:14.261872 1071:13.329485 1072:0 1073:6.4573264 1074:0.99658334 1075:2.6237493 1076:7.58848 1077:9.1081934 1078:0.70127815 1079:3.1251972 1080:11.680023 1081:0 1082:2.1155005 1083:1.3678029 1084:3.3257217 1085:2.6794019 1086:1.9261839 1087:2.3257549 1088:3.7555368 1089:4.2677116 1090:0 1091:18.249588 1092:67.193626 1093:63.397141 1094:57.503628 1095:93.645271 1096:107.4652 1097:67.830307 1098:6.5451927 1099:0 1100:4.0296555 1101:1.3856385 1102:1.2760307 1103:2.0359886 1104:3.3226247 1105:0.98802328 1106:0.47076735 1107:2.7147717 1108:0 1109:16.01746 1110:17.204836 1111:13.315372 1112:103.78197 1113:83.380379 1114:-24.102314 1115:-9.3924675 1116:10.958198 1117:0 1118:17.925045 1119:65.99868 1120:62.269714 1121:56.481007 1122:91.979919 1123:105.55408 1124:66.624039 1125:6.4287958 1126:0 1127:7.9587812 1128:2.7849936 1129:2.366611 1130:6.1445599 1131:8.4405966 1132:2.7501345 1133:1.8600231 1134:5.275671 1135:0 1136:15.732613 1137:16.898872 1138:13.078577 1139:101.93635 1140:81.897583 1141:-23.673689 1142:-9.2254362 1143:10.763322 1144:0 1145:6.8371038 1146:2.0986948 1147:1.8330611 1148:6.1937137 1149:5.7325048 1150:0.1835175 1151:0.19803877 1152:2.8879621 1153:0 1154:18.902811 1155:6.6146073 1156:5.6209111 1157:14.593874 1158:20.047167 1159:6.5318131 1160:4.4177198 1161:12.530187 1162:0 1163:23.908396 1164:2.4612806 1165:2.4184389 1166:14.070496 1167:19.469805 1168:2.7401516 1169:2.4079058 1170:19.822941 1171:0 1172:16.238728 1173:4.9845862 1174:4.3536825 1175:14.710619 1176:13.615207 1177:0.43587035 1178:0.47035962 1179:6.8591661 1180:0 1181:8.1373177 1182:16.836851 1183:18.563271 1184:7.277576 1185:7.1747413 1186:4.5852542 1187:5.0968819 1188:7.4434667 1189:0 1190:26.077049 1191:2.6845353 1192:2.6378078 1193:15.346786 1194:21.235849 1195:2.9887021 1196:2.6263192 1197:21.621016 1198:0 1199:3.4562752 1200:5.2286649 1201:6.2427783 1202:3.0107377 1203:4.0500255 1204:6.026691 1205:6.1333084 1206:3.9212437 1207:0 1208:8.8754282 1209:18.364067 1210:20.247086 1211:7.9377017 1212:7.8255391 1213:5.0011683 1214:5.5592036 1215:8.1186399 1216:0 1217:5.5958195 1218:21.70068 1219:16.678728 1220:4.7694678 1221:3.8307629 1222:8.4566784 1223:7.1075416 1224:3.9272625 1225:0 1226:4.0059967 1227:6.0602856 1228:7.2356939 1229:3.4895964 1230:4.6941833 1231:6.9852381 1232:7.1088133 1233:4.5449185 1234:0 1235:3.8058972 1236:3.674705 1237:3.8339105 1238:6.5037866 1239:9.7802334 1240:4.3486075 1241:7.335855 1242:3.9210484 1243:0 1244:6.4858365 1245:25.152178 1246:19.331484 1247:5.5280533 1248:4.4400468 1249:9.8017159 1250:8.237998 1251:4.5518947 1252:0 1253:1.5687377 1254:17.958015 1255:22.601982 1256:5.4260497 1257:6.4575324 1258:7.049006 1259:12.78835 1260:3.1535053 1261:0 1262:3.5371368 1263:3.4152091 1264:3.5631719 1265:6.0445094 1266:9.0895844 1267:4.041523 1268:6.8178205 1269:3.6441565 1270:0 1271:24.856953 1272:2.5215209 1273:0.98229939 1274:16.545742 1275:23.661598 1276:2.1316829 1277:1.5047783 1278:19.552492 1279:0 1280:1.4579585 1281:16.689877 1282:21.005901 1283:5.0428796 1284:6.0015216 1285:6.5512276 1286:11.885278 1287:2.9308147 1288:0 1289:14.564151 1290:15.754602 1291:8.515523 1292:6.0734315 1293:7.5605116 1294:2.315968 1295:2.3993478 1296:6.0351057 1297:0 1298:24.347202 1299:2.4698112 1300:0.96215498 1301:16.206432 1302:23.176361 1303:2.0879676 1304:1.4739193 1305:19.151524 1306:0 1307:11.453404 1308:7.1466975 1309:5.1927543 1310:9.7766991 1311:17.845032 1312:5.1116228 1313:4.5097189 1314:10.720984 1315:0 1316:14.265479 1317:15.431518 1318:8.3408918 1319:5.9488811 1320:7.4054656 1321:2.2684736 1322:2.3501434 1323:5.9113417 1324:0 1325:5.345458 1326:8.0848217 1327:15.014896 1328:6.8209834 1329:3.3594775 1330:4.1805282 1331:3.5908911 1332:2.3264613 1333:0 1334:11.099189 1335:6.925674 1336:5.0321593 1337:9.4743376 1338:17.293144 1339:4.953537 1340:4.3702483 1341:10.38942 1342:0 1343:9.5376606 1344:13.32735 1345:12.493119 1346:10.641205 1347:10.029715 1348:9.749527 1349:14.609779 1350:6.6839628 1351:0 1352:5.1801405 1353:7.834785 1354:14.550535 1355:6.610033 1356:3.2555799 1357:4.0512385 1358:3.4798367 1359:2.2545116 1360:0 1361:3.7642121 1362:19.115374 1363:19.476255 1364:5.5914211 1365:5.1334324 1366:9.1442451 1367:12.20866 1368:2.7070589 1369:0 1370:9.285531 1371:12.97504 1372:12.162863 1373:10.359904 1374:9.7645788 1375:9.4917974 1376:14.223569 1377:6.5072718 1378:0 1379:12.048844 1380:3.554316 1381:5.3002462 1382:10.527772 1383:8.8898478 1384:4.6579933 1385:6.8940744 1386:15.077616 1387:0 1388:3.6647048 1389:18.610056 1390:18.961399 1391:5.4436116 1392:4.9977298 1393:8.9025164 1394:11.885923 1395:2.6354976 1396:0 1397:14.452752 1398:12.377037 1399:4.8908982 1400:6.9222331 1401:13.754066 1402:2.5493934 1403:0.75966597 1404:6.0676699 1405:0 1406:12.708667 1407:3.7489588 1408:5.5905004 1409:11.104298 1410:9.3766766 1411:4.9130759 1412:7.2716098 1413:15.903302 1414:0 1415:26.612659 1416:4.9773531 1417:2.1133375 1418:4.3970795 1419:33.411411 1420:3.8429258 1421:1.2776201 1422:3.5478699 1423:0 1424:15.244219 1425:13.054832 1426:5.1587353 1427:7.301311 1428:14.507271 1429:2.6890042 1430:0.80126703 1431:6.39995 1432:0 1433:25.748957 1434:5.7336326 1435:0.93245918 1436:4.5743804 1437:18.224669 1438:1.5083593 1439:0.054485854 1440:0.88187742 1441:0 1442:26.851406 1443:5.022006 1444:2.1322966 1445:4.4365268 1446:33.711151 1447:3.8774014 1448:1.2890818 1449:3.5796986 1450:0 1451:21.426546 1452:4.3674631 1453:2.3001029 1454:15.311268 1455:21.958096 1456:2.8707917 1457:4.445612 1458:7.7179451 1459:0 1460:25.979954 1461:5.7850699 1462:0.94082445 1463:4.615418 1464:18.388165 1465:1.521891 1466:0.054974657 1467:0.88978893 1468:0 1469:8.6244249 1470:4.9865842 1471:4.8914337 1472:13.293831 1473:11.117326 1474:1.4871093 1475:2.6871064 1476:4.6186781 1477:0 1478:20.643507 1479:4.2078528 1480:2.2160451 1481:14.751714 1482:21.15563 1483:2.7658777 1484:4.2831459 1485:7.4358907 1486:0 1487:15.404331 1488:12.056437 1489:9.892767 1490:10.709889 1491:13.208552 1492:10.973454 1493:11.540786 1494:10.597943 1495:0 1496:8.3092422 1497:4.804348 1498:4.7126751 1499:12.808003 1500:10.71104 1501:1.4327625 1502:2.5889051 1503:4.4498873 1504:0 1505:10.154858 1506:7.1842933 1507:5.6640735 1508:6.0396628 1509:7.8051076 1510:9.1580429 1511:7.7081318 1512:6.0914106 1513:0 1514:14.811542 1515:11.592481 1516:9.5120735 1517:10.297751 1518:12.700261 1519:10.551172 1520:11.096673 1521:10.190113 1522:0 1523:16.585871 1524:7.5337582 1525:6.9277105 1526:10.691286 1527:21.020529 1528:5.1768436 1529:4.2444057 1530:11.748373 1531:0 1532:9.7640781 1533:6.9078269 1534:5.4461083 1535:5.8072448 1536:7.5047512 1537:8.8056231 1538:7.4115071 1539:5.8570008 1540:0 1541:10.576372 1542:6.1358147 1543:6.9191685 1544:8.8383512 1545:7.306376 1546:9.0299692 1547:6.6044827 1548:5.1356001 1549:0 1550:16.904949 1551:7.6786919 1552:7.0609851 1553:10.896964 1554:21.424919 1555:5.2764354 1556:4.3260589 1557:11.974387 1558:0 1559:8.2916174 1560:10.734535 1561:13.260179 1562:7.8024368 1563:6.433435 1564:10.462204 1565:13.38482 1566:12.509771 1567:0 1568:10.77984 1569:6.2538552 1570:7.0522785 1571:9.0083828 1572:7.4469357 1573:9.2036867 1574:6.7315388 1575:5.2343984 1576:0 1577:9.126255 1578:7.0213284 1579:5.6019645 1580:4.6133771 1581:8.4717541 1582:7.9152703 1583:8.3513718 1584:5.9712257 1585:0 1586:9.8454094 1587:12.746113 1588:15.745045 1589:9.2645597 1590:7.6390162 1591:12.422749 1592:15.893044 1593:14.854016 1594:0 1595:7.1958694 1596:1.1105654 1597:2.923835 1598:8.4563961 1599:10.149924 1600:0.78148538 1601:3.482635 1602:13.015902 1603:0 1604:10.836452 1605:8.3370771 1606:6.6517339 1607:5.4778919 1608:10.059302 1609:9.3985376 1610:9.9163609 1611:7.0901918 1612:0 1613:10.482244 1614:2.4250045 1615:2.3619049 1616:3.5188727 1617:2.8547413 1618:0.12644811 1619:0.020953463 1620:6.7950487 1621:0 1622:7.8605456 1623:2.7029295 1624:2.4891202 1625:3.9715507 1626:6.481359 1627:1.9273118 1628:0.91831386 1629:5.2956362 1630:0 1631:31.24485 1632:33.561031 1633:25.973955 1634:202.44482 1635:162.64798 1636:-47.01577 1637:-18.321648 1638:21.375875 1639:0 1640:0.50614786 1641:0.55582452 1642:0.18466933 1643:0.024801251 1644:0.0035333873 1645:0.019545646 1646:0.031558752 1647:0.011578227 1648:0 1649:-2.4118884 1650:-0.40345562 1651:-1.1726214 1652:-26.340406 1653:-35.067112 1654:0.0016802122 1655:-1.1369156 1656:-3.6326616 1657:0 1658:30.441269 1659:32.69788 1660:25.305935 1661:197.23817 1662:158.46486 1663:-45.806576 1664:-17.850435 1665:20.826113 1666:0 1667:13.229215 1668:4.0607963 1669:3.5468175 1670:11.984309 1671:11.091909 1672:0.35509077 1673:0.38318819 1674:5.5879612 1675:0 1676:-2.3498573 1677:-0.39307919 1678:-1.1424628 1679:-25.662962 1680:-34.165226 1681:0.0016369991 1682:-1.1076754 1683:-3.5392337 1684:0 1685:0.40601832 1686:0.33482811 1687:0.28217369 1688:0.33522612 1689:0.065932944 1690:0 1691:0 1692:0.0024474743 1693:0 1694:24.140879 1695:7.4102044 1696:6.4722881 1697:21.869156 1698:20.24069 1699:0.64797521 1700:0.69924778 1701:10.197 1702:0 1703:12.09713 1704:25.030062 1705:27.596598 1706:10.819017 1707:10.666141 1708:6.8165479 1709:7.5771456 1710:11.065634 1711:0 1712:0.74090856 1713:0.61099958 1714:0.51491499 1715:0.61172587 1716:0.12031548 1717:0 1718:0 1719:0.0044661891 1720:0 1721:0.20116302 1722:2.2311294 1723:2.3031647 1724:0.088945985 1725:0 1726:0 1727:0 1728:0.00089323788 1729:0 1730:11.876007 1731:24.572538 1732:27.092161 1733:10.621257 1734:10.471175 1735:6.6919489 1736:7.4386435 1737:10.863366 1738:0 1739:7.4876385 1740:29.037184 1741:22.317425 1742:6.381916 1743:5.1258564 1744:11.315688 1745:9.5104389 1746:5.2549801 1747:0 1748:0.19748598 1749:2.1903467 1750:2.2610652 1751:0.087320149 1752:0 1753:0 1754:0 1755:0.00087691046 1756:0 1757:0.22069822 1758:1.7854937 1759:1.5755744 1760:0.32169962 1761:0 1762:0 1763:0 1764:0 1765:0 1766:7.8843436 1767:30.575611 1768:23.49983 1769:6.7200384 1770:5.3974309 1771:11.915209 1772:10.014315 1773:5.5333962 1774:0 1775:1.9069965 1776:21.830208 1777:27.475529 1778:6.5960407 1779:7.849936 1780:8.5689468 1781:15.545835 1782:3.8334792 1783:0 1784:0.2323911 1785:1.8800915 1786:1.6590505 1787:0.33874369 1788:0 1789:0 1790:0 1791:0 1792:0 1793:0.023551997 1794:2.0106387 1795:2.473634 1796:0.13087337 1797:0 1798:0 1799:0 1800:0 1801:0 1802:2.0079393 1803:22.985744 1804:28.92989 1805:6.9451885 1806:8.2654562 1807:9.0225258 1808:16.368723 1809:4.0363965 1810:0 1811:20.058138 1812:21.69766 1813:11.727806 1814:8.3644924 1815:10.412539 1816:3.1896131 1817:3.304446 1818:8.3117094 1819:0 1820:0.024798673 1821:2.1170678 1822:2.6045709 1823:0.13780087 1824:0 1825:0 1826:0 1827:0 1828:0 1829:0.13812602 1830:1.7972863 1831:1.0728586 1832:0.11924291 1833:0.0058908607 1834:0 1835:0 1836:0 1837:0 1838:21.965111 1839:23.760506 1840:12.842794 1841:9.1597233 1842:11.402482 1843:3.492857 1844:3.618607 1845:9.101922 1846:0 1847:8.2306089 1848:12.448514 1849:23.119019 1850:10.502533 1851:5.172718 1852:6.4369216 1853:5.5290341 1854:3.5821426 1855:0 1856:0.15125796 1857:1.9681584 1858:1.1748576 1859:0.13057959 1860:0.0064509176 1861:0 1862:0 1863:0 1864:0 1865:0.28729624 1866:0.95852506 1867:1.6701803 1868:0.11649265 1869:0.0046077985 1870:0 1871:0 1872:0 1873:0 1874:7.6203713 1875:11.525551 1876:21.404917 1877:9.7238493 1878:4.7891998 1879:5.9596725 1880:5.1190982 1881:3.3165538 1882:0 1883:5.5374355 1884:28.120132 1885:28.651016 1886:8.2253952 1887:7.5516601 1888:13.451863 1889:17.959846 1890:3.9822848 1891:0 1892:0.26599538 1893:0.88745767 1894:1.546349 1895:0.1078556 1896:0.0042661647 1897:0 1898:0 1899:0 1900:0 1901:0.090209998 1902:2.3954153 1903:2.6474001 1904:0.11086696 1905:0 1906:0 1907:0 1908:0 1909:0 1910:5.2148209 1911:26.481834 1912:26.981789 1913:7.7461786 1914:7.1116953 1915:12.668149 1916:16.913492 1917:3.7502742 1918:0 1919:20.566051 1920:17.612341 1921:6.9596753 1922:9.850235 1923:19.571833 1924:3.6277492 1925:1.0809934 1926:8.6342049 1927:0 1928:0.084954299 1929:2.2558568 1930:2.4931607 1931:0.10440777 1932:0 1933:0 1934:0 1935:0 1936:0 1937:0.38883743 1938:1.3205605 1939:0.47426504 1940:0.44686991 1941:0.45945388 1942:0.010044038 1943:0 1944:0.000803523 1945:0 1946:22.386536 1947:19.171364 1948:7.575738 1949:10.722167 1950:21.304308 1951:3.9488733 1952:1.1766816 1953:9.3984947 1954:0 1955:37.813015 1956:8.4199896 1957:1.3693408 1958:6.7175975 1959:26.763403 1960:2.2150652 1961:0.080013908 1962:1.2950602 1963:0 1964:0.42325684 1965:1.4374549 1966:0.51624644 1967:0.48642629 1968:0.50012416 1969:0.010933125 1970:0 1971:0.00087464997 1972:0 1973:1.1121638 1974:0.48009917 1975:0.11032517 1976:0.27216524 1977:0.58130181 1978:0.01411367 1979:0.0023191478 1980:0.012475358 1981:0 1982:40.225315 1983:8.9571466 1984:1.4566984 1985:7.1461492 1986:28.470785 1987:2.3563762 1988:0.085118428 1989:1.377679 1990:0 1991:13.353379 1992:7.7208338 1993:7.5735106 1994:20.58312 1995:17.213192 1996:2.3025229 1997:4.1605039 1998:7.1511974 1999:0 2000:1.1831148 2001:0.51072729 2002:0.11736341 2003:0.28952813 2004:0.61838621 2005:0.015014058 2006:0.0024670986 2007:0.013271229 2008:0 2009:0.15257508 2010:0.55970806 2011:0.71048832 2012:0.66632813 2013:0.16213685 2014:0 2015:0.0017622133 2016:0.0081502367 2017:0 2018:13.158302 2019:7.6080418 2020:7.4628706 2021:20.282425 2022:16.961727 2023:2.2688859 2024:4.0997238 2025:7.0467272 2026:0 2027:16.080971 2028:11.376862 2029:8.9694805 2030:9.5642548 2031:12.359967 2032:14.502441 2033:12.206399 2034:9.6462011 2035:0 2036:0.15034613 2037:0.55153137 2038:0.70010895 2039:0.65659386 2040:0.15976822 2041:0 2042:0.0017364695 2043:0.0080311717 2044:0 2045:0.40147609 2046:0.71923876 2047:0.53010243 2048:0.22137034 2049:0.02196634 2050:0 2051:0 2052:0.023546526 2053:0 2054:15.188918 2055:10.745758 2056:8.47192 2057:9.0337009 2058:11.674328 2059:13.697953 2060:11.529279 2061:9.1111012 2062:0 2063:16.452515 2064:9.5448217 2065:10.7634 2066:13.748865 2067:11.365737 2068:14.046945 2069:10.273877 2070:7.9888964 2071:0 2072:0.37920517 2073:0.67934066 2074:0.5006963 2075:0.20909035 2076:0.020747809 2077:0 2078:0 2079:0.022240339 2080:0 2081:0.49330828 2082:0.50189692 2083:0.78266233 2084:0.93069094 2085:0 2086:0 2087:0 2088:0.021984477 2089:0 2090:16.561232 2091:9.607893 2092:10.834523 2093:13.839716 2094:11.440841 2095:14.139765 2096:10.341766 2097:8.0416861 2098:0 2099:14.020804 2100:10.786974 2101:8.6063833 2102:7.0876017 2103:13.015285 2104:12.160351 2105:12.830339 2106:9.1736851 2107:0 2108:0.49656802 2109:0.50521338 2110:0.78783405 2111:0.93684083 2112:0 2113:0 2114:0 2115:0.022129746 2116:0 2117:0.50152588 2118:0.79447675 2119:0.34819186 2120:0.045030504 2121:0.0029470008 2122:0.00084200024 2123:0.010861803 2124:0.0032920558 2125:0 2126:16.992308 2127:13.073115 2128:10.43038 2129:8.589715 2130:15.773685 2131:14.737558 2132:15.549541 2133:11.117913 2134:0 2135:16.436886 2136:3.8025751 2137:3.7036304 2138:5.5178366 2139:4.4764323 2140:0.19827941 2141:0.032856483 2142:10.655107 2143:0 2144:0.60781693 2145:0.96285444 2146:0.42198601 2147:0.054574057 2148:0.0035715743 2149:0.0010204498 2150:0.013163802 2151:0.0039897589 2152:0 2153:0.43160325 2154:0.47380885 2155:0.1213545 2156:0.04931974 2157:0.010714724 2158:0.0030613495 2159:0.0043879347 2160:0.0018928346 
2.65923465410848e-05 1:0 2:0.080655031 3:0.0022285306 4:0.002546892 5:0.062490124 6:0.10456 7:0.0435431 8:0.042408407 9:0.22225028 10:0 11:0.083362699 12:0.0030085163 13:0 14:0.064210862 15:0.29127797 16:0.060246203 17:0.080873907 18:0.19333644 19:0 20:3.4024723 21:0.097600088 22:0.32735497 23:1.9249692 24:2.7399468 25:1.5483747 26:0.89096785 27:5.8739343 28:0 29:54.130905 30:27.256554 31:10.631199 32:83.376465 33:102.72157 34:125.62332 35:117.42724 36:42.372154 37:0 38:0.082362831 39:0.0029724317 40:0 41:0.06344071 42:0.28778434 43:0.059523601 44:0.079903893 45:0.19101754 46:0 47:0.25501341 48:0.0041614044 49:0.0021160883 50:0.032416806 51:0.23995806 52:0.42751169 53:0.18221243 54:0.23982882 55:0 56:53.481651 57:26.929634 58:10.503686 59:82.376434 60:101.48952 61:124.11658 62:116.0188 63:41.863937 64:0 65:9.2030554 66:0.16711907 67:0.06277021 68:1.2070235 69:6.3980222 70:3.1294913 71:1.7309016 72:7.91467 73:0 74:0.70898634 75:0.011569506 76:0.0058831326 77:0.090124965 78:0.66712958 79:1.1885648 80:0.5065856 81:0.66677028 82:0 83:0.1064546 84:0.077206552 85:0.12612553 86:0.035141386 87:0.18995604 88:3.6718159 89:1.9873255 90:0.62020957 91:0 92:25.586266 93:0.46462318 94:0.17451325 95:3.3557577 96:17.787733 97:8.7005882 98:4.8122396 99:22.004305 100:0 101:20.089106 102:3.9823465 103:4.1339231 104:11.975008 105:10.314807 106:29.4326 107:16.757225 108:21.5327 109:0 110:0.094629467 111:0.068630338 112:0.11211532 113:0.031237831 114:0.16885544 115:3.2639453 116:1.7665706 117:0.55131584 118:0 119:0 120:0.003593303 121:0.00016713036 122:0 123:0.24786274 124:5.2425427 125:2.9773893 126:0.34832236 127:0 128:17.857578 129:3.5399818 130:3.6747208 131:10.644807 132:9.1690226 133:26.163185 134:14.895807 135:19.140816 136:0 137:15.138447 138:7.9687762 139:6.6015558 140:14.064165 141:15.634234 142:27.746181 143:18.718317 144:12.391328 145:0 146:0 147:0.0035976984 148:0.0001673348 149:0 150:0.24816594 151:5.2489557 152:2.9810312 153:0.34874842 154:0 155:0.055915769 156:0.034029283 157:0.013612492 158:0.020726165 159:0.48499656 160:3.8315783 161:3.6940939 162:0.28226009 163:0 164:15.156964 165:7.9785237 166:6.6096306 167:14.081368 168:15.653358 169:27.780119 170:18.741213 171:12.406486 172:0 173:11.986562 174:12.691379 175:8.1963596 176:10.591827 177:11.50777 178:17.945127 179:21.035194 180:8.3252964 181:0 182:0.062271953 183:0.037897535 184:0.015159883 185:0.023082199 186:0.54012823 187:4.2671304 188:4.1140175 189:0.31434581 190:0 191:0.42795753 192:0.36298051 193:0.16794617 194:0.047809102 195:0.46516958 196:1.2076679 197:0.40532893 198:0.36986414 199:0 200:13.349126 201:14.134063 202:9.1280756 203:11.795846 204:12.815907 205:19.985027 206:23.426355 207:9.2716684 208:0 209:11.686106 210:16.851709 211:15.290389 212:7.4256287 213:6.8338995 214:10.116153 215:11.487561 216:7.2224255 217:0 218:0.46789622 219:0.39685529 220:0.18361959 221:0.052270837 222:0.5085811 223:1.3203723 224:0.44315583 225:0.40438133 226:0 227:0.56712383 228:0.44476527 229:0.30490965 230:0.12017894 231:1.6791023 232:0.6998657 233:0.77666366 234:0.55314106 235:0 236:12.7767 237:18.424377 238:16.717348 239:8.118618 240:7.4716663 241:11.060232 242:12.559627 243:7.896451 244:0 245:17.829678 246:7.5465622 247:3.7855558 248:14.92368 249:24.269085 250:5.1863585 251:6.9252086 252:10.998007 253:0 254:0.55572468 255:0.4358255 256:0.29878098 257:0.11776334 258:1.6453524 259:0.68579841 260:0.76105273 261:0.54202294 262:0 263:0.49515334 264:0.48048347 265:0.76687205 266:0.39210391 267:0.76266932 268:0.27537596 269:0.51118511 270:1.767197 271:0 272:17.4713 273:7.3948765 274:3.7094662 275:14.623714 276:23.781277 277:5.0821128 278:6.7860122 279:10.776947 280:0 281:18.692345 282:4.670135 283:6.4793482 284:18.277472 285:19.621124 286:1.7382232 287:2.6230507 288:27.199652 289:0 290:0.48696354 291:0.47253633 292:0.75418806 293:0.38561857 294:0.7500549 295:0.27082127 296:0.50273019 297:1.7379677 298:0 299:0.70480216 300:0.010548128 301:0.00075343769 302:0.74413317 303:1.7189149 304:0.45651096 305:0.38735679 306:1.61677 307:0 308:18.383177 309:4.5928912 310:6.3721805 311:17.975164 312:19.296593 313:1.7094733 314:2.5796659 315:26.749773 316:0 317:17.363232 318:0.23325519 319:0.087938361 320:19.658049 321:25.115236 322:3.1489213 323:2.4165189 324:26.091526 325:0 326:0.7650153 327:0.011449282 328:0.00081780588 329:0.80770642 330:1.8657664 331:0.49551189 332:0.42044973 333:1.754895 334:0 335:0.49666756 336:0.016653502 337:0.017917385 338:0.48483086 339:1.2738351 340:0.49893346 341:0.45719561 342:1.4221141 343:0 344:18.846619 345:0.2531828 346:0.095451169 347:21.337488 348:27.260899 349:3.417942 350:2.6229687 351:28.320595 352:0 353:12.483995 354:0.46548522 355:0.38551122 356:12.986379 357:18.927896 358:3.2595561 359:4.9593105 360:20.401188 361:0 362:0.53795213 363:0.018037792 364:0.019406734 365:0.52513152 366:1.3797202 367:0.54040635 368:0.49519914 369:1.5403246 370:0 371:0.53322887 372:0.016910432 373:0.019326206 374:0.55257827 375:1.3065491 376:0.75048941 377:0.63844842 378:1.6862108 379:0 380:13.521704 381:0.50417781 382:0.41755611 383:14.065846 384:20.501242 385:3.5305007 386:5.3715434 387:22.096998 388:0 389:13.26598 390:1.0478294 391:2.2155132 392:11.88532 393:18.288216 394:7.8266692 395:5.1355405 396:22.242819 397:0 398:0.49362415 399:0.015654437 400:0.017890785 401:0.51153648 402:1.2095073 403:0.6947481 404:0.59102875 405:1.5609702 406:0 407:1.1052562 408:0.025360188 409:0 410:0.49594578 411:2.3644195 412:0.36458933 413:0.34701082 414:1.203166 415:0 416:12.280671 417:0.97000355 418:2.0509598 419:11.002558 420:16.92989 421:7.2453566 422:4.754107 423:20.590771 424:0 425:24.912449 426:1.2211479 427:0.69669455 428:9.0071554 429:39.910919 430:3.7952187 431:2.514452 432:17.432581 433:0 434:1.0037357 435:0.023030791 436:0 437:0.45039195 438:2.1472418 439:0.33110091 440:0.31513703 441:1.0926522 442:0 443:1.1712028 444:0.039386582 445:0.068483092 446:0.05359108 447:0.74022204 448:3.564523 449:1.8382646 450:1.7781421 451:0 452:22.624178 453:1.1089824 454:0.6327014 455:8.1798258 456:36.245003 457:3.4466183 458:2.2834933 459:15.831356 460:0 461:28.22036 462:2.1871135 463:1.5812641 464:3.72123 465:9.213129 466:15.350748 467:9.670167 468:30.246838 469:0 470:1.0362366 471:0.034847785 472:0.060591299 473:0.047415398 474:0.65492094 475:3.1537576 476:1.6264281 477:1.5732341 478:0 479:0.033667158 480:0.073435768 481:0.10037854 482:0.054373376 483:0.56880575 484:6.3665175 485:3.4036696 486:1.1253886 487:0 488:24.968325 489:1.9350768 490:1.3990438 491:3.2924061 492:8.1514339 493:13.581771 494:8.5558052 495:26.761278 496:0 497:20.765446 498:3.801877 499:4.1462121 500:18.124498 501:16.4342 502:27.546659 503:14.363602 504:18.1402 505:0 506:0.035853956 507:0.078205675 508:0.10689848 509:0.057905115 510:0.60575163 511:6.780045 512:3.6247499 513:1.1984866 514:0 515:0.029144982 516:0.029968541 517:0 518:0.031456195 519:0.40240443 520:4.2219052 521:2.3796635 522:0.3187485 523:0 524:22.114235 525:4.0488219 526:4.4155231 527:19.301748 528:17.501659 529:29.335911 530:15.296567 531:19.318468 532:0 533:11.697346 534:4.3864174 535:0.58936757 536:8.8996487 537:10.536155 538:12.78964 539:9.0195341 540:8.586359 541:0 542:2.5253494 543:0.072439767 544:0.24296618 545:1.4287316 546:2.0336163 547:1.1492193 548:0.66128534 549:4.3596931 550:0 551:40.176502 552:20.230089 553:7.890583 554:61.882854 555:76.24099 556:93.238899 557:87.155685 558:31.449041 559:0 560:2.9672692 561:1.3290293 562:1.5253938 563:1.6762167 564:1.1223129 565:1.7935921 566:1.1120474 567:4.2592516 568:0 569:12.145596 570:19.65992 571:24.446642 572:98.764397 573:125.96429 574:0.94240189 575:22.915707 576:32.35421 577:0 578:39.663364 579:19.971708 580:7.789803 581:61.092476 582:75.267227 583:92.048042 584:86.042519 585:31.047369 586:0 587:6.8252225 588:0.12393979 589:0.046551995 590:0.8951596 591:4.7449374 592:2.3209109 593:1.283681 594:5.8697224 595:0 596:11.990471 597:19.408821 598:24.134405 599:97.502968 600:124.35545 601:0.93036538 602:22.623024 603:31.940977 604:0 605:7.2077465 606:2.5692723 607:1.2926874 608:1.6350726 609:2.9452941 610:2.2158818 611:1.6248115 612:6.4455791 613:0 614:17.676371 615:0.32098672 616:0.12056316 617:2.3183382 618:12.288724 619:6.0108347 620:3.3245542 621:15.201759 622:0 623:13.878635 624:2.7512195 625:2.8559365 626:8.2729807 627:7.1260238 628:20.333626 629:11.576793 630:14.875948 631:0 632:18.667055 633:6.6540556 634:3.3478794 635:4.2346091 636:7.6278996 637:5.7388239 638:4.2080345 639:16.693148 640:0 641:22.13188 642:9.9817553 643:6.503643 644:13.417571 645:12.065203 646:9.6407471 647:6.9675946 648:19.711254 649:0 650:12.433638 651:2.4647715 652:2.5585859 653:7.4116254 654:6.3840857 655:18.216557 656:10.371455 657:13.327113 658:0 659:10.540397 660:5.5483942 661:4.5964437 662:9.7924109 663:10.885597 664:19.318743 665:13.032941 666:8.6276693 667:0 668:19.827581 669:8.9424877 670:5.8265047 671:12.020577 672:10.809013 673:8.6369848 674:6.2421513 675:17.658983 676:0 677:15.887446 678:9.615941 679:5.9904962 680:16.579615 681:17.409981 682:6.0722866 683:10.870045 684:14.247196 685:0 686:10.746552 687:5.6569128 688:4.6863437 689:9.9839363 690:11.098505 691:19.69659 692:13.287848 693:8.7964153 694:0 695:8.498682 696:8.9984093 697:5.8113623 698:7.5097909 699:8.1592102 700:12.72341 701:14.914321 702:5.9027805 703:0 704:16.198183 705:9.8040152 706:6.1076622 707:16.903889 708:17.750496 709:6.191052 710:11.082648 711:14.525851 712:0 713:6.531177 714:12.707973 715:8.822607 716:9.5441065 717:11.296632 718:7.9294639 719:15.468068 720:8.2492886 721:0 722:9.1910162 723:9.7314539 724:6.2847781 725:8.1215668 726:8.8238897 727:13.759907 728:16.129297 729:6.3836432 730:0 731:8.04601 732:11.602583 733:10.527597 734:5.1126251 735:4.7052135 736:6.9650798 737:7.9093099 738:4.9727178 739:0 740:7.0632315 741:13.743213 742:9.5413294 743:10.321606 744:12.216898 745:8.575428 746:16.728155 747:8.9213066 748:0 749:7.6019301 750:16.856218 751:11.96233 752:5.393981 753:5.5468144 754:13.232517 755:17.931898 756:6.4019914 757:0 758:8.4532919 759:12.189897 760:11.060495 761:5.3714223 762:4.9433875 763:7.317647 764:8.3096733 765:5.2244329 766:0 767:11.796432 768:4.9929399 769:2.5045912 770:9.8737726 771:16.056858 772:3.4313872 773:4.5818415 774:7.2764773 775:0 776:7.9867339 777:17.709467 778:12.567854 779:5.6670203 780:5.82759 781:13.902337 782:18.839596 783:6.7260551 784:0 785:10.920779 786:8.3619413 787:7.5877643 788:14.354449 789:14.087979 790:7.9500017 791:9.8940268 792:9.5867128 793:0 794:11.652761 795:4.9321303 796:2.4740875 797:9.7535191 798:15.8613 799:3.389596 800:4.5260386 801:7.1878562 802:0 803:12.467157 804:3.1148207 805:4.3215046 806:12.190451 807:13.086621 808:1.1593356 809:1.7494855 810:18.141241 811:0 812:10.787774 813:8.2601004 814:7.4953523 815:14.179625 816:13.916401 817:7.8531775 818:9.7735271 819:9.4699554 820:0 821:16.55834 822:8.2061996 823:6.6357675 824:11.994905 825:15.992867 826:9.5266905 827:5.9377565 828:16.400061 829:0 830:12.42954 831:3.1054225 832:4.308465 833:12.153668 834:13.047135 835:1.1558375 836:1.7442068 837:18.086502 838:0 839:11.739918 840:0.15771239 841:0.059458353 842:13.291529 843:16.981333 844:2.1291013 845:1.6338972 846:17.641438 847:0 848:16.508379 849:8.1814384 850:6.6157455 851:11.958714 852:15.944612 853:9.4979458 854:5.9198403 855:16.350576 856:0 857:14.960315 858:5.789434 859:5.0799308 860:13.070936 861:16.33193 862:5.6481357 863:3.8068838 864:14.571294 865:0 866:12.835158 867:0.1724257 868:0.065005347 869:14.531523 870:18.565556 871:2.3277295 872:1.7863268 873:19.287245 874:0 875:8.5020065 876:0.31701052 877:0.26254565 878:8.8441448 879:12.890512 880:2.2198634 881:3.3774512 882:13.893871 883:0 884:16.355993 885:6.3295422 886:5.5538478 887:14.29035 888:17.85557 889:6.1750617 890:4.1620359 891:15.930679 892:0 893:9.9011612 894:7.2894058 895:6.1408377 896:9.33846 897:9.6698475 898:8.8107815 899:6.5551267 900:10.073254 901:0 902:9.1644773 903:0.34171182 904:0.28300306 905:9.5332756 906:13.894933 907:2.3928339 908:3.6406202 909:14.976474 910:0 911:8.9911575 912:0.71017736 913:1.5015875 914:8.0554008 915:12.395031 916:5.3046074 917:3.4806666 918:15.075304 919:0 920:10.672654 921:7.8573918 922:6.619328 923:10.066108 924:10.423316 925:9.4973125 926:7.0658984 927:10.858155 928:0 929:8.1108294 930:8.5094767 931:8.0300026 932:8.0691776 933:8.8988934 934:12.18411 935:7.3157721 936:10.561591 937:0 938:8.5508432 939:0.67539865 940:1.4280518 941:7.6609125 942:11.788023 943:5.0448308 944:3.3102117 945:14.337038 946:0 947:17.346155 948:0.85026664 949:0.48509774 950:6.2715445 951:27.789362 952:2.6425526 953:1.7507745 954:12.13804 955:0 956:7.7136264 957:8.0927505 958:7.6367579 959:7.6740141 960:8.4630976 961:11.587431 962:6.9575047 963:10.04437 964:0 965:14.582651 966:10.183571 967:7.0642705 968:4.8426642 969:16.54229 970:10.601165 971:6.3940549 972:7.1361208 973:0 974:16.007336 975:0.78464091 976:0.44765666 977:5.7874908 978:25.64451 979:2.4385936 980:1.6156453 981:11.201195 982:0 983:19.966814 984:1.5474534 985:1.1187954 986:2.6328902 987:6.5185862 988:10.86115 989:6.8419557 990:21.400614 991:0 992:13.457126 993:9.3975763 994:6.519032 995:4.4688954 996:15.265513 997:9.7829399 998:5.9005456 999:6.5853367 1000:0 1001:22.169889 1002:9.354723 1003:4.2650266 1004:5.3707676 1005:5.7089171 1006:7.8457284 1007:6.8674083 1008:22.190989 1009:0 1010:17.861618 1011:1.3842981 1012:1.0008355 1013:2.3552921 1014:5.8313003 1015:9.7160063 1016:6.1205754 1017:19.144245 1018:0 1019:14.855 1020:2.719753 1021:2.9660802 1022:12.965743 1023:11.756552 1024:19.706085 1025:10.275306 1026:12.976974 1027:0 1028:19.832411 1029:8.3684101 1030:3.8153446 1031:4.804502 1032:5.1069984 1033:7.0185156 1034:6.1433444 1035:19.851286 1036:0 1037:19.148212 1038:7.7491288 1039:6.1632967 1040:17.403975 1041:16.99378 1042:7.2622838 1043:5.6261411 1044:17.218245 1045:0 1046:16.040047 1047:2.9367192 1048:3.202697 1049:14.000075 1050:12.694422 1051:21.278122 1052:11.09501 1053:14.012202 1054:0 1055:8.4843988 1056:3.1815863 1057:0.4274841 1058:6.4551535 1059:7.6421552 1060:9.2766695 1061:6.5421095 1062:6.2279158 1063:0 1064:20.675747 1065:8.3673096 1066:6.6549692 1067:18.792364 1068:18.349447 1069:7.8416266 1070:6.0749621 1071:18.591816 1072:0 1073:10.606709 1074:4.4269052 1075:1.1785514 1076:9.7678185 1077:10.242265 1078:1.0777842 1079:4.9778185 1080:9.0708981 1081:0 1082:2.937396 1083:1.3156493 1084:1.5100368 1085:1.6593413 1086:1.111014 1087:1.775535 1088:1.1008519 1089:4.2163715 1090:0 1091:12.023319 1092:19.461992 1093:24.200523 1094:97.770081 1095:124.69614 1096:0.9329142 1097:22.685001 1098:32.028481 1099:0 1100:0.34137216 1101:2.8286929 1102:2.5413842 1103:0.10007917 1104:0.18298565 1105:6.6866879 1106:4.6126194 1107:0.38455117 1108:0 1109:1.6218231 1110:124.91032 1111:71.757294 1112:4.1399622 1113:9.6853495 1114:105.97537 1115:87.674248 1116:18.819252 1117:0 1118:11.863818 1119:19.20381 1120:23.87948 1121:96.473068 1122:123.04192 1123:0.92053819 1124:22.384062 1125:31.603592 1126:0 1127:7.1316128 1128:2.5421338 1129:1.2790331 1130:1.6178017 1131:2.9141836 1132:2.192476 1133:1.6076491 1134:6.3774962 1135:0 1136:1.6003079 1137:123.25325 1138:70.805367 1139:4.0850415 1140:9.5568638 1141:104.5695 1142:86.511162 1143:18.569595 1144:0 1145:1.2804867 1146:6.3424206 1147:4.8309979 1148:0.2432925 1149:0.26541018 1150:7.4141741 1151:6.9565258 1152:1.0132642 1153:0 1154:18.549379 1155:6.6121092 1156:3.3267746 1157:4.2079144 1158:7.579814 1159:5.7026467 1160:4.1815076 1161:16.587915 1162:0 1163:21.992363 1164:9.9188309 1165:6.4626441 1166:13.332988 1167:11.989144 1168:9.5799723 1169:6.9236712 1170:19.586994 1171:0 1172:3.3305554 1173:16.496683 1174:12.565463 1175:0.63280565 1176:0.69033384 1177:19.284323 1178:18.093977 1179:2.6355078 1180:0 1181:4.5088367 1182:16.086849 1183:15.919907 1184:3.0419452 1185:4.6957273 1186:10.547638 1187:7.7466259 1188:5.6571879 1189:0 1190:20.598042 1191:9.2899742 1192:6.0529108 1193:12.487673 1194:11.22903 1195:8.9726 1196:6.4847088 1197:18.345175 1198:0 1199:16.504801 1200:9.9895964 1201:6.2232747 1202:17.223864 1203:18.086496 1204:6.3082433 1205:11.292433 1206:14.800813 1207:0 1208:4.2229753 1209:15.066938 1210:14.910581 1211:2.8490851 1212:4.3980174 1213:9.8789158 1214:7.2554874 1215:5.2985206 1216:0 1217:1.9082702 1218:17.968088 1219:16.014301 1220:4.1593165 1221:4.1284084 1222:12.013604 1223:11.746263 1224:3.6415071 1225:0 1226:16.339211 1227:9.8893738 1228:6.1608381 1229:17.051062 1230:17.905039 1231:6.2449541 1232:11.179138 1233:14.65232 1234:0 1235:6.5880404 1236:12.818614 1237:8.8994198 1238:9.627202 1239:11.394985 1240:7.9985013 1241:15.602739 1242:8.3211107 1243:0 1244:1.889125 1245:17.787819 1246:15.853633 1247:4.1175871 1248:4.0869889 1249:11.893074 1250:11.628415 1251:3.6049728 1252:0 1253:0.75316721 1254:20.181358 1255:15.962466 1256:2.1997809 1257:3.0143194 1258:18.862455 1259:17.272308 1260:2.9076531 1261:0 1262:6.6849504 1263:13.007176 1264:9.0303307 1265:9.7688179 1266:11.562606 1267:8.1161594 1268:15.832255 1269:8.4435139 1270:0 1271:7.1947985 1272:15.953461 1273:11.321671 1274:5.1050992 1275:5.2497473 1276:12.523831 1277:16.971529 1278:6.059124 1279:0 1280:0.76424634 1281:20.478226 1282:16.197275 1283:2.2321398 1284:3.05866 1285:19.139923 1286:17.526384 1287:2.9504247 1288:0 1289:0.79021209 1290:20.042015 1291:12.936198 1292:0.69383281 1293:1.1154013 1294:25.350492 1295:20.858263 1296:0.90600109 1297:0 1298:7.3451014 1299:16.286736 1300:11.558187 1301:5.2117472 1302:5.359417 1303:12.78546 1304:17.326073 1305:6.1857018 1306:0 1307:10.043433 1308:7.6901655 1309:6.9781837 1310:13.201252 1311:12.956189 1312:7.3113198 1313:9.0991678 1314:8.8165417 1315:0 1316:0.80672002 1317:20.460703 1318:13.206442 1319:0.70832735 1320:1.1387025 1321:25.880077 1322:21.294003 1323:0.92492789 1324:0 1325:0.40198192 1326:15.41634 1327:11.788646 1328:1.2199495 1329:2.0567863 1330:25.727396 1331:21.21335 1332:0.75662178 1333:0 1334:10.097171 1335:7.7313118 1336:7.0155206 1337:13.271885 1338:13.025512 1339:7.3504391 1340:9.1478529 1341:8.8637152 1342:0 1343:15.498322 1344:7.6808615 1345:6.2109642 1346:11.227025 1347:14.969049 1348:8.9168177 1349:5.5576377 1350:15.350175 1351:0 1352:0.40413272 1353:15.498825 1354:11.851721 1355:1.2264768 1356:2.0677912 1357:25.865049 1358:21.326853 1359:0.76067007 1360:0 1361:0.91775113 1362:16.250357 1363:10.697049 1364:0.3124792 1365:0.93598729 1366:27.97986 1367:20.09565 1368:1.3415432 1369:0 1370:15.727688 1371:7.7945333 1372:6.3028827 1373:11.393178 1374:15.190581 1375:9.0487814 1376:5.6398873 1377:15.577348 1378:0 1379:14.252832 1380:5.5156479 1381:4.8396978 1382:12.452803 1383:15.559583 1384:5.381032 1385:3.6268537 1386:13.882208 1387:0 1388:0.9313333 1389:16.490852 1390:10.855359 1391:0.31710368 1392:0.94983935 1393:28.393944 1394:20.393053 1395:1.3613973 1396:0 1397:1.565148 1398:10.625711 1399:10.032871 1400:1.1530509 1401:1.9245754 1402:24.922216 1403:20.72328 1404:1.9625351 1405:0 1406:15.058004 1407:5.8272381 1408:5.1131024 1409:13.156288 1410:16.438576 1411:5.6850176 1412:3.8317423 1413:14.666443 1414:0 1415:9.1154194 1416:6.7109284 1417:5.6535091 1418:8.597373 1419:8.9024611 1420:8.1115694 1421:6.0349212 1422:9.2738533 1423:0 1424:1.6535665 1425:11.22598 1426:10.599648 1427:1.2181892 1428:2.0332987 1429:26.330126 1430:21.893982 1431:2.0734029 1432:0 1433:1.6924368 1434:12.704228 1435:10.779722 1436:0.99873012 1437:1.2278253 1438:28.685537 1439:21.087975 1440:1.5745667 1441:0 1442:9.5829268 1443:7.0551157 1444:5.9434638 1445:9.038311 1446:9.3590469 1447:8.5275927 1448:6.3444376 1449:9.7494869 1450:0 1451:7.2826757 1452:7.6406193 1453:7.2101021 1454:7.2452769 1455:7.9902749 1456:10.940056 1457:6.5687976 1458:9.4832039 1459:0 1460:1.7792379 1461:13.355798 1462:11.332588 1463:1.0499526 1464:1.2907975 1465:30.15675 1466:22.169525 1467:1.6553224 1468:0 1469:1.0735691 1470:12.608092 1471:9.8848047 1472:0.34355426 1473:0.68438005 1474:26.623055 1475:18.89493 1476:0.5560112 1477:0 1478:7.2856574 1479:7.6437473 1480:7.2130542 1481:7.2482433 1482:7.9935465 1483:10.944535 1484:6.5714869 1485:9.4870863 1486:0 1487:13.773574 1488:9.6185637 1489:6.6723294 1490:4.5739827 1491:15.624487 1492:10.012989 1493:6.0392985 1494:6.7401929 1495:0 1496:1.0740086 1497:12.613255 1498:9.8888512 1499:0.34369493 1500:0.68466026 1501:26.633955 1502:18.902666 1503:0.55623889 1504:0 1505:0.57011884 1506:17.220165 1507:12.366382 1508:0.35304555 1509:0.49899271 1510:24.008705 1511:19.680679 1512:0.46556494 1513:0 1514:13.255711 1515:9.2569218 1516:6.4214606 1517:4.4020085 1518:15.037032 1519:9.6365175 1520:5.8122311 1521:6.486773 1522:0 1523:21.838068 1524:9.2147093 1525:4.2011914 1526:5.2903824 1527:5.6234708 1528:7.7282996 1529:6.7646222 1530:21.858852 1531:0 1532:0.54868329 1533:16.572716 1534:11.901426 1535:0.33977163 1536:0.4802314 1537:23.106016 1538:18.940718 1539:0.44806045 1540:0 1541:4.1089659 1542:16.184544 1543:14.056627 1544:1.1985673 1545:1.3511096 1546:15.145508 1547:13.732365 1548:3.4281023 1549:0 1550:20.762609 1551:8.7609129 1552:3.9942954 1553:5.0298471 1554:5.3465314 1555:7.3477044 1556:6.4314852 1557:20.78237 1558:0 1559:20.046318 1560:8.1125851 1561:6.4523735 1562:18.220272 1563:17.790838 1564:7.6029058 1565:5.8900232 1566:18.025829 1567:0 1568:3.9066117 1569:15.387504 1570:13.36438 1571:1.1395414 1572:1.2845715 1573:14.399637 1574:13.056087 1575:3.2592783 1576:0 1577:2.1104553 1578:15.527218 1579:15.776477 1580:2.9706092 1581:4.6619058 1582:10.04073 1583:7.7583261 1584:4.3792415 1585:0 1586:22.473927 1587:9.0950193 1588:7.2337556 1589:20.426746 1590:19.945309 1591:8.5236177 1592:6.6033049 1593:20.208755 1594:0 1595:11.529181 1596:4.8119154 1597:1.2810507 1598:10.617331 1599:11.133039 1600:1.1715196 1601:5.4107423 1602:9.8597984 1603:0 1604:2.3660314 1605:17.407564 1606:17.687008 1607:3.3303499 1608:5.2264624 1609:11.256661 1610:8.6978588 1611:4.9095678 1612:0 1613:0.76620001 1614:9.830327 1615:6.9279819 1616:2.0964732 1617:1.8312083 1618:6.032455 1619:5.7552338 1620:1.7283207 1621:0 1622:0.47313935 1623:3.920548 1624:3.5223405 1625:0.13870901 1626:0.25361681 1627:9.2677011 1628:6.3930573 1629:0.53298515 1630:0 1631:2.2478352 1632:173.1248 1633:99.455101 1634:5.737958 1635:13.423825 1636:146.8811 1637:121.51588 1638:26.083347 1639:0 1640:0.00053249969 1641:0.30363449 1642:0.20418836 1643:0.0021148694 1644:0.0021008207 1645:0.1183411 1646:0.06829153 1647:0 1648:0 1649:-0.83661991 1650:-21.736984 1651:-11.764956 1652:-2.2355871 1653:-5.0581369 1654:6.9045396 1655:-1.3834088 1656:-6.3545389 1657:0 1658:2.2144752 1659:170.55547 1660:97.979088 1661:5.652801 1662:13.224603 1663:144.70125 1664:119.71247 1665:25.696247 1666:0 1667:1.7719126 1668:8.7765188 1669:6.6850414 1670:0.33666345 1671:0.36726946 1672:10.259591 1673:9.6263056 1674:1.4021354 1675:0 1676:-0.82420367 1677:-21.414387 1678:-11.590353 1679:-2.202409 1680:-4.9830694 1681:6.8020697 1682:-1.3628777 1683:-6.260232 1684:0 1685:0 1686:1.3377811 1687:1.1167134 1688:0.039379634 1689:0.028360968 1690:0.12505394 1691:0.036706612 1692:0 1693:0 1694:4.7638516 1695:23.595991 1696:17.972979 1697:0.90513194 1698:0.98741734 1699:27.583284 1700:25.880674 1701:3.7696922 1702:0 1703:6.4492035 1704:23.009785 1705:22.770998 1706:4.3510389 1707:6.7165222 1708:15.086788 1709:11.080367 1710:8.0917444 1711:0 1712:0 1713:3.5966733 1714:3.0023248 1715:0.10587358 1716:0.076249495 1717:0.33621207 1718:0.098687068 1719:0 1720:0 1721:0 1722:0.90298665 1723:0.89161044 1724:0.13689516 1725:0.13770163 1726:2.2344165 1727:1.1250689 1728:0 1729:0 1730:6.3915119 1731:22.803949 1732:22.567301 1733:4.3121166 1734:6.6564398 1735:14.95183 1736:10.981247 1737:8.0193596 1738:0 1739:2.8881845 1740:27.194866 1741:24.237791 1742:6.2951636 1743:6.248384 1744:18.182699 1745:17.778076 1746:5.5114546 1747:0 1748:0 1749:0.89490896 1750:0.88363457 1751:0.13567057 1752:0.13646983 1753:2.2144287 1754:1.1150045 1755:0 1756:0 1757:0.02752728 1758:0.31065276 1759:0.33391225 1760:0.010786531 1761:0.0044039679 1762:3.6034315 1763:2.9099174 1764:0.0056641693 1765:0 1766:2.7012002 1767:25.434238 1768:22.66861 1769:5.8876076 1770:5.8438563 1771:17.005531 1772:16.627104 1773:5.1546369 1774:0 1775:1.07693 1776:28.856686 1777:22.824226 1778:3.1453972 1779:4.3100801 1780:26.970829 1781:24.697126 1782:4.1575613 1783:0 1784:0.025745133 1785:0.29054075 1786:0.31229439 1787:0.010088198 1788:0.00411885 1789:3.3701413 1790:2.7215259 1791:0.0052974643 1792:0 1793:0.018061921 1794:0.047386672 1795:0.0065516909 1796:0.044312458 1797:0.018485079 1798:4.9808865 1799:3.4458239 1800:0.0072222473 1801:0 1802:1.0393267 1803:27.849091 1804:22.027267 1805:3.0355687 1806:4.159584 1807:26.029083 1808:23.834772 1809:4.0123906 1810:0 1811:1.0746384 1812:27.255873 1813:17.592411 1814:0.94356871 1815:1.5168751 1816:34.475063 1817:28.365917 1818:1.2321042 1819:0 1820:0.017431248 1821:0.045732062 1822:0.006322924 1823:0.042765193 1824:0.017839631 1825:4.8069677 1826:3.3255055 1827:0.0069700666 1828:0 1829:0 1830:0 1831:0 1832:0.00015362439 1833:0.00053768535 1834:4.7903237 1835:3.5841742 1836:0 1837:0 1838:1.0969105 1839:27.820755 1840:17.957016 1841:0.96312433 1842:1.5483125 1843:35.189568 1844:28.953806 1845:1.2576396 1846:0 1847:0.54658145 1848:20.961851 1849:16.029217 1850:1.6587853 1851:2.7966461 1852:34.981964 1853:28.844141 1854:1.0287911 1855:0 1856:0 1857:0 1858:0 1859:0.00015680828 1860:0.00054882898 1861:4.8896036 1862:3.6584568 1863:0 1864:0 1865:0 1866:0 1867:0 1868:0 1869:0 1870:3.4099727 1871:2.5992932 1872:0 1873:0 1874:0.56307149 1875:21.594259 1876:16.51281 1877:1.70883 1878:2.8810196 1879:36.037354 1880:29.714354 1881:1.0598291 1882:0 1883:1.2786877 1884:22.641357 1885:14.904023 1886:0.43537214 1887:1.3040957 1888:38.983883 1889:27.99894 1890:1.8691502 1891:0 1892:0 1893:0 1894:0 1895:0 1896:0 1897:3.5128498 1898:2.6777127 1899:0 1900:0 1901:0 1902:0 1903:0.00027865497 1904:0.00026653954 1905:0.00017769301 1906:2.055433 1907:1.5422488 1908:0 1909:0 1910:1.3205216 1911:23.382097 1912:15.391627 1913:0.4496159 1914:1.3467609 1915:40.259289 1916:28.914961 1917:1.9303018 1918:0 1919:2.2191966 1920:15.066014 1921:14.225436 1922:1.6348912 1923:2.7288227 1924:35.336784 1925:29.383184 1926:2.782645 1927:0 1928:0 1929:0 1930:0.00028777152 1931:0.00027525972 1932:0.00018350646 1933:2.122679 1934:1.5927055 1935:0 1936:0 1937:0.0048358128 1938:0.016453022 1939:0.0047607422 1940:0.001351275 1941:0.0013137395 1942:1.009433 1943:0.8841036 1944:0.0020018888 1945:0 1946:2.2702556 1947:15.412651 1948:14.552733 1949:1.6725066 1950:2.7916071 1951:36.149811 1952:30.059231 1953:2.8466678 1954:0 1955:2.3236225 1956:17.442205 1957:14.799965 1958:1.3712014 1959:1.6857364 1960:39.383663 1961:28.952625 1962:2.1617935 1963:0 1964:0.0049470747 1965:0.016831573 1966:0.0048702764 1967:0.001382365 1968:0.0013439659 1969:1.0326579 1970:0.90444499 1971:0.0020479481 1972:0 1973:0.012094982 1974:0.27541274 1975:0.085843861 1976:0.0065747667 1977:0.0053801304 1978:0.43336502 1979:0.35247532 1980:0.0034473792 1981:0 1982:2.4008827 1983:18.022158 1984:15.292062 1985:1.4167937 1986:1.741787 1987:40.693165 1988:29.915297 1989:2.2336729 1990:0 1991:1.4486616 1992:17.013212 1993:13.338439 1994:0.46358809 1995:0.92349446 1996:35.924839 1997:25.496597 1998:0.75027502 1999:0 2000:0.012497139 2001:0.28457019 2002:0.088698164 2003:0.006793377 2004:0.0055590193 2005:0.44777435 2006:0.36419508 2007:0.0035620041 2008:0 2009:0.0019029683 2010:1.0030179 2011:0.67750895 2012:0.0026670948 2013:0.0019044379 2014:0.03572217 2015:0.024430735 2016:3.5267367e-05 2017:0 2018:1.4748888 2019:17.321228 2020:13.579925 2021:0.47198111 2022:0.9402138 2023:36.575237 2024:25.958199 2025:0.76385838 2026:0 2027:0.78291917 2028:23.647696 2029:16.982208 2030:0.48482195 2031:0.68524474 2032:32.970097 2033:27.026611 2034:0.63933986 2035:0 2036:0.0019374206 2037:1.0211771 2038:0.68977487 2039:0.0027153811 2040:0.0019389167 2041:0.036368903 2042:0.024873041 2043:3.5905865e-05 2044:0 2045:0 2046:2.4616809 2047:1.7556741 2048:0.00012567053 2049:0 2050:0 2051:0 2052:0 2053:0 2054:0.77495271 2055:23.407074 2056:16.80941 2057:0.47988874 2058:0.67827219 2059:32.634617 2060:26.751608 2061:0.63283443 2062:0 2063:5.8034468 2064:22.858826 2065:19.853386 2066:1.6928397 2067:1.9082886 2068:21.391306 2069:19.395403 2070:4.841804 2071:0 2072:0 2073:2.4366326 2074:1.7378097 2075:0.00012439179 2076:0 2077:0 2078:0 2079:0 2080:0 2081:0 2082:1.9834968 2083:1.4903996 2084:0.08179649 2085:0.078955472 2086:0.56673574 2087:0.1315821 2088:0 2089:0 2090:5.9394927 2091:23.39469 2092:20.318794 2093:1.7325238 2094:1.9530233 2095:21.892767 2096:19.850075 2097:4.955307 2098:0 2099:3.2086718 2100:23.607107 2101:23.986073 2102:4.5164232 2103:7.0878186 2104:15.265617 2105:11.795522 2106:6.6580648 2107:0 2108:0 2109:2.0299945 2110:1.5253379 2111:0.083713986 2112:0.080806367 2113:0.58002132 2114:0.13466668 2115:0 2116:0 2117:0 2118:0.026108712 2119:0.012629239 2120:0.026598241 2121:0.036389578 2122:1.7768929 2123:1.1724043 2124:0 2125:0 2126:3.7576509 2127:27.646101 2128:28.089905 2129:5.2891483 2130:8.3004904 2131:17.877447 2132:13.813644 2133:7.7972088 2134:0 2135:1.2168528 2136:15.612191 2137:11.002786 2138:3.3295474 2139:2.908263 2140:9.5805397 2141:9.1402664 2142:2.7448602 2143:0 2144:0 2145:0.030575711 2146:0.014790004 2147:0.031148996 2148:0.042615555 2149:2.0809054 2150:1.3729936 2151:0 2152:0 2153:0 2154:0 2155:0 2156:0 2157:0 2158:1.2773741 2159:0.93807822 2160:0 
7.743019700890672e-06 1:0 2:0 3:0 4:0 5:0 6:0 7:0 8:0 9:0 10:0 11:0 12:0 13:0 14:0 15:0 16:0 17:0 18:0 19:0 20:0.63948387 21:2.9682858 22:1.8290535 23:0.4127529 24:1.7098686 25:3.279963 26:4.1086216 27:0.9628582 28:0 29:7.0055065 30:34.852474 31:64.204422 32:8.5021257 33:25.391169 34:36.059437 35:90.267258 36:12.392308 37:0 38:0 39:0 40:0 41:0 42:0 43:0 44:0 45:0 46:0 47:0 48:0 49:0 50:0 51:0 52:0 53:0 54:0 55:0 56:6.900815 57:34.331631 58:63.244942 59:8.3750687 60:25.011719 61:35.520557 62:88.918289 63:12.207115 64:0 65:0.63107544 66:1.9775873 67:1.8051009 68:0.75528467 69:1.7590268 70:7.6180315 71:8.5021391 72:1.4963384 73:0 74:0 75:0 76:0 77:0 78:0 79:0 80:0 81:0 82:0 83:0 84:0 85:0 86:0 87:0 88:0 89:0 90:0 91:0 92:1.642175 93:5.1460481 94:4.6972065 95:1.9653906 96:4.5773129 97:19.823528 98:22.12414 99:3.8937492 100:0 101:1.5593268 102:3.8069572 103:3.8783352 104:1.0654436 105:1.9196318 106:19.01182 107:15.634517 108:4.1788845 109:0 110:0 111:0 112:0 113:0 114:0 115:0 116:0 117:0 118:0 119:0 120:0 121:0 122:0 123:0 124:0 125:0 126:0 127:0 128:1.5501233 129:3.784488 130:3.8554444 131:1.0591551 132:1.9083018 133:18.899609 134:15.542238 135:4.1542196 136:0 137:8.3979807 138:0.40640366 139:0.69408995 140:5.9086123 141:12.11684 142:9.1094732 143:5.8103065 144:22.409508 145:0 146:0 147:0 148:0 149:0 150:0 151:0 152:0 153:0 154:0 155:0 156:0 157:0 158:0 159:0 160:0 161:0 162:0 163:0 164:8.334713 165:0.40334195 166:0.68886089 167:5.864099 168:12.025556 169:9.0408449 170:5.7665339 171:22.240683 172:0 173:2.7729869 174:3.707577 175:2.9524207 176:4.8550725 177:5.3412943 178:16.389641 179:13.128376 180:2.9723539 181:0 182:0 183:0 184:0 185:0 186:0 187:0 188:0 189:0 190:0 191:0 192:0 193:0 194:0 195:0 196:0 197:0 198:0 199:0 200:2.6125708 201:3.4930952 202:2.7816243 203:4.5742087 204:5.0323024 205:15.441507 206:12.368905 207:2.8004045 208:0 209:1.8033699 210:11.171724 211:9.9437838 212:4.9221578 213:3.9551969 214:18.522156 215:20.873823 216:3.3398423 217:0 218:0 219:0 220:0 221:0 222:0 223:0 224:0 225:0 226:0 227:0 228:0 229:0 230:0 231:0 232:0 233:0 234:0 235:0 236:1.6802883 237:10.409244 238:9.2651119 239:4.5862164 240:3.6852512 241:17.258001 242:19.449167 243:3.1118951 244:0 245:2.9002817 246:10.222295 247:8.1521645 248:3.5884333 249:4.1861205 250:15.244769 251:14.365244 252:4.5886111 253:0 254:0 255:0 256:0 257:0 258:0 259:0 260:0 261:0 262:0 263:0 264:0 265:0 266:0 267:0 268:0 269:0 270:0 271:0 272:2.9006736 273:10.223676 274:8.153266 275:3.5889182 276:4.186686 277:15.246829 278:14.367186 279:4.589231 280:0 281:2.9955087 282:10.365167 283:10.40681 284:2.5521338 285:6.7931819 286:13.622472 287:18.345661 288:4.3377733 289:0 290:0 291:0 292:0 293:0 294:0 295:0 296:0 297:0 298:0 299:0 300:0 301:0 302:0 303:0 304:0 305:0 306:0 307:0 308:2.8755796 309:9.9501839 310:9.99016 311:2.4499559 312:6.5212078 313:13.077078 314:17.611168 315:4.1641049 316:0 317:2.4676077 318:8.08043 319:8.2411394 320:2.8944564 321:5.6478577 322:17.047474 323:21.731121 324:5.4590011 325:0 326:0 327:0 328:0 329:0 330:0 331:0 332:0 333:0 334:0 335:0 336:0 337:0 338:0 339:0 340:0 341:0 342:0 343:0 344:2.5346026 345:8.2998114 346:8.4648838 347:2.9730401 348:5.8011951 349:17.510309 350:22.321115 351:5.6072116 352:0 353:1.9228978 354:5.7457418 355:5.267467 356:2.0669594 357:3.1289101 358:20.540388 359:19.496038 360:2.874819 361:0 362:0 363:0 364:0 365:0 366:0 367:0 368:0 369:0 370:0 371:0 372:0 373:0 374:0 375:0 376:0 377:0 378:0 379:0 380:2.028697 381:6.0618768 382:5.5572867 383:2.180685 384:3.301065 385:21.670534 386:20.568726 387:3.0329936 388:0 389:5.8428731 390:2.7752032 391:2.8864396 392:3.5805955 393:6.914 394:13.765512 395:11.037763 396:16.3339 397:0 398:0 399:0 400:0 401:0 402:0 403:0 404:0 405:0 406:0 407:0 408:0 409:0 410:0 411:0 412:0 413:0 414:0 415:0 416:5.8099256 417:2.7595541 418:2.8701634 419:3.5604048 420:6.8750129 421:13.687889 422:10.975522 423:16.241795 424:0 425:7.6224327 426:0.90341526 427:1.1728677 428:8.6605759 429:12.669921 430:12.327346 431:8.2659092 432:13.858663 433:0 434:0 435:0 436:0 437:0 438:0 439:0 440:0 441:0 442:0 443:0 444:0 445:0 446:0 447:0 448:0 449:0 450:0 451:0 452:7.3536139 453:0.87155467 454:1.1315043 455:8.3551455 456:12.223093 457:11.8926 458:7.9743962 459:13.369912 460:0 461:1.9481267 462:9.4016609 463:7.5341759 464:4.6372328 465:3.3522897 466:20.244917 467:20.264416 468:2.3954878 469:0 470:0 471:0 472:0 473:0 474:0 475:0 476:0 477:0 478:0 479:0 480:0 481:0 482:0 483:0 484:0 485:0 486:0 487:0 488:1.7838272 489:8.6087513 490:6.8987641 491:4.2461414 492:3.069567 493:18.537518 494:18.555372 495:2.193459 496:0 497:3.0761111 498:13.152619 499:12.07429 500:5.133656 501:3.8449721 502:18.340763 503:20.438126 504:5.2415714 505:0 506:0 507:0 508:0 509:0 510:0 511:0 512:0 513:0 514:0 515:0 516:0 517:0 518:0 519:0 520:0 521:0 522:0 523:0 524:3.6188993 525:15.473435 526:14.204833 527:6.0395036 528:4.5234284 529:21.577042 530:24.044491 531:6.166461 532:0 533:1.1646192 534:4.1038728 535:4.1544809 536:1.4474078 537:2.2051632 538:7.4671144 539:5.5497489 540:1.6775376 541:0 542:0.27871871 543:1.2937258 544:0.79719204 545:0.17989813 546:0.74524534 547:1.4295702 548:1.7907406 549:0.41966125 550:0 551:3.0533464 552:15.190433 553:27.983465 554:3.7056472 555:11.066728 556:15.716487 557:39.342941 558:5.4011812 559:0 560:2.3205452 561:3.2891359 562:2.5098665 563:3.1065106 564:3.7699933 565:3.0465729 566:2.8869319 567:2.2689662 568:0 569:38.375057 570:24.650888 571:57.165844 572:92.145447 573:102.08787 574:63.982071 575:75.179291 576:70.70842 577:0 578:2.9942663 579:14.896508 580:27.442003 581:3.6339455 582:10.852593 583:15.412383 584:38.58168 585:5.2966719 586:0 587:0.27382386 588:0.85807586 589:0.78323394 590:0.32771832 591:0.76324236 592:3.3054669 593:3.6890814 594:0.64926177 595:0 596:37.632526 597:24.17391 598:56.059723 599:90.362495 600:100.11254 601:62.744061 602:73.724617 603:69.340256 604:0 605:2.6748533 606:7.6108556 607:6.5323 608:4.2443447 609:4.0411143 610:6.96034 611:9.1296005 612:4.1208253 613:0 614:0.70914465 615:2.2222311 616:2.0284066 617:0.84871966 618:1.9766328 619:8.5604448 620:9.5539236 621:1.6814477 622:0 623:0.6733681 624:1.6439681 625:1.6747915 626:0.46009323 627:0.82895958 628:8.2099228 629:6.7514935 630:1.8045783 631:0 632:6.9272923 633:19.710472 634:16.917246 635:10.991937 636:10.465613 637:18.025778 638:23.643694 639:10.672048 640:0 641:7.5547962 642:19.935368 643:14.256477 644:4.1288939 645:9.1594076 646:21.732227 647:14.691777 648:7.6908426 649:0 650:0.69384092 651:1.6939508 652:1.7257112 653:0.47408172 654:0.85416293 655:8.4595346 656:6.9567633 657:1.859444 658:0 659:3.7589669 660:0.18190777 661:0.31067723 662:2.6447167 663:5.4235425 664:4.0774336 665:2.6007147 666:10.030579 667:0 668:7.7844892 669:20.541475 670:14.689926 671:4.254427 672:9.4378872 673:22.392965 674:15.138461 675:7.9246726 676:0 677:16.998154 678:8.7919788 679:6.8417277 680:17.355242 681:17.516659 682:7.5122085 683:8.5095673 684:20.843473 685:0 686:3.6623247 687:0.17723097 688:0.30268979 689:2.5767217 690:5.2841043 691:3.9726036 692:2.5338509 693:9.7726946 694:0 695:1.2184677 696:1.6291324 697:1.297312 698:2.1333492 699:2.346998 700:7.2017107 701:5.7686901 702:1.3060709 703:0 704:16.561134 705:8.5659389 706:6.6658282 707:16.90904 708:17.066309 709:7.3190713 710:8.2907877 711:20.307592 712:0 713:9.9399147 714:17.052628 715:14.192382 716:13.913609 717:12.984877 718:15.32207 719:19.087687 720:9.7321072 721:0 722:1.1656725 723:1.5585434 724:1.2411005 725:2.0409129 726:2.2453046 727:6.8896666 728:5.5187378 729:1.2494799 730:0 731:0.80462462 732:4.9845815 733:4.4367008 734:2.1961603 735:1.7647233 736:8.264185 737:9.313448 738:1.4901654 739:0 740:9.5092268 741:16.313751 742:13.577438 743:13.310744 744:12.422253 745:14.658178 746:18.260633 747:9.3104229 748:0 749:4.2165809 750:25.299854 751:17.459293 752:9.8645935 753:8.3644619 754:16.817787 755:27.446239 756:5.1060419 757:0 758:0.82794517 759:5.1290503 760:4.5652905 761:2.2598121 762:1.8158705 763:8.5037069 764:9.5833817 765:1.533355 766:0 767:1.4290848 768:5.0369329 769:4.0168972 770:1.7681645 771:2.0626688 772:7.5117073 773:7.07833 774:2.2609921 775:0 776:4.3387909 777:26.033125 778:17.965321 779:10.150501 780:8.6068907 781:17.30522 782:28.24172 783:5.2540312 784:0 785:6.6416016 786:17.839828 787:12.587133 788:6.492969 789:6.9042234 790:12.971658 791:16.716524 792:5.8636837 793:0 794:1.4726692 795:5.1905508 796:4.1394053 797:1.8220904 798:2.1255765 799:7.7408009 800:7.2942066 801:2.3299482 802:0 803:1.5208169 804:5.2623854 805:5.2835279 806:1.2957159 807:3.4488919 808:6.9161162 809:9.3140745 810:2.2022834 811:0 812:6.8441586 813:18.383911 814:12.97102 815:6.6909933 816:7.1147904 817:13.367271 818:17.226349 819:6.0425158 820:0 821:9.8317556 822:16.139021 823:14.667039 824:11.964472 825:13.161813 826:13.37228 827:15.099453 828:11.090512 829:0 830:1.4043051 831:4.8592272 832:4.8787498 833:1.1964494 834:3.1846678 835:6.3862629 836:8.6005106 837:2.0335636 838:0 839:1.2050698 840:3.9461222 841:4.0246058 842:1.4135238 843:2.7581623 844:8.3252277 845:10.612513 846:2.6659334 847:0 848:9.0785313 849:14.902589 850:13.543377 851:11.047858 852:12.153469 853:12.347812 854:13.942663 855:10.240853 856:0 857:5.6592622 858:20.928129 859:19.939823 860:10.044741 861:9.8329048 862:16.785101 863:23.601719 864:11.464288 865:0 866:1.192116 867:3.9037039 868:3.9813437 869:1.3983293 870:2.7285137 871:8.2357368 872:10.498435 873:2.6372762 874:0 875:0.90440899 876:2.7024322 877:2.4774818 878:0.97216636 879:1.4716406 880:9.6608934 881:9.1696987 882:1.3521322 883:0 884:5.5984287 885:20.703165 886:19.725483 887:9.9367666 888:9.7272072 889:16.604671 890:23.348015 891:11.341054 892:0 893:7.4236751 894:19.977814 895:16.468967 896:7.3882489 897:9.4234657 898:19.870129 899:17.344006 900:7.9158659 901:0 902:0.96302718 903:2.8775868 904:2.6380568 905:1.0351762 906:1.5670232 907:10.287053 908:9.7640219 909:1.439769 910:0 911:2.7736254 912:1.3173953 913:1.3701996 914:1.6997169 915:3.2820919 916:6.5345201 917:5.2396517 918:7.7537398 919:0 920:7.9048314 921:21.272652 922:17.536383 923:7.8671098 924:10.034237 925:21.157988 926:18.468138 927:8.4289236 928:0 929:12.222272 930:16.263645 931:10.370289 932:7.5357533 933:11.568092 934:13.155862 935:10.356885 936:13.98403 937:0 938:2.7734163 939:1.317296 940:1.3700963 941:1.6995888 942:3.2818444 943:6.5340276 944:5.2392569 945:7.7531557 946:0 947:3.6386316 948:0.43125278 949:0.55987811 950:4.1341982 951:6.0480919 952:5.8845611 953:3.9458001 954:6.6155477 955:0 956:12.221351 957:16.262419 958:10.369508 959:7.5351853 960:11.567221 961:13.15487 962:10.356104 963:13.982976 964:0 965:13.769547 966:12.383327 967:11.993928 968:19.057222 969:18.662443 970:9.9011879 971:11.306691 972:14.939373 973:0 974:3.4539196 975:0.40936062 976:0.53145635 977:3.924329 978:5.7410655 979:5.5858364 980:3.7454951 981:6.2797151 982:0 983:0.91501582 984:4.4158669 985:3.5387278 986:2.1780624 987:1.5745373 988:9.5088367 989:9.5179958 990:1.1251369 991:0 992:13.070548 993:11.754699 994:11.385067 995:18.089798 996:17.715059 997:9.3985624 998:10.732718 999:14.180988 1000:0 1001:5.6964831 1002:24.554667 1003:18.772741 1004:9.611269 1005:8.6695099 1006:15.777281 1007:24.698952 1008:6.5055337 1009:0 1010:0.89613038 1011:4.3247256 1012:3.4656901 1013:2.1331081 1014:1.5420396 1015:9.3125792 1016:9.3215494 1017:1.1019146 1018:0 1019:1.5453271 1020:6.6074014 1021:6.0656877 1022:2.5789633 1023:1.9315752 1024:9.2137375 1025:10.267377 1026:2.6331761 1027:0 1028:5.5789108 1029:24.047871 1030:18.385283 1031:9.4128971 1032:8.4905758 1033:15.451646 1034:24.189177 1035:6.371263 1036:0 1037:5.217864 1038:25.144718 1039:16.942616 1040:7.0598941 1041:6.0531411 1042:15.213704 1043:23.435074 1044:5.0889249 1045:0 1046:1.9346933 1047:8.2722254 1048:7.5940204 1049:3.2287683 1050:2.418262 1051:11.535264 1052:12.854383 1053:3.2966406 1054:0 1055:0.62261498 1056:2.193964 1057:2.2210197 1058:0.77379614 1059:1.1788983 1060:3.9919808 1061:2.9669414 1062:0.89682537 1063:0 1064:6.5325761 1065:31.480272 1066:21.211538 1067:8.8387308 1068:7.5783129 1069:19.047005 1070:29.339859 1071:6.3711486 1072:0 1073:3.7287867 1074:7.5292845 1075:5.6475573 1076:2.0139244 1077:1.8684961 1078:4.9854851 1079:5.9396272 1080:2.7641079 1081:0 1082:1.9355763 1083:2.7434819 1084:2.0934899 1085:2.5911531 1086:3.1445668 1087:2.5411589 1088:2.4080019 1089:1.8925539 1090:0 1091:32.008793 1092:20.561407 1093:47.682262 1094:76.858894 1095:85.151909 1096:53.367706 1097:62.707352 1098:58.978184 1099:0 1100:0.41620094 1101:5.413507 1102:6.2336402 1103:0.56487411 1104:1.1619705 1105:1.2578456 1106:1.1601123 1107:0.60464615 1108:0 1109:0.30172783 1110:165.62094 1111:135.14299 1112:1.3863931 1113:5.3511314 1114:20.290382 1115:6.4127555 1116:2.3309169 1117:0 1118:31.429543 1119:20.189316 1120:46.819378 1121:75.46801 1122:83.610947 1123:52.401932 1124:61.572563 1125:57.910877 1126:0 1127:2.2339563 1128:6.3563552 1129:5.4555783 1130:3.5447478 1131:3.3750157 1132:5.8130646 1133:7.6247654 1134:3.4415882 1135:0 1136:0.2962676 1137:162.62376 1138:132.69737 1139:1.361304 1140:5.2542944 1141:19.923197 1142:6.2967067 1143:2.2887352 1144:0 1145:0.67834586 1146:9.7954006 1147:8.4215574 1148:0.94841933 1149:1.3023517 1150:2.430438 1151:2.4183517 1152:1.2665296 1153:0 1154:5.8270516 1155:16.579918 1156:14.230331 1157:9.2461214 1158:8.8033915 1159:15.162798 1160:19.888439 1161:8.9770393 1162:0 1163:6.3548908 1164:16.769094 1165:11.992165 1166:3.4731143 1167:7.7046471 1168:18.280563 1169:12.358328 1170:6.4693298 1171:0 1172:1.7693974 1173:25.550325 1174:21.966791 1175:2.4738572 1176:3.3970544 1177:6.3395548 1178:6.3080287 1179:3.3036158 1180:0 1181:1.7219054 1182:23.30773 1183:21.870798 1184:0.62716526 1185:1.9526448 1186:6.2059569 1187:5.6320829 1188:1.8377981 1189:0 1190:6.6492782 1191:17.545916 1192:12.547696 1193:3.6340046 1194:8.0615616 1195:19.127401 1196:12.930821 1197:6.7690187 1198:0 1199:14.519317 1200:7.5098457 1201:5.8439994 1202:14.824328 1203:14.962207 1204:6.4167042 1205:7.2686181 1206:17.803873 1207:0 1208:1.8016717 1209:24.387449 1210:22.883951 1211:0.65621835 1212:2.0431001 1213:6.4934449 1214:5.8929863 1215:1.9229332 1216:0 1217:6.0754447 1218:15.880752 1219:18.877848 1220:2.5042515 1221:4.5921798 1222:3.9109123 1223:3.5451458 1224:4.4917336 1225:0 1226:14.211552 1227:7.3506603 1228:5.7201247 1229:14.510099 1230:14.645055 1231:6.2806902 1232:7.1145458 1233:17.426487 1234:0 1235:8.529706 1236:14.633314 1237:12.178862 1238:11.939639 1239:11.14267 1240:13.148277 1241:16.379654 1242:8.3513803 1243:0 1244:5.9466643 1245:15.544129 1246:18.477695 1247:2.4511693 1248:4.4948397 1249:3.8280132 1250:3.4699998 1251:4.396523 1252:0 1253:1.3305293 1254:22.297371 1255:25.714336 1256:2.2295156 1257:3.53722 1258:4.0894475 1259:5.1204681 1260:2.4322155 1261:0 1262:8.1717539 1263:14.019222 1264:11.667772 1265:11.438588 1266:10.675063 1267:12.596506 1268:15.692276 1269:8.0009117 1270:0 1271:3.6235189 1272:21.74143 1273:15.003645 1274:8.4771385 1275:7.1880007 1276:14.452365 1277:23.585928 1278:4.387877 1279:0 1280:1.2746933 1281:21.361654 1282:24.635225 1283:2.1359532 1284:3.3887794 1285:3.9178326 1286:4.9055858 1287:2.3301468 1288:0 1289:0.96886939 1290:24.43895 1291:23.40617 1292:1.7398682 1293:2.2648056 1294:5.3301158 1295:8.633893 1296:1.0002089 1297:0 1298:3.7966642 1299:22.780317 1300:15.720575 1301:8.8822079 1302:7.5314703 1303:15.142954 1304:24.712952 1305:4.5975466 1306:0 1307:5.8117418 1308:15.610764 1309:11.014387 1310:5.6816807 1311:6.0415492 1312:11.350865 1313:14.627814 1314:5.1310239 1315:0 1316:1.0151656 1317:25.606733 1318:24.524605 1319:1.8230056 1320:2.3730264 1321:5.5848083 1322:9.0464525 1323:1.0480026 1324:0 1325:1.3469197 1326:23.274109 1327:20.168797 1328:1.0768956 1329:1.3780637 1330:4.3074069 1331:5.8959851 1332:0.84478432 1333:0 1334:6.0255632 1335:16.185104 1336:11.419621 1337:5.8907166 1338:6.2638254 1339:11.768478 1340:15.16599 1341:5.3198004 1342:0 1343:8.6558285 1344:14.208713 1345:12.912787 1346:10.533462 1347:11.587594 1348:11.772888 1349:13.293482 1350:9.7640305 1351:0 1352:1.3964745 1353:24.130392 1354:20.910831 1355:1.116516 1356:1.4287645 1357:4.4658818 1358:6.112906 1359:0.87586498 1360:0 1361:1.2733151 1362:23.607573 1363:23.774916 1364:1.4954062 1365:2.9075603 1366:5.1840892 1367:5.1748743 1368:2.2053406 1369:0 1370:8.0834799 1371:13.269192 1372:12.058956 1373:9.8369589 1374:10.821389 1375:10.994431 1376:12.414479 1377:9.1184053 1378:0 1379:5.0389795 1380:18.634304 1381:17.754322 1382:8.9437885 1383:8.7551699 1384:14.945372 1385:21.014854 1386:10.207746 1387:0 1388:1.1891198 1389:22.046572 1390:22.20285 1391:1.3965256 1392:2.7153041 1393:4.8413024 1394:4.8326964 1395:2.0595171 1396:0 1397:1.2510622 1398:23.172676 1399:22.449245 1400:1.9391631 1401:2.4646468 1402:5.1644287 1403:5.3591657 1404:2.8693616 1405:0 1406:5.0021868 1407:18.498243 1408:17.624687 1409:8.8784847 1410:8.6912432 1411:14.836246 1412:20.861414 1413:10.133213 1414:0 1415:6.6330414 1416:17.850143 1417:14.714995 1418:6.6013885 1419:8.4198513 1420:17.753927 1421:15.49684 1422:7.072813 1423:0 1424:1.2419275 1425:23.003479 1426:22.28533 1427:1.9250041 1428:2.4466512 1429:5.1267204 1430:5.3200355 1431:2.8484108 1432:0 1433:1.2204025 1434:21.605576 1435:19.436695 1436:1.196332 1437:2.1574442 1438:5.3455615 1439:4.2866397 1440:1.6683768 1441:0 1442:7.0765176 1443:19.043581 1444:15.69882 1445:7.0427485 1446:8.9827919 1447:18.940931 1448:16.53294 1449:7.5456924 1450:0 1451:10.941552 1452:14.559446 1453:9.2836304 1454:6.7461138 1455:10.355921 1456:11.777315 1457:9.2716303 1458:12.518703 1459:0 1460:1.3019969 1461:23.050097 1462:20.736208 1463:1.2763172 1464:2.3016882 1465:5.7029591 1466:4.5732384 1467:1.7799224 1468:0 1469:3.3765771 1470:18.539988 1471:17.437754 1472:0.72552162 1473:1.8534923 1474:3.7879863 1475:4.7877159 1476:2.5679684 1477:0 1478:11.087376 1479:14.753488 1480:9.4073582 1481:6.8360224 1482:10.493939 1483:11.934278 1484:9.3951988 1485:12.685546 1486:0 1487:12.49192 1488:11.234323 1489:10.881055 1490:17.288971 1491:16.930822 1492:8.9824924 1493:10.257585 1494:13.553203 1495:0 1496:3.4215786 1497:18.787079 1498:17.670155 1499:0.73519105 1500:1.8781947 1501:3.8384707 1502:4.8515244 1503:2.6021929 1504:0 1505:3.2408009 1506:15.474179 1507:20.401566 1508:2.3598678 1509:4.2346435 1510:3.0492232 1511:2.2624931 1512:3.1498337 1513:0 1514:11.860498 1515:10.666469 1516:10.331057 1517:16.415075 1518:16.075029 1519:8.5284595 1520:9.7391005 1521:12.868137 1522:0 1523:5.1691127 1524:22.281437 1525:17.034794 1526:8.7214737 1527:7.8669019 1528:14.316647 1529:22.412365 1530:5.9032626 1531:0 1532:3.0769901 1533:14.692016 1534:19.37034 1535:2.2405851 1536:4.0205975 1537:2.8950961 1538:2.1481323 1539:2.9906209 1540:0 1541:0.55534649 1542:21.378304 1543:23.698282 1544:1.1982747 1545:1.6938426 1546:4.1395249 1547:6.6647601 1548:0.98536777 1549:0 1550:5.1209545 1551:22.073853 1552:16.876089 1553:8.6402206 1554:7.7936101 1555:14.183267 1556:22.20356 1557:5.8482652 1558:0 1559:4.7895451 1560:23.080664 1561:15.551847 1562:6.4803686 1563:5.5562572 1564:13.964856 1565:21.511358 1566:4.6711903 1567:0 1568:0.55017263 1569:21.179134 1570:23.477497 1571:1.187111 1572:1.678062 1573:4.1009593 1574:6.6026678 1575:0.97618765 1576:0 1577:0.91846234 1578:23.023554 1579:19.364269 1580:0.89466858 1581:1.1603276 1582:4.4082084 1583:6.305069 1584:0.69916493 1585:0 1586:6.0714278 1587:29.258015 1588:19.71417 1589:8.2147865 1590:7.043344 1591:17.702436 1592:27.268698 1593:5.9213963 1594:0 1595:3.465564 1596:6.997777 1597:5.2488847 1598:1.8717573 1599:1.736595 1600:4.6335497 1601:5.5203366 1602:2.568984 1603:0 1604:1.1642812 1605:29.185619 1606:24.546959 1607:1.1341193 1608:1.4708798 1609:5.5880299 1610:7.9925694 1611:0.88629073 1612:0 1613:0.59056395 1614:10.076476 1615:8.1844463 1616:0.22885767 1617:0.052585252 1618:1.8310112 1619:2.0826321 1620:0.13840781 1621:0 1622:0.70717245 1623:9.1981611 1624:10.59166 1625:0.95978504 1626:1.9743193 1627:2.1372221 1628:1.971162 1629:1.0273622 1630:0 1631:0.51266974 1632:281.40872 1633:229.62323 1634:2.3556387 1635:9.0921774 1636:34.475655 1637:10.895997 1638:3.9604912 1639:0 1640:0 1641:0 1642:0 1643:0 1644:0 1645:0 1646:0 1647:0 1648:0 1649:-0.91646957 1650:-59.534775 1651:-48.284355 1652:-1.4922894 1653:-3.701905 1654:-3.3102562 1655:-3.2073281 1656:-3.5384672 1657:0 1658:0.50295192 1659:276.07452 1660:225.27066 1661:2.3109868 1662:8.9198332 1663:33.822159 1664:10.68946 1665:3.8854189 1666:0 1667:1.1515783 1668:16.628939 1669:14.296664 1670:1.6100625 1671:2.2109077 1672:4.1259775 1673:4.1054597 1674:2.150095 1675:0 1676:-0.89909762 1677:-58.406277 1678:-47.36911 1679:-1.4640026 1680:-3.6317344 1681:-3.2475095 1682:-3.1465323 1683:-3.4713945 1684:0 1685:0 1686:0 1687:0 1688:0 1689:0 1690:0 1691:0 1692:0 1693:0 1694:2.7161286 1695:39.221245 1696:33.72031 1697:3.7975154 1698:5.2146773 1699:9.7315874 1700:9.6831932 1701:5.0712438 1702:0 1703:2.6432254 1704:35.778728 1705:33.572952 1706:0.9627353 1707:2.9974241 1708:9.5265074 1709:8.6455765 1710:2.8211277 1711:0 1712:0 1713:0 1714:0 1715:0 1716:0 1717:0 1718:0 1719:0 1720:0 1721:0 1722:0 1723:0 1724:0 1725:0 1726:0 1727:0 1728:0 1729:0 1730:2.7914636 1731:37.785282 1732:35.455803 1733:1.0167278 1734:3.1655266 1735:10.060776 1736:9.1304407 1737:2.9793429 1738:0 1739:9.4131365 1740:24.605227 1741:29.248848 1742:3.8800225 1743:7.1150041 1744:6.0594664 1745:5.4927573 1746:6.9593759 1747:0 1748:0 1749:0 1750:0 1751:0 1752:0 1753:0 1754:0 1755:0 1756:0 1757:0 1758:0 1759:0 1760:0 1761:0 1762:0 1763:0 1764:0 1765:0 1766:9.3350935 1767:24.401226 1768:29.00635 1769:3.8478534 1770:7.0560145 1771:6.0092278 1772:5.447217 1773:6.9016762 1774:0 1775:2.0886693 1776:35.002487 1777:40.366451 1778:3.4999008 1779:5.5527396 1780:6.4196286 1781:8.0381279 1782:3.8181 1783:0 1784:0 1785:0 1786:0 1787:0 1788:0 1789:0 1790:0 1791:0 1792:0 1793:0 1794:0 1795:0 1796:0 1797:0 1798:0 1799:0 1800:0 1801:0 1802:1.9943122 1803:33.421227 1804:38.542866 1805:3.3417902 1806:5.3018904 1807:6.1296172 1808:7.6749997 1809:3.6456144 1810:0 1811:1.5158377 1812:38.235783 1813:36.619957 1814:2.7220984 1815:3.5433853 1816:8.3391943 1817:13.508096 1818:1.5648696 1819:0 1820:0 1821:0 1822:0 1823:0 1824:0 1825:0 1826:0 1827:0 1828:0 1829:0 1830:0 1831:0 1832:0 1833:0 1834:0 1835:0 1836:0 1837:0 1838:1.5660708 1839:39.502876 1840:37.8335 1841:2.8123055 1842:3.6608093 1843:8.6155462 1844:13.955739 1845:1.6167276 1846:0 1847:2.0778596 1848:35.904392 1849:31.113903 1850:1.6613002 1851:2.1259048 1852:6.6449299 1853:9.0955906 1854:1.3032278 1855:0 1856:0 1857:0 1858:0 1859:0 1860:0 1861:0 1862:0 1863:0 1864:0 1865:0 1866:0 1867:0 1868:0 1869:0 1870:0 1871:0 1872:0 1873:0 1874:2.1428709 1875:37.027756 1876:32.087383 1877:1.7132784 1878:2.1924193 1879:6.8528337 1880:9.3801699 1881:1.3440027 1882:0 1883:1.9538844 1884:36.225494 1885:36.482281 1886:2.2946801 1887:4.4616113 1888:7.9549136 1889:7.940773 1890:3.3840647 1891:0 1892:0 1893:0 1894:0 1895:0 1896:0 1897:0 1898:0 1899:0 1900:0 1901:0 1902:0 1903:0 1904:0 1905:0 1906:0 1907:0 1908:0 1909:0 1910:1.8889838 1911:35.022224 1912:35.270481 1913:2.2184598 1914:4.3134136 1915:7.6906819 1916:7.677011 1917:3.2716591 1918:0 1919:1.9873829 1920:36.8111 1921:35.661892 1922:3.0804701 1923:3.9152308 1924:8.2039862 1925:8.5133371 1926:4.5581427 1927:0 1928:0 1929:0 1930:0 1931:0 1932:0 1933:0 1934:0 1935:0 1936:0 1937:0 1938:0 1939:0 1940:0 1941:0 1942:0 1943:0 1944:0 1945:0 1946:2.0192838 1947:37.401981 1948:36.234325 1949:3.1299167 1950:3.9780767 1951:8.3356743 1952:8.6499901 1953:4.6313086 1954:0 1955:1.9842855 1956:35.129093 1957:31.602652 1958:1.9451487 1959:3.5078473 1960:8.691494 1961:6.9697638 1962:2.7126594 1963:0 1964:0 1965:0 1966:0 1967:0 1968:0 1969:0 1970:0 1971:0 1972:0 1973:0 1974:0 1975:0 1976:0 1977:0 1978:0 1979:0 1980:0 1981:0 1982:2.1143935 1983:37.43248 1984:33.674812 1985:2.0726907 1986:3.7378542 1987:9.2613888 1988:7.4267654 1989:2.8905261 1990:0 1991:5.4834328 1992:30.108234 1993:28.318249 1994:1.1782196 1995:3.0100009 1996:6.1515455 1997:7.7750688 1998:4.1702828 1999:0 2000:0 2001:0 2002:0 2003:0 2004:0 2005:0 2006:0 2007:0 2008:0 2009:0 2010:0 2011:0 2012:0 2013:0 2014:0 2015:0 2016:0 2017:0 2018:5.6672463 2019:31.117512 2020:29.267521 2021:1.2177154 2022:3.1109011 2023:6.3577552 2024:8.0357018 2025:4.3100777 2026:0 2027:5.3678198 2028:25.630272 2029:33.791622 2030:3.9087083 2031:7.0139461 2032:5.0505047 2033:3.7474239 2034:5.2171483 2035:0 2036:0 2037:0 2038:0 2039:0 2040:0 2041:0 2042:0 2043:0 2044:0 2045:0 2046:0 2047:0 2048:0 2049:0 2050:0 2051:0 2052:0 2053:0 2054:5.1409121 2055:24.546831 2056:32.36319 2057:3.7434797 2058:6.7174535 2059:4.8370104 2060:3.5890133 2061:4.9966097 2062:0 2063:0.92785072 2064:35.718014 2065:39.594139 2066:2.0020294 2067:2.8300045 2068:6.916153 2069:11.135214 2070:1.6463131 2071:0 2072:0 2073:0 2074:0 2075:0 2076:0 2077:0 2078:0 2079:0 2080:0 2081:0 2082:0 2083:0 2084:0 2085:0 2086:0 2087:0 2088:0 2089:0 2090:0.90438861 2091:34.814831 2092:38.592941 2093:1.9514052 2094:2.7584436 2095:6.7412672 2096:10.853643 2097:1.6046835 2098:0 2099:1.509793 2100:37.846737 2101:31.831509 2102:1.4706802 2103:1.9073777 2104:7.2463317 2105:10.364443 2106:1.1493062 2107:0 2108:0 2109:0 2110:0 2111:0 2112:0 2113:0 2114:0 2115:0 2116:0 2117:0 2118:0 2119:0 2120:0 2121:0 2122:0 2123:0 2124:0 2125:0 2126:1.8811064 2127:47.154633 2128:39.660042 2129:1.8323743 2130:2.3764718 2131:9.02847 2132:12.913438 2133:1.4319626 2134:0 2135:0.9541626 2136:16.280365 2137:13.22345 2138:0.36976084 2139:0.08496096 2140:2.9583287 2141:3.3648677 2142:0.2236228 2143:0 2144:0 2145:0 2146:0 2147:0 2148:0 2149:0 2150:0 2151:0 2152:0 2153:0 2154:0 2155:0 2156:0 2157:0 2158:0 2159:0 2160:0 
